<?xml version="1.0"?>
<MethodSetup Method="BDT::BDT_GRAD_1000">
  <GeneralInfo>
    <Info name="TMVA Release" value="4.2.0 [262656]"/>
    <Info name="ROOT Release" value="6.02/05 [393733]"/>
    <Info name="Creator" value="kkousour"/>
    <Info name="Date" value="Tue Jun  9 07:51:28 2015"/>
    <Info name="Host" value="Linux cmsbuild13.cern.ch 2.6.32-504.8.1.el6.x86_64 #1 SMP Wed Jan 28 08:50:46 CET 2015 x86_64 x86_64 x86_64 GNU/Linux"/>
    <Info name="Dir" value="/afs/cern.ch/work/k/kkousour/private/CMSSW_7_4_0_patch1/src/KKousour/TopAnalysis/test"/>
    <Info name="Training events" value="17306"/>
    <Info name="TrainingTime" value="4.60247130e+01"/>
    <Info name="AnalysisType" value="Classification"/>
  </GeneralInfo>
  <Options>
    <Option name="V" modified="No">False</Option>
    <Option name="VerbosityLevel" modified="No">Default</Option>
    <Option name="VarTransform" modified="No">None</Option>
    <Option name="H" modified="No">False</Option>
    <Option name="CreateMVAPdfs" modified="No">False</Option>
    <Option name="IgnoreNegWeightsInTraining" modified="No">False</Option>
    <Option name="NTrees" modified="Yes">1000</Option>
    <Option name="MaxDepth" modified="No">3</Option>
    <Option name="MinNodeSize" modified="No">5%</Option>
    <Option name="nCuts" modified="No">20</Option>
    <Option name="BoostType" modified="Yes">Grad</Option>
    <Option name="AdaBoostR2Loss" modified="No">quadratic</Option>
    <Option name="UseBaggedBoost" modified="No">False</Option>
    <Option name="Shrinkage" modified="Yes">1.000000e-01</Option>
    <Option name="AdaBoostBeta" modified="No">5.000000e-01</Option>
    <Option name="UseRandomisedTrees" modified="No">False</Option>
    <Option name="UseNvars" modified="No">5</Option>
    <Option name="UsePoissonNvars" modified="No">True</Option>
    <Option name="BaggedSampleFraction" modified="No">6.000000e-01</Option>
    <Option name="UseYesNoLeaf" modified="No">True</Option>
    <Option name="NegWeightTreatment" modified="No">ignorenegweightsintraining</Option>
    <Option name="Css" modified="No">1.000000e+00</Option>
    <Option name="Cts_sb" modified="No">1.000000e+00</Option>
    <Option name="Ctb_ss" modified="No">1.000000e+00</Option>
    <Option name="Cbb" modified="No">1.000000e+00</Option>
    <Option name="NodePurityLimit" modified="No">5.000000e-01</Option>
    <Option name="SeparationType" modified="No">giniindex</Option>
    <Option name="DoBoostMonitor" modified="No">False</Option>
    <Option name="UseFisherCuts" modified="No">False</Option>
    <Option name="MinLinCorrForFisher" modified="No">8.000000e-01</Option>
    <Option name="UseExclusiveVars" modified="No">False</Option>
    <Option name="DoPreselection" modified="No">False</Option>
    <Option name="SigToBkgFraction" modified="No">1.000000e+00</Option>
    <Option name="PruneMethod" modified="No">nopruning</Option>
    <Option name="PruneStrength" modified="No">0.000000e+00</Option>
    <Option name="PruningValFraction" modified="No">5.000000e-01</Option>
    <Option name="nEventsMin" modified="No">0</Option>
    <Option name="UseBaggedGrad" modified="No">False</Option>
    <Option name="GradBaggingFraction" modified="No">6.000000e-01</Option>
    <Option name="UseNTrainEvents" modified="No">0</Option>
    <Option name="NNodesMax" modified="No">0</Option>
  </Options>
  <Variables NVar="20">
    <Variable VarIndex="0" Expression="nJets" Label="nJets" Title="nJets" Unit="" Internal="nJets" Type="I" Min="6.00000000e+00" Max="1.50000000e+01"/>
    <Variable VarIndex="1" Expression="ht" Label="ht" Title="ht" Unit="" Internal="ht" Type="F" Min="5.00011230e+02" Max="5.03676416e+03"/>
    <Variable VarIndex="2" Expression="htBtag" Label="htBtag" Title="htBtag" Unit="" Internal="htBtag" Type="F" Min="6.41355591e+01" Max="2.45755566e+03"/>
    <Variable VarIndex="3" Expression="jetPt[0]" Label="jetPt[0]" Title="jetPt[0]" Unit="" Internal="jetPt_0_" Type="F" Min="7.18758011e+01" Max="2.07871655e+03"/>
    <Variable VarIndex="4" Expression="jetPt[1]" Label="jetPt[1]" Title="jetPt[1]" Unit="" Internal="jetPt_1_" Type="F" Min="4.92557487e+01" Max="1.72415381e+03"/>
    <Variable VarIndex="5" Expression="jetPt[2]" Label="jetPt[2]" Title="jetPt[2]" Unit="" Internal="jetPt_2_" Type="F" Min="4.47811928e+01" Max="6.87441956e+02"/>
    <Variable VarIndex="6" Expression="jetPt[3]" Label="jetPt[3]" Title="jetPt[3]" Unit="" Internal="jetPt_3_" Type="F" Min="4.18549080e+01" Max="5.13746948e+02"/>
    <Variable VarIndex="7" Expression="jetPt[4]" Label="jetPt[4]" Title="jetPt[4]" Unit="" Internal="jetPt_4_" Type="F" Min="4.02411270e+01" Max="3.63818390e+02"/>
    <Variable VarIndex="8" Expression="jetPt[5]" Label="jetPt[5]" Title="jetPt[5]" Unit="" Internal="jetPt_5_" Type="F" Min="4.00017281e+01" Max="2.27659821e+02"/>
    <Variable VarIndex="9" Expression="mbbMin" Label="mbbMin" Title="mbbMin" Unit="" Internal="mbbMin" Type="F" Min="1.93943844e+01" Max="3.24822632e+03"/>
    <Variable VarIndex="10" Expression="dRbbMin" Label="dRbbMin" Title="dRbbMin" Unit="" Internal="dRbbMin" Type="F" Min="3.98717254e-01" Max="5.16924858e+00"/>
    <Variable VarIndex="11" Expression="qglAve" Label="qglAve" Title="qglAve" Unit="" Internal="qglAve" Type="F" Min="1.55453354e-01" Max="9.99866545e-01"/>
    <Variable VarIndex="12" Expression="qglMin" Label="qglMin" Title="qglMin" Unit="" Internal="qglMin" Type="F" Min="0.00000000e+00" Max="9.99866545e-01"/>
    <Variable VarIndex="13" Expression="qglMedian" Label="qglMedian" Title="qglMedian" Unit="" Internal="qglMedian" Type="F" Min="9.56394076e-02" Max="9.99866545e-01"/>
    <Variable VarIndex="14" Expression="sphericity" Label="sphericity" Title="sphericity" Unit="" Internal="sphericity" Type="F" Min="3.93175427e-03" Max="9.46980059e-01"/>
    <Variable VarIndex="15" Expression="aplanarity" Label="aplanarity" Title="aplanarity" Unit="" Internal="aplanarity" Type="F" Min="1.39898126e-04" Max="4.15311635e-01"/>
    <Variable VarIndex="16" Expression="foxWolfram[0]" Label="foxWolfram[0]" Title="foxWolfram[0]" Unit="" Internal="foxWolfram_0_" Type="F" Min="1.95218772e-01" Max="4.51622218e-01"/>
    <Variable VarIndex="17" Expression="foxWolfram[1]" Label="foxWolfram[1]" Title="foxWolfram[1]" Unit="" Internal="foxWolfram_1_" Type="F" Min="-2.12444752e-01" Max="1.79051742e-01"/>
    <Variable VarIndex="18" Expression="foxWolfram[2]" Label="foxWolfram[2]" Title="foxWolfram[2]" Unit="" Internal="foxWolfram_2_" Type="F" Min="-3.98724787e-02" Max="3.82726133e-01"/>
    <Variable VarIndex="19" Expression="foxWolfram[3]" Label="foxWolfram[3]" Title="foxWolfram[3]" Unit="" Internal="foxWolfram_3_" Type="F" Min="-1.93169013e-01" Max="1.92842633e-01"/>
  </Variables>
  <Spectators NSpec="0"/>
  <Classes NClass="2">
    <Class Name="Signal" Index="0"/>
    <Class Name="Background" Index="1"/>
  </Classes>
  <Transformations NTransformations="0"/>
  <MVAPdfs/>
  <Weights NTrees="1000" AnalysisType="1">
    <BinaryTree type="DecisionTree" boostWeight="1.0000000000000000e+00" itree="0">
      <Node pos="s" depth="0" NCoef="0" IVar="0" Cut="8.0000000000000000e+00" cType="1" res="6.4748854437530600e-15" rms="5.0000000000000000e-01" purity="5.0000000000000000e-01" nType="0">
        <Node pos="l" depth="1" NCoef="0" IVar="15" Cut="3.3341605216264725e-02" cType="1" res="3.4920853376388550e-01" rms="4.7704076766967773e-01" purity="3.4951448440551758e-01" nType="0">
          <Node pos="l" depth="2" NCoef="0" IVar="2" Cut="2.7733029174804688e+02" cType="1" res="2.1473042666912079e-01" rms="4.1150292754173279e-01" purity="2.1544381976127625e-01" nType="0">
            <Node pos="l" depth="3" NCoef="0" IVar="-1" Cut="0.0000000000000000e+00" cType="1" res="-3.5323698539286852e-03" rms="3.6471310257911682e-01" purity="1.5797026455402374e-01" nType="-99"/>
            <Node pos="r" depth="3" NCoef="0" IVar="-1" Cut="0.0000000000000000e+00" cType="1" res="-2.5217199698090553e-02" rms="4.6577122807502747e-01" purity="3.1818372011184692e-01" nType="-99"/>
          </Node>
          <Node pos="r" depth="2" NCoef="0" IVar="0" Cut="7.0000000000000000e+00" cType="1" res="-4.9801878631114960e-02" rms="4.9751359224319458e-01" purity="4.5019814372062683e-01" nType="0">
            <Node pos="l" depth="3" NCoef="0" IVar="-1" Cut="0.0000000000000000e+00" cType="1" res="-7.8805387020111084e-03" rms="4.6455794572830200e-01" purity="3.1510564684867859e-01" nType="-99"/>
            <Node pos="r" depth="3" NCoef="0" IVar="-1" Cut="0.0000000000000000e+00" cType="1" res="1.0946231195703149e-03" rms="4.9830335378646851e-01" purity="5.4115521907806396e-01" nType="-99"/>
          </Node>
        </Node>
        <Node pos="r" depth="1" NCoef="0" IVar="2" Cut="1.6714715576171875e+02" cType="1" res="1.3209205353632569e-03" rms="5.1306116580963135e-01" purity="7.3174518346786499e-01" nType="0">
          <Node pos="l" depth="2" NCoef="0" IVar="-1" Cut="0.0000000000000000e+00" cType="1" res="6.2122120289131999e-04" rms="4.9905058741569519e-01" purity="5.3079777956008911e-01" nType="-99"/>
          <Node pos="r" depth="2" NCoef="0" IVar="15" Cut="4.0546000003814697e-02" cType="1" res="1.7640854930505157e-03" rms="5.0044286251068115e-01" purity="7.9916238784790039e-01" nType="0">
            <Node pos="l" depth="3" NCoef="0" IVar="-1" Cut="0.0000000000000000e+00" cType="1" res="2.5310972705483437e-02" rms="4.7448292374610901e-01" purity="6.5768939256668091e-01" nType="-99"/>
            <Node pos="r" depth="3" NCoef="0" IVar="-1" Cut="0.0000000000000000e+00" cType="1" res="6.2482487410306931e-02" rms="3.4688130021095276e-01" purity="8.6010187864303589e-01" nType="-99"/>
          </Node>
        </Node>
      </Node>
    </BinaryTree>
    <BinaryTree type="DecisionTree" boostWeight="1.0000000000000000e+00" itree="1">
      <Node pos="s" depth="0" NCoef="0" IVar="0" Cut="8.0000000000000000e+00" cType="1" res="-5.6763011962175369e-03" rms="4.9434065818786621e-01" purity="5.0000000000000000e-01" nType="0">
        <Node pos="l" depth="1" NCoef="0" IVar="15" Cut="3.3341605216264725e-02" cType="1" res="3.4920853376388550e-01" rms="4.7704076766967773e-01" purity="3.4951448440551758e-01" nType="0">
          <Node pos="l" depth="2" NCoef="0" IVar="2" Cut="2.7733029174804688e+02" cType="1" res="2.1473042666912079e-01" rms="4.1150292754173279e-01" purity="2.1544381976127625e-01" nType="0">
            <Node pos="l" depth="3" NCoef="0" IVar="-1" Cut="0.0000000000000000e+00" cType="1" res="-3.5141732078045607e-03" rms="3.6471313238143921e-01" purity="1.5797026455402374e-01" nType="-99"/>
            <Node pos="r" depth="3" NCoef="0" IVar="-1" Cut="0.0000000000000000e+00" cType="1" res="-2.3483734577894211e-02" rms="4.6577122807502747e-01" purity="3.1818372011184692e-01" nType="-99"/>
          </Node>
          <Node pos="r" depth="2" NCoef="0" IVar="0" Cut="7.0000000000000000e+00" cType="1" res="-4.8543523997068405e-02" rms="4.9702790379524231e-01" purity="4.5019814372062683e-01" nType="0">
            <Node pos="l" depth="3" NCoef="0" IVar="-1" Cut="0.0000000000000000e+00" cType="1" res="-7.7130799181759357e-03" rms="4.6455791592597961e-01" purity="3.1510564684867859e-01" nType="-99"/>
            <Node pos="r" depth="3" NCoef="0" IVar="-1" Cut="0.0000000000000000e+00" cType="1" res="1.0800674790516496e-03" rms="4.9830335378646851e-01" purity="5.4115521907806396e-01" nType="-99"/>
          </Node>
        </Node>
        <Node pos="r" depth="1" NCoef="0" IVar="2" Cut="1.6714715576171875e+02" cType="1" res="1.3209205353632569e-03" rms="5.1306116580963135e-01" purity="7.3174518346786499e-01" nType="0">
          <Node pos="l" depth="2" NCoef="0" IVar="-1" Cut="0.0000000000000000e+00" cType="1" res="6.1495631234720349e-04" rms="4.9905058741569519e-01" purity="5.3079777956008911e-01" nType="-99"/>
          <Node pos="r" depth="2" NCoef="0" IVar="9" Cut="1.4848216247558594e+02" cType="1" res="1.7640854930505157e-03" rms="5.0044286251068115e-01" purity="7.9916238784790039e-01" nType="0">
            <Node pos="l" depth="3" NCoef="0" IVar="-1" Cut="0.0000000000000000e+00" cType="1" res="5.8817792683839798e-02" rms="3.3947563171386719e-01" purity="8.6544066667556763e-01" nType="-99"/>
            <Node pos="r" depth="3" NCoef="0" IVar="-1" Cut="0.0000000000000000e+00" cType="1" res="2.4746851995587349e-02" rms="4.6624439954757690e-01" purity="6.7579686641693115e-01" nType="-99"/>
          </Node>
        </Node>
      </Node>
    </BinaryTree>
    <BinaryTree type="DecisionTree" boostWeight="1.0000000000000000e+00" itree="2">
      <Node pos="s" depth="0" NCoef="0" IVar="0" Cut="8.0000000000000000e+00" cType="1" res="-1.0763153433799744e-02" rms="4.8941552639007568e-01" purity="5.0000000000000000e-01" nType="0">
        <Node pos="l" depth="1" NCoef="0" IVar="15" Cut="3.3341605216264725e-02" cType="1" res="3.4920853376388550e-01" rms="4.7704076766967773e-01" purity="3.4951448440551758e-01" nType="0">
          <Node pos="l" depth="2" NCoef="0" IVar="2" Cut="2.7733029174804688e+02" cType="1" res="2.1473042666912079e-01" rms="4.1150292754173279e-01" purity="2.1544381976127625e-01" nType="0">
            <Node pos="l" depth="3" NCoef="0" IVar="-1" Cut="0.0000000000000000e+00" cType="1" res="-3.4961570054292679e-03" rms="3.6471313238143921e-01" purity="1.5797026455402374e-01" nType="-99"/>
            <Node pos="r" depth="3" NCoef="0" IVar="-1" Cut="0.0000000000000000e+00" cType="1" res="-2.1894400939345360e-02" rms="4.6577122807502747e-01" purity="3.1818372011184692e-01" nType="-99"/>
          </Node>
          <Node pos="r" depth="2" NCoef="0" IVar="0" Cut="7.0000000000000000e+00" cType="1" res="-4.7314707189798355e-02" rms="4.9656113982200623e-01" purity="4.5019814372062683e-01" nType="0">
            <Node pos="l" depth="3" NCoef="0" IVar="-1" Cut="0.0000000000000000e+00" cType="1" res="-7.5500872917473316e-03" rms="4.6455794572830200e-01" purity="3.1510564684867859e-01" nType="-99"/>
            <Node pos="r" depth="3" NCoef="0" IVar="-1" Cut="0.0000000000000000e+00" cType="1" res="1.0657074162736535e-03" rms="4.9830338358879089e-01" purity="5.4115521907806396e-01" nType="-99"/>
          </Node>
        </Node>
        <Node pos="r" depth="1" NCoef="0" IVar="16" Cut="3.9457705616950989e-01" cType="1" res="1.3209205353632569e-03" rms="5.1306116580963135e-01" purity="7.3174518346786499e-01" nType="0">
          <Node pos="l" depth="2" NCoef="0" IVar="11" Cut="8.8913255929946899e-01" cType="1" res="5.0394316203892231e-03" rms="3.5044351220130920e-01" purity="5.5965304374694824e-01" nType="0">
            <Node pos="l" depth="3" NCoef="0" IVar="-1" Cut="0.0000000000000000e+00" cType="1" res="-1.3215296203270555e-03" rms="4.9122691154479980e-01" purity="4.6497553586959839e-01" nType="-99"/>
            <Node pos="r" depth="3" NCoef="0" IVar="-1" Cut="0.0000000000000000e+00" cType="1" res="2.0742956548929214e-02" rms="4.7062006592750549e-01" purity="6.5730643272399902e-01" nType="-99"/>
          </Node>
          <Node pos="r" depth="2" NCoef="0" IVar="2" Cut="2.3523330688476562e+02" cType="1" res="0.0000000000000000e+00" rms="0.0000000000000000e+00" purity="7.9287713766098022e-01" nType="0">
            <Node pos="l" depth="3" NCoef="0" IVar="-1" Cut="0.0000000000000000e+00" cType="1" res="7.9574771225452423e-03" rms="4.5069873332977295e-01" purity="7.0388823747634888e-01" nType="-99"/>
            <Node pos="r" depth="3" NCoef="0" IVar="-1" Cut="0.0000000000000000e+00" cType="1" res="5.6160088628530502e-02" rms="3.3627954125404358e-01" purity="8.6720246076583862e-01" nType="-99"/>
          </Node>
        </Node>
      </Node>
    </BinaryTree>
    <BinaryTree type="DecisionTree" boostWeight="1.0000000000000000e+00" itree="3">
      <Node pos="s" depth="0" NCoef="0" IVar="0" Cut="8.0000000000000000e+00" cType="1" res="-1.4415911398828030e-02" rms="4.8558282852172852e-01" purity="5.0000000000000000e-01" nType="0">
        <Node pos="l" depth="1" NCoef="0" IVar="15" Cut="3.3341605216264725e-02" cType="1" res="0.0000000000000000e+00" rms="5.9119749069213867e-01" purity="3.4951448440551758e-01" nType="0">
          <Node pos="l" depth="2" NCoef="0" IVar="2" Cut="2.7733029174804688e+02" cType="1" res="0.0000000000000000e+00" rms="0.0000000000000000e+00" purity="2.1544381976127625e-01" nType="0">
            <Node pos="l" depth="3" NCoef="0" IVar="-1" Cut="0.0000000000000000e+00" cType="1" res="-3.4783175215125084e-03" rms="3.6471310257911682e-01" purity="1.5797026455402374e-01" nType="-99"/>
            <Node pos="r" depth="3" NCoef="0" IVar="-1" Cut="0.0000000000000000e+00" cType="1" res="-2.0431153476238251e-02" rms="4.6577122807502747e-01" purity="3.1818372011184692e-01" nType="-99"/>
          </Node>
          <Node pos="r" depth="2" NCoef="0" IVar="0" Cut="7.0000000000000000e+00" cType="1" res="-4.6114724129438400e-02" rms="4.9611252546310425e-01" purity="4.5019814372062683e-01" nType="0">
            <Node pos="l" depth="3" NCoef="0" IVar="-1" Cut="0.0000000000000000e+00" cType="1" res="-7.3913703672587872e-03" rms="4.6455794572830200e-01" purity="3.1510564684867859e-01" nType="-99"/>
            <Node pos="r" depth="3" NCoef="0" IVar="-1" Cut="0.0000000000000000e+00" cType="1" res="1.0515413014218211e-03" rms="4.9830335378646851e-01" purity="5.4115521907806396e-01" nType="-99"/>
          </Node>
        </Node>
        <Node pos="r" depth="1" NCoef="0" IVar="16" Cut="4.0598610043525696e-01" cType="1" res="1.3209205353632569e-03" rms="5.1306116580963135e-01" purity="7.3174518346786499e-01" nType="0">
          <Node pos="l" depth="2" NCoef="0" IVar="10" Cut="1.9909288883209229e+00" cType="1" res="3.2425604294985533e-03" rms="3.9611557126045227e-01" purity="6.0916590690612793e-01" nType="0">
            <Node pos="l" depth="3" NCoef="0" IVar="-1" Cut="0.0000000000000000e+00" cType="1" res="2.2138489410281181e-02" rms="4.5602560043334961e-01" purity="6.8383461236953735e-01" nType="-99"/>
            <Node pos="r" depth="3" NCoef="0" IVar="-1" Cut="0.0000000000000000e+00" cType="1" res="-1.5808256575837731e-03" rms="4.9391806125640869e-01" purity="4.5417508482933044e-01" nType="-99"/>
          </Node>
          <Node pos="r" depth="2" NCoef="0" IVar="2" Cut="1.9834434509277344e+02" cType="1" res="0.0000000000000000e+00" rms="0.0000000000000000e+00" purity="8.1600517034530640e-01" nType="0">
            <Node pos="l" depth="3" NCoef="0" IVar="-1" Cut="0.0000000000000000e+00" cType="1" res="5.2839606069028378e-03" rms="4.5698782801628113e-01" purity="6.9352716207504272e-01" nType="-99"/>
            <Node pos="r" depth="3" NCoef="0" IVar="-1" Cut="0.0000000000000000e+00" cType="1" res="5.4277643561363220e-02" rms="3.2163128256797791e-01" purity="8.8020980358123779e-01" nType="-99"/>
          </Node>
        </Node>
      </Node>
    </BinaryTree>
    <BinaryTree type="DecisionTree" boostWeight="1.0000000000000000e+00" itree="4">
      <Node pos="s" depth="0" NCoef="0" IVar="0" Cut="8.0000000000000000e+00" cType="1" res="-1.8143029883503914e-02" rms="4.8197746276855469e-01" purity="5.0000000000000000e-01" nType="0">
        <Node pos="l" depth="1" NCoef="0" IVar="15" Cut="3.3341605216264725e-02" cType="1" res="0.0000000000000000e+00" rms="0.0000000000000000e+00" purity="3.4951448440551758e-01" nType="0">
          <Node pos="l" depth="2" NCoef="0" IVar="2" Cut="2.7733029174804688e+02" cType="1" res="0.0000000000000000e+00" rms="0.0000000000000000e+00" purity="2.1544381976127625e-01" nType="0">
            <Node pos="l" depth="3" NCoef="0" IVar="-1" Cut="0.0000000000000000e+00" cType="1" res="-3.4606526605784893e-03" rms="3.6471310257911682e-01" purity="1.5797026455402374e-01" nType="-99"/>
            <Node pos="r" depth="3" NCoef="0" IVar="-1" Cut="0.0000000000000000e+00" cType="1" res="-1.9079288467764854e-02" rms="4.6577122807502747e-01" purity="3.1818372011184692e-01" nType="-99"/>
          </Node>
          <Node pos="r" depth="2" NCoef="0" IVar="0" Cut="7.0000000000000000e+00" cType="1" res="-4.4942956417798996e-02" rms="4.9568137526512146e-01" purity="4.5019814372062683e-01" nType="0">
            <Node pos="l" depth="3" NCoef="0" IVar="-1" Cut="0.0000000000000000e+00" cType="1" res="-7.2367540560662746e-03" rms="4.6455794572830200e-01" purity="3.1510564684867859e-01" nType="-99"/>
            <Node pos="r" depth="3" NCoef="0" IVar="-1" Cut="0.0000000000000000e+00" cType="1" res="1.0375656420364976e-03" rms="4.9830335378646851e-01" purity="5.4115521907806396e-01" nType="-99"/>
          </Node>
        </Node>
        <Node pos="r" depth="1" NCoef="0" IVar="15" Cut="4.0546000003814697e-02" cType="1" res="1.3209205353632569e-03" rms="5.1306116580963135e-01" purity="7.3174518346786499e-01" nType="0">
          <Node pos="l" depth="2" NCoef="0" IVar="2" Cut="2.7087139892578125e+02" cType="1" res="0.0000000000000000e+00" rms="0.0000000000000000e+00" purity="5.7880985736846924e-01" nType="0">
            <Node pos="l" depth="3" NCoef="0" IVar="-1" Cut="0.0000000000000000e+00" cType="1" res="-1.1901605175808072e-03" rms="4.9380761384963989e-01" purity="4.8680108785629272e-01" nType="-99"/>
            <Node pos="r" depth="3" NCoef="0" IVar="-1" Cut="0.0000000000000000e+00" cType="1" res="2.3317303508520126e-02" rms="4.5477685332298279e-01" purity="6.9366216659545898e-01" nType="-99"/>
          </Node>
          <Node pos="r" depth="2" NCoef="0" IVar="16" Cut="4.1029733419418335e-01" cType="1" res="1.9200920360162854e-03" rms="5.1550126075744629e-01" purity="8.0111682415008545e-01" nType="0">
            <Node pos="l" depth="3" NCoef="0" IVar="-1" Cut="0.0000000000000000e+00" cType="1" res="2.4145992472767830e-02" rms="4.4207474589347839e-01" purity="7.1500837802886963e-01" nType="-99"/>
            <Node pos="r" depth="3" NCoef="0" IVar="-1" Cut="0.0000000000000000e+00" cType="1" res="1.5444495715200901e-02" rms="3.5141158103942871e-01" purity="8.4423643350601196e-01" nType="-99"/>
          </Node>
        </Node>
      </Node>
    </BinaryTree>
    <BinaryTree type="DecisionTree" boostWeight="1.0000000000000000e+00" itree="5">
      <Node pos="s" depth="0" NCoef="0" IVar="0" Cut="8.0000000000000000e+00" cType="1" res="-1.9572399556636810e-02" rms="4.8008134961128235e-01" purity="5.0000000000000000e-01" nType="0">
        <Node pos="l" depth="1" NCoef="0" IVar="15" Cut="3.3341605216264725e-02" cType="1" res="0.0000000000000000e+00" rms="0.0000000000000000e+00" purity="3.4951448440551758e-01" nType="0">
          <Node pos="l" depth="2" NCoef="0" IVar="2" Cut="2.7733029174804688e+02" cType="1" res="0.0000000000000000e+00" rms="0.0000000000000000e+00" purity="2.1544381976127625e-01" nType="0">
            <Node pos="l" depth="3" NCoef="0" IVar="-1" Cut="0.0000000000000000e+00" cType="1" res="-3.4431586973369122e-03" rms="3.6471310257911682e-01" purity="1.5797026455402374e-01" nType="-99"/>
            <Node pos="r" depth="3" NCoef="0" IVar="-1" Cut="0.0000000000000000e+00" cType="1" res="-1.7826672643423080e-02" rms="4.6577122807502747e-01" purity="3.1818372011184692e-01" nType="-99"/>
          </Node>
          <Node pos="r" depth="2" NCoef="0" IVar="0" Cut="7.0000000000000000e+00" cType="1" res="-4.3798740953207016e-02" rms="4.9526703357696533e-01" purity="4.5019814372062683e-01" nType="0">
            <Node pos="l" depth="3" NCoef="0" IVar="-1" Cut="0.0000000000000000e+00" cType="1" res="-7.0860693231225014e-03" rms="4.6455791592597961e-01" purity="3.1510564684867859e-01" nType="-99"/>
            <Node pos="r" depth="3" NCoef="0" IVar="-1" Cut="0.0000000000000000e+00" cType="1" res="1.0237772949039936e-03" rms="4.9830338358879089e-01" purity="5.4115521907806396e-01" nType="-99"/>
          </Node>
        </Node>
        <Node pos="r" depth="1" NCoef="0" IVar="16" Cut="4.0598610043525696e-01" cType="1" res="1.3209205353632569e-03" rms="5.1306116580963135e-01" purity="7.3174518346786499e-01" nType="0">
          <Node pos="l" depth="2" NCoef="0" IVar="10" Cut="1.9909288883209229e+00" cType="1" res="3.2425604294985533e-03" rms="3.9611557126045227e-01" purity="6.0916590690612793e-01" nType="0">
            <Node pos="l" depth="3" NCoef="0" IVar="-1" Cut="0.0000000000000000e+00" cType="1" res="1.9238682463765144e-02" rms="4.5478749275207520e-01" purity="6.8383461236953735e-01" nType="-99"/>
            <Node pos="r" depth="3" NCoef="0" IVar="-1" Cut="0.0000000000000000e+00" cType="1" res="-1.7032716423273087e-03" rms="4.9351435899734497e-01" purity="4.5417508482933044e-01" nType="-99"/>
          </Node>
          <Node pos="r" depth="2" NCoef="0" IVar="2" Cut="1.9834434509277344e+02" cType="1" res="0.0000000000000000e+00" rms="0.0000000000000000e+00" purity="8.1600517034530640e-01" nType="0">
            <Node pos="l" depth="3" NCoef="0" IVar="-1" Cut="0.0000000000000000e+00" cType="1" res="4.9856752157211304e-03" rms="4.5687672495841980e-01" purity="6.9352716207504272e-01" nType="-99"/>
            <Node pos="r" depth="3" NCoef="0" IVar="-1" Cut="0.0000000000000000e+00" cType="1" res="4.9473121762275696e-02" rms="3.2166779041290283e-01" purity="8.8020980358123779e-01" nType="-99"/>
          </Node>
        </Node>
      </Node>
    </BinaryTree>
    <BinaryTree type="DecisionTree" boostWeight="1.0000000000000000e+00" itree="6">
      <Node pos="s" depth="0" NCoef="0" IVar="16" Cut="4.0278345346450806e-01" cType="1" res="2.2815948724746704e-01" rms="0.0000000000000000e+00" purity="5.0000000000000000e-01" nType="0">
        <Node pos="l" depth="1" NCoef="0" IVar="2" Cut="2.9208032226562500e+02" cType="1" res="2.3952069878578186e-01" rms="0.0000000000000000e+00" purity="3.6749362945556641e-01" nType="0">
          <Node pos="l" depth="2" NCoef="0" IVar="0" Cut="8.0000000000000000e+00" cType="1" res="-2.0587500929832458e-01" rms="4.4815060496330261e-01" purity="2.9468679428100586e-01" nType="0">
            <Node pos="l" depth="3" NCoef="0" IVar="-1" Cut="0.0000000000000000e+00" cType="1" res="-4.0396940894424915e-03" rms="4.2500436305999756e-01" purity="2.3815882205963135e-01" nType="-99"/>
            <Node pos="r" depth="3" NCoef="0" IVar="-1" Cut="0.0000000000000000e+00" cType="1" res="-1.2448570923879743e-03" rms="4.9145787954330444e-01" purity="5.0621920824050903e-01" nType="-99"/>
          </Node>
          <Node pos="r" depth="2" NCoef="0" IVar="9" Cut="1.7479278564453125e+02" cType="1" res="2.3292250931262970e-01" rms="0.0000000000000000e+00" purity="4.9723145365715027e-01" nType="0">
            <Node pos="l" depth="3" NCoef="0" IVar="-1" Cut="0.0000000000000000e+00" cType="1" res="2.5870196521282196e-02" rms="4.5642724633216858e-01" purity="6.6217327117919922e-01" nType="-99"/>
            <Node pos="r" depth="3" NCoef="0" IVar="-1" Cut="0.0000000000000000e+00" cType="1" res="-2.3201050236821175e-02" rms="4.5585805177688599e-01" purity="3.2359784841537476e-01" nType="-99"/>
          </Node>
        </Node>
        <Node pos="r" depth="1" NCoef="0" IVar="2" Cut="1.9834434509277344e+02" cType="1" res="1.0731146903708577e-03" rms="4.7494223713874817e-01" purity="7.1903914213180542e-01" nType="0">
          <Node pos="l" depth="2" NCoef="0" IVar="7" Cut="6.4650131225585938e+01" cType="1" res="2.8791893273591995e-03" rms="4.1217878460884094e-01" purity="5.5283409357070923e-01" nType="0">
            <Node pos="l" depth="3" NCoef="0" IVar="-1" Cut="0.0000000000000000e+00" cType="1" res="-3.4655351191759109e-04" rms="4.9072298407554626e-01" purity="4.7850760817527771e-01" nType="-99"/>
            <Node pos="r" depth="3" NCoef="0" IVar="-1" Cut="0.0000000000000000e+00" cType="1" res="2.0135084167122841e-02" rms="4.6637091040611267e-01" purity="6.6420370340347290e-01" nType="-99"/>
          </Node>
          <Node pos="r" depth="2" NCoef="0" IVar="9" Cut="1.3179956054687500e+02" cType="1" res="1.7107268795371056e-03" rms="4.5164996385574341e-01" purity="8.1779319047927856e-01" nType="0">
            <Node pos="l" depth="3" NCoef="0" IVar="-1" Cut="0.0000000000000000e+00" cType="1" res="5.2516616880893707e-02" rms="3.0725258588790894e-01" purity="8.8879770040512085e-01" nType="-99"/>
            <Node pos="r" depth="3" NCoef="0" IVar="-1" Cut="0.0000000000000000e+00" cType="1" res="2.1897938102483749e-02" rms="4.3798667192459106e-01" purity="7.1399950981140137e-01" nType="-99"/>
          </Node>
        </Node>
      </Node>
    </BinaryTree>
    <BinaryTree type="DecisionTree" boostWeight="1.0000000000000000e+00" itree="7">
      <Node pos="s" depth="0" NCoef="0" IVar="0" Cut="8.0000000000000000e+00" cType="1" res="-2.7330061420798302e-02" rms="4.7324940562248230e-01" purity="5.0000000000000000e-01" nType="0">
        <Node pos="l" depth="1" NCoef="0" IVar="15" Cut="3.3341605216264725e-02" cType="1" res="0.0000000000000000e+00" rms="0.0000000000000000e+00" purity="3.4951448440551758e-01" nType="0">
          <Node pos="l" depth="2" NCoef="0" IVar="2" Cut="2.7733029174804688e+02" cType="1" res="0.0000000000000000e+00" rms="0.0000000000000000e+00" purity="2.1544381976127625e-01" nType="0">
            <Node pos="l" depth="3" NCoef="0" IVar="-1" Cut="0.0000000000000000e+00" cType="1" res="-3.4115281887352467e-03" rms="3.6446580290794373e-01" purity="1.5797026455402374e-01" nType="-99"/>
            <Node pos="r" depth="3" NCoef="0" IVar="-1" Cut="0.0000000000000000e+00" cType="1" res="-1.6652472317218781e-02" rms="4.6237713098526001e-01" purity="3.1818372011184692e-01" nType="-99"/>
          </Node>
          <Node pos="r" depth="2" NCoef="0" IVar="0" Cut="7.0000000000000000e+00" cType="1" res="-4.6016406267881393e-02" rms="4.9159452319145203e-01" purity="4.5019814372062683e-01" nType="0">
            <Node pos="l" depth="3" NCoef="0" IVar="-1" Cut="0.0000000000000000e+00" cType="1" res="-6.9341198541224003e-03" rms="4.6256783604621887e-01" purity="3.1510564684867859e-01" nType="-99"/>
            <Node pos="r" depth="3" NCoef="0" IVar="-1" Cut="0.0000000000000000e+00" cType="1" res="8.5932994261384010e-04" rms="4.9504381418228149e-01" purity="5.4115521907806396e-01" nType="-99"/>
          </Node>
        </Node>
        <Node pos="r" depth="1" NCoef="0" IVar="15" Cut="4.0546000003814697e-02" cType="1" res="1.3209205353632569e-03" rms="5.1306116580963135e-01" purity="7.3174518346786499e-01" nType="0">
          <Node pos="l" depth="2" NCoef="0" IVar="2" Cut="2.7087139892578125e+02" cType="1" res="0.0000000000000000e+00" rms="0.0000000000000000e+00" purity="5.7880985736846924e-01" nType="0">
            <Node pos="l" depth="3" NCoef="0" IVar="-1" Cut="0.0000000000000000e+00" cType="1" res="-1.4139312552288175e-03" rms="4.9264797568321228e-01" purity="4.8680108785629272e-01" nType="-99"/>
            <Node pos="r" depth="3" NCoef="0" IVar="-1" Cut="0.0000000000000000e+00" cType="1" res="1.8690815195441246e-02" rms="4.5001462101936340e-01" purity="6.9366216659545898e-01" nType="-99"/>
          </Node>
          <Node pos="r" depth="2" NCoef="0" IVar="16" Cut="4.1029733419418335e-01" cType="1" res="1.9200920360162854e-03" rms="5.1550126075744629e-01" purity="8.0111682415008545e-01" nType="0">
            <Node pos="l" depth="3" NCoef="0" IVar="-1" Cut="0.0000000000000000e+00" cType="1" res="1.9954463467001915e-02" rms="4.3936213850975037e-01" purity="7.1500837802886963e-01" nType="-99"/>
            <Node pos="r" depth="3" NCoef="0" IVar="-1" Cut="0.0000000000000000e+00" cType="1" res="1.3483893126249313e-02" rms="3.4827509522438049e-01" purity="8.4423643350601196e-01" nType="-99"/>
          </Node>
        </Node>
      </Node>
    </BinaryTree>
    <BinaryTree type="DecisionTree" boostWeight="1.0000000000000000e+00" itree="8">
      <Node pos="s" depth="0" NCoef="0" IVar="0" Cut="8.0000000000000000e+00" cType="1" res="-2.8324790298938751e-02" rms="4.7179037332534790e-01" purity="5.0000000000000000e-01" nType="0">
        <Node pos="l" depth="1" NCoef="0" IVar="15" Cut="3.3341605216264725e-02" cType="1" res="0.0000000000000000e+00" rms="0.0000000000000000e+00" purity="3.4951448440551758e-01" nType="0">
          <Node pos="l" depth="2" NCoef="0" IVar="2" Cut="2.7733029174804688e+02" cType="1" res="0.0000000000000000e+00" rms="0.0000000000000000e+00" purity="2.1544381976127625e-01" nType="0">
            <Node pos="l" depth="3" NCoef="0" IVar="-1" Cut="0.0000000000000000e+00" cType="1" res="-3.3945280592888594e-03" rms="3.6446580290794373e-01" purity="1.5797026455402374e-01" nType="-99"/>
            <Node pos="r" depth="3" NCoef="0" IVar="-1" Cut="0.0000000000000000e+00" cType="1" res="-1.5570593066513538e-02" rms="4.6239134669303894e-01" purity="3.1818372011184692e-01" nType="-99"/>
          </Node>
          <Node pos="r" depth="2" NCoef="0" IVar="2" Cut="2.9822613525390625e+02" cType="1" res="0.0000000000000000e+00" rms="0.0000000000000000e+00" purity="4.5019814372062683e-01" nType="0">
            <Node pos="l" depth="3" NCoef="0" IVar="-1" Cut="0.0000000000000000e+00" cType="1" res="-2.5110302958637476e-03" rms="4.8109549283981323e-01" purity="3.8350862264633179e-01" nType="-99"/>
            <Node pos="r" depth="3" NCoef="0" IVar="-1" Cut="0.0000000000000000e+00" cType="1" res="1.4200978912413120e-02" rms="4.8382622003555298e-01" purity="5.9060621261596680e-01" nType="-99"/>
          </Node>
        </Node>
        <Node pos="r" depth="1" NCoef="0" IVar="15" Cut="4.0546000003814697e-02" cType="1" res="1.3209205353632569e-03" rms="5.1306116580963135e-01" purity="7.3174518346786499e-01" nType="0">
          <Node pos="l" depth="2" NCoef="0" IVar="11" Cut="8.6210840940475464e-01" cType="1" res="0.0000000000000000e+00" rms="0.0000000000000000e+00" purity="5.7880985736846924e-01" nType="0">
            <Node pos="l" depth="3" NCoef="0" IVar="-1" Cut="0.0000000000000000e+00" cType="1" res="-1.5897074481472373e-03" rms="4.8397085070610046e-01" purity="4.8401603102684021e-01" nType="-99"/>
            <Node pos="r" depth="3" NCoef="0" IVar="-1" Cut="0.0000000000000000e+00" cType="1" res="1.2271875515580177e-02" rms="4.6674945950508118e-01" purity="6.4574372768402100e-01" nType="-99"/>
          </Node>
          <Node pos="r" depth="2" NCoef="0" IVar="16" Cut="4.1029733419418335e-01" cType="1" res="1.9200920360162854e-03" rms="5.1550126075744629e-01" purity="8.0111682415008545e-01" nType="0">
            <Node pos="l" depth="3" NCoef="0" IVar="-1" Cut="0.0000000000000000e+00" cType="1" res="1.8507398664951324e-02" rms="4.3943357467651367e-01" purity="7.1500837802886963e-01" nType="-99"/>
            <Node pos="r" depth="3" NCoef="0" IVar="-1" Cut="0.0000000000000000e+00" cType="1" res="1.3152810744941235e-02" rms="3.4832355380058289e-01" purity="8.4423643350601196e-01" nType="-99"/>
          </Node>
        </Node>
      </Node>
    </BinaryTree>
    <BinaryTree type="DecisionTree" boostWeight="1.0000000000000000e+00" itree="9">
      <Node pos="s" depth="0" NCoef="0" IVar="16" Cut="4.0278345346450806e-01" cType="1" res="2.2212983667850494e-01" rms="0.0000000000000000e+00" purity="5.0000000000000000e-01" nType="0">
        <Node pos="l" depth="1" NCoef="0" IVar="2" Cut="2.9208032226562500e+02" cType="1" res="2.3572966456413269e-01" rms="0.0000000000000000e+00" purity="3.6749362945556641e-01" nType="0">
          <Node pos="l" depth="2" NCoef="0" IVar="0" Cut="8.0000000000000000e+00" cType="1" res="-2.0321010053157806e-01" rms="4.4673851132392883e-01" purity="2.9468679428100586e-01" nType="0">
            <Node pos="l" depth="3" NCoef="0" IVar="-1" Cut="0.0000000000000000e+00" cType="1" res="-3.9539574645459652e-03" rms="4.2486011981964111e-01" purity="2.3815882205963135e-01" nType="-99"/>
            <Node pos="r" depth="3" NCoef="0" IVar="-1" Cut="0.0000000000000000e+00" cType="1" res="-1.4881900278851390e-03" rms="4.9014163017272949e-01" purity="5.0621920824050903e-01" nType="-99"/>
          </Node>
          <Node pos="r" depth="2" NCoef="0" IVar="9" Cut="1.7479278564453125e+02" cType="1" res="2.2657048702239990e-01" rms="0.0000000000000000e+00" purity="4.9723145365715027e-01" nType="0">
            <Node pos="l" depth="3" NCoef="0" IVar="-1" Cut="0.0000000000000000e+00" cType="1" res="2.3704441264271736e-02" rms="4.5385444164276123e-01" purity="6.6217327117919922e-01" nType="-99"/>
            <Node pos="r" depth="3" NCoef="0" IVar="-1" Cut="0.0000000000000000e+00" cType="1" res="-2.1405788138508797e-02" rms="4.5362666249275208e-01" purity="3.2359784841537476e-01" nType="-99"/>
          </Node>
        </Node>
        <Node pos="r" depth="1" NCoef="0" IVar="2" Cut="1.9834434509277344e+02" cType="1" res="1.0731146903708577e-03" rms="4.7494223713874817e-01" purity="7.1903914213180542e-01" nType="0">
          <Node pos="l" depth="2" NCoef="0" IVar="7" Cut="6.4650131225585938e+01" cType="1" res="5.0152543229486923e-10" rms="1.4411433767236304e-05" purity="5.5283409357070923e-01" nType="0">
            <Node pos="l" depth="3" NCoef="0" IVar="-1" Cut="0.0000000000000000e+00" cType="1" res="-4.0636066114529967e-04" rms="4.8814296722412109e-01" purity="4.7850760817527771e-01" nType="-99"/>
            <Node pos="r" depth="3" NCoef="0" IVar="-1" Cut="0.0000000000000000e+00" cType="1" res="1.7547931522130966e-02" rms="4.6519699692726135e-01" purity="6.6420370340347290e-01" nType="-99"/>
          </Node>
          <Node pos="r" depth="2" NCoef="0" IVar="9" Cut="1.3179956054687500e+02" cType="1" res="1.7107268795371056e-03" rms="4.5164996385574341e-01" purity="8.1779319047927856e-01" nType="0">
            <Node pos="l" depth="3" NCoef="0" IVar="-1" Cut="0.0000000000000000e+00" cType="1" res="4.8005122691392899e-02" rms="3.0697017908096313e-01" purity="8.8879770040512085e-01" nType="-99"/>
            <Node pos="r" depth="3" NCoef="0" IVar="-1" Cut="0.0000000000000000e+00" cType="1" res="1.9082857295870781e-02" rms="4.3702983856201172e-01" purity="7.1399950981140137e-01" nType="-99"/>
          </Node>
        </Node>
      </Node>
    </BinaryTree>
    <BinaryTree type="DecisionTree" boostWeight="1.0000000000000000e+00" itree="10">
      <Node pos="s" depth="0" NCoef="0" IVar="0" Cut="8.0000000000000000e+00" cType="1" res="-3.3969175070524216e-02" rms="4.6713253855705261e-01" purity="5.0000000000000000e-01" nType="0">
        <Node pos="l" depth="1" NCoef="0" IVar="15" Cut="3.3341605216264725e-02" cType="1" res="0.0000000000000000e+00" rms="0.0000000000000000e+00" purity="3.4951448440551758e-01" nType="0">
          <Node pos="l" depth="2" NCoef="0" IVar="2" Cut="2.7733029174804688e+02" cType="1" res="0.0000000000000000e+00" rms="0.0000000000000000e+00" purity="2.1544381976127625e-01" nType="0">
            <Node pos="l" depth="3" NCoef="0" IVar="-1" Cut="0.0000000000000000e+00" cType="1" res="-3.3635501749813557e-03" rms="3.6426582932472229e-01" purity="1.5797026455402374e-01" nType="-99"/>
            <Node pos="r" depth="3" NCoef="0" IVar="-1" Cut="0.0000000000000000e+00" cType="1" res="-1.4569972641766071e-02" rms="4.5956185460090637e-01" purity="3.1818372011184692e-01" nType="-99"/>
          </Node>
          <Node pos="r" depth="2" NCoef="0" IVar="0" Cut="7.0000000000000000e+00" cType="1" res="-4.9220923334360123e-02" rms="4.8769983649253845e-01" purity="4.5019814372062683e-01" nType="0">
            <Node pos="l" depth="3" NCoef="0" IVar="-1" Cut="0.0000000000000000e+00" cType="1" res="-6.8461671471595764e-03" rms="4.6009448170661926e-01" purity="3.1510564684867859e-01" nType="-99"/>
            <Node pos="r" depth="3" NCoef="0" IVar="-1" Cut="0.0000000000000000e+00" cType="1" res="6.7687744740396738e-04" rms="4.9154409766197205e-01" purity="5.4115521907806396e-01" nType="-99"/>
          </Node>
        </Node>
        <Node pos="r" depth="1" NCoef="0" IVar="15" Cut="6.0270506888628006e-02" cType="1" res="1.3209205353632569e-03" rms="5.1306116580963135e-01" purity="7.3174518346786499e-01" nType="0">
          <Node pos="l" depth="2" NCoef="0" IVar="0" Cut="9.0000000000000000e+00" cType="1" res="3.7438035011291504e-02" rms="4.6560308337211609e-01" purity="6.2609690427780151e-01" nType="0">
            <Node pos="l" depth="3" NCoef="0" IVar="-1" Cut="0.0000000000000000e+00" cType="1" res="-1.4419890940189362e-03" rms="4.7961530089378357e-01" purity="5.4129266738891602e-01" nType="-99"/>
            <Node pos="r" depth="3" NCoef="0" IVar="-1" Cut="0.0000000000000000e+00" cType="1" res="2.5360578671097755e-02" rms="4.2233732342720032e-01" purity="7.4712294340133667e-01" nType="-99"/>
          </Node>
          <Node pos="r" depth="2" NCoef="0" IVar="12" Cut="7.6060700416564941e-01" cType="1" res="inf" rms="0.0000000000000000e+00" purity="8.2388114929199219e-01" nType="0">
            <Node pos="l" depth="3" NCoef="0" IVar="-1" Cut="0.0000000000000000e+00" cType="1" res="7.0097604766488075e-03" rms="3.9727908372879028e-01" purity="7.7925407886505127e-01" nType="-99"/>
            <Node pos="r" depth="3" NCoef="0" IVar="-1" Cut="0.0000000000000000e+00" cType="1" res="4.9246817827224731e-02" rms="2.9679703712463379e-01" purity="8.9667749404907227e-01" nType="-99"/>
          </Node>
        </Node>
      </Node>
    </BinaryTree>
    <BinaryTree type="DecisionTree" boostWeight="1.0000000000000000e+00" itree="11">
      <Node pos="s" depth="0" NCoef="0" IVar="0" Cut="8.0000000000000000e+00" cType="1" res="-3.5617493093013763e-02" rms="4.6521213650703430e-01" purity="5.0000000000000000e-01" nType="0">
        <Node pos="l" depth="1" NCoef="0" IVar="15" Cut="3.3341605216264725e-02" cType="1" res="0.0000000000000000e+00" rms="0.0000000000000000e+00" purity="3.4951448440551758e-01" nType="0">
          <Node pos="l" depth="2" NCoef="0" IVar="2" Cut="2.7733029174804688e+02" cType="1" res="4.0991396043161600e+15" rms="0.0000000000000000e+00" purity="2.1544381976127625e-01" nType="0">
            <Node pos="l" depth="3" NCoef="0" IVar="-1" Cut="0.0000000000000000e+00" cType="1" res="-3.3470205962657928e-03" rms="3.6426579952239990e-01" purity="1.5797026455402374e-01" nType="-99"/>
            <Node pos="r" depth="3" NCoef="0" IVar="-1" Cut="0.0000000000000000e+00" cType="1" res="-1.3627833686769009e-02" rms="4.5958799123764038e-01" purity="3.1818372011184692e-01" nType="-99"/>
          </Node>
          <Node pos="r" depth="2" NCoef="0" IVar="2" Cut="2.9822613525390625e+02" cType="1" res="0.0000000000000000e+00" rms="0.0000000000000000e+00" purity="4.5019814372062683e-01" nType="0">
            <Node pos="l" depth="3" NCoef="0" IVar="-1" Cut="0.0000000000000000e+00" cType="1" res="-2.4951142258942127e-03" rms="4.7896289825439453e-01" purity="3.8350862264633179e-01" nType="-99"/>
            <Node pos="r" depth="3" NCoef="0" IVar="-1" Cut="0.0000000000000000e+00" cType="1" res="1.2491377070546150e-02" rms="4.7947371006011963e-01" purity="5.9060621261596680e-01" nType="-99"/>
          </Node>
        </Node>
        <Node pos="r" depth="1" NCoef="0" IVar="15" Cut="4.0546000003814697e-02" cType="1" res="1.3209205353632569e-03" rms="5.1306116580963135e-01" purity="7.3174518346786499e-01" nType="0">
          <Node pos="l" depth="2" NCoef="0" IVar="2" Cut="2.7087139892578125e+02" cType="1" res="-0.0000000000000000e+00" rms="0.0000000000000000e+00" purity="5.7880985736846924e-01" nType="0">
            <Node pos="l" depth="3" NCoef="0" IVar="-1" Cut="0.0000000000000000e+00" cType="1" res="-1.6277214745059609e-03" rms="4.9014583230018616e-01" purity="4.8680108785629272e-01" nType="-99"/>
            <Node pos="r" depth="3" NCoef="0" IVar="-1" Cut="0.0000000000000000e+00" cType="1" res="1.4981947839260101e-02" rms="4.4631755352020264e-01" purity="6.9366216659545898e-01" nType="-99"/>
          </Node>
          <Node pos="r" depth="2" NCoef="0" IVar="16" Cut="4.1029733419418335e-01" cType="1" res="1.9200920360162854e-03" rms="5.1550126075744629e-01" purity="8.0111682415008545e-01" nType="0">
            <Node pos="l" depth="3" NCoef="0" IVar="-1" Cut="0.0000000000000000e+00" cType="1" res="1.4997504651546478e-02" rms="4.3685352802276611e-01" purity="7.1500837802886963e-01" nType="-99"/>
            <Node pos="r" depth="3" NCoef="0" IVar="-1" Cut="0.0000000000000000e+00" cType="1" res="1.1693242937326431e-02" rms="3.4604889154434204e-01" purity="8.4423643350601196e-01" nType="-99"/>
          </Node>
        </Node>
      </Node>
    </BinaryTree>
    <BinaryTree type="DecisionTree" boostWeight="1.0000000000000000e+00" itree="12">
      <Node pos="s" depth="0" NCoef="0" IVar="16" Cut="4.0278345346450806e-01" cType="1" res="2.1670064330101013e-01" rms="0.0000000000000000e+00" purity="5.0000000000000000e-01" nType="0">
        <Node pos="l" depth="1" NCoef="0" IVar="2" Cut="2.9208032226562500e+02" cType="1" res="2.3231145739555359e-01" rms="0.0000000000000000e+00" purity="3.6749362945556641e-01" nType="0">
          <Node pos="l" depth="2" NCoef="0" IVar="0" Cut="8.0000000000000000e+00" cType="1" res="-2.0031261444091797e-01" rms="4.4532722234725952e-01" purity="2.9468679428100586e-01" nType="0">
            <Node pos="l" depth="3" NCoef="0" IVar="-1" Cut="0.0000000000000000e+00" cType="1" res="-3.8707486819475889e-03" rms="4.2472732067108154e-01" purity="2.3815882205963135e-01" nType="-99"/>
            <Node pos="r" depth="3" NCoef="0" IVar="-1" Cut="0.0000000000000000e+00" cType="1" res="-1.6841565957292914e-03" rms="4.8803654313087463e-01" purity="5.0621920824050903e-01" nType="-99"/>
          </Node>
          <Node pos="r" depth="2" NCoef="0" IVar="9" Cut="1.7479278564453125e+02" cType="1" res="2.2138808667659760e-01" rms="7.7281540632247925e-01" purity="4.9723145365715027e-01" nType="0">
            <Node pos="l" depth="3" NCoef="0" IVar="-1" Cut="0.0000000000000000e+00" cType="1" res="2.1770289167761803e-02" rms="4.5178350806236267e-01" purity="6.6217327117919922e-01" nType="-99"/>
            <Node pos="r" depth="3" NCoef="0" IVar="-1" Cut="0.0000000000000000e+00" cType="1" res="-1.9783731549978256e-02" rms="4.5186814665794373e-01" purity="3.2359784841537476e-01" nType="-99"/>
          </Node>
        </Node>
        <Node pos="r" depth="1" NCoef="0" IVar="16" Cut="4.0976735949516296e-01" cType="1" res="1.0731146903708577e-03" rms="4.7494223713874817e-01" purity="7.1903914213180542e-01" nType="0">
          <Node pos="l" depth="2" NCoef="0" IVar="16" Cut="4.0644496679306030e-01" cType="1" res="0.0000000000000000e+00" rms="0.0000000000000000e+00" purity="5.6782376766204834e-01" nType="0">
            <Node pos="l" depth="3" NCoef="0" IVar="-1" Cut="0.0000000000000000e+00" cType="1" res="-3.5506248241290450e-04" rms="4.7419247031211853e-01" purity="5.2918493747711182e-01" nType="-99"/>
            <Node pos="r" depth="3" NCoef="0" IVar="-1" Cut="0.0000000000000000e+00" cType="1" res="7.1480387123301625e-04" rms="4.6474543213844299e-01" purity="6.1254960298538208e-01" nType="-99"/>
          </Node>
          <Node pos="r" depth="2" NCoef="0" IVar="15" Cut="6.2868177890777588e-02" cType="1" res="1.6210890607908368e-03" rms="4.6592962741851807e-01" purity="7.9625558853149414e-01" nType="0">
            <Node pos="l" depth="3" NCoef="0" IVar="-1" Cut="0.0000000000000000e+00" cType="1" res="1.2977307662367821e-02" rms="4.3848180770874023e-01" purity="6.9567072391510010e-01" nType="-99"/>
            <Node pos="r" depth="3" NCoef="0" IVar="-1" Cut="0.0000000000000000e+00" cType="1" res="1.1864702217280865e-02" rms="3.5725417733192444e-01" purity="8.3095461130142212e-01" nType="-99"/>
          </Node>
        </Node>
      </Node>
    </BinaryTree>
    <BinaryTree type="DecisionTree" boostWeight="1.0000000000000000e+00" itree="13">
      <Node pos="s" depth="0" NCoef="0" IVar="0" Cut="8.0000000000000000e+00" cType="1" res="-3.7889342755079269e-02" rms="4.6257066726684570e-01" purity="5.0000000000000000e-01" nType="0">
        <Node pos="l" depth="1" NCoef="0" IVar="2" Cut="2.9822613525390625e+02" cType="1" res="0.0000000000000000e+00" rms="0.0000000000000000e+00" purity="3.4951448440551758e-01" nType="0">
          <Node pos="l" depth="2" NCoef="0" IVar="15" Cut="3.3341605216264725e-02" cType="1" res="0.0000000000000000e+00" rms="0.0000000000000000e+00" purity="2.9033648967742920e-01" nType="0">
            <Node pos="l" depth="3" NCoef="0" IVar="-1" Cut="0.0000000000000000e+00" cType="1" res="-3.3616193104535341e-03" rms="3.7473788857460022e-01" purity="1.6730177402496338e-01" nType="-99"/>
            <Node pos="r" depth="3" NCoef="0" IVar="-1" Cut="0.0000000000000000e+00" cType="1" res="-2.4574808776378632e-03" rms="4.7846460342407227e-01" purity="3.8350862264633179e-01" nType="-99"/>
          </Node>
          <Node pos="r" depth="2" NCoef="0" IVar="9" Cut="1.8112426757812500e+02" cType="1" res="0.0000000000000000e+00" rms="0.0000000000000000e+00" purity="4.7551259398460388e-01" nType="0">
            <Node pos="l" depth="3" NCoef="0" IVar="-1" Cut="0.0000000000000000e+00" cType="1" res="2.1686039865016937e-02" rms="4.6570420265197754e-01" purity="6.4393001794815063e-01" nType="-99"/>
            <Node pos="r" depth="3" NCoef="0" IVar="-1" Cut="0.0000000000000000e+00" cType="1" res="-2.0744336768984795e-02" rms="4.4126117229461670e-01" purity="2.8498819470405579e-01" nType="-99"/>
          </Node>
        </Node>
        <Node pos="r" depth="1" NCoef="0" IVar="15" Cut="6.0270506888628006e-02" cType="1" res="1.3209205353632569e-03" rms="5.1306116580963135e-01" purity="7.3174518346786499e-01" nType="0">
          <Node pos="l" depth="2" NCoef="0" IVar="0" Cut="9.0000000000000000e+00" cType="1" res="2.7375945821404457e-02" rms="4.6307998895645142e-01" purity="6.2609690427780151e-01" nType="0">
            <Node pos="l" depth="3" NCoef="0" IVar="-1" Cut="0.0000000000000000e+00" cType="1" res="-1.5995844732969999e-03" rms="4.7814279794692993e-01" purity="5.4129266738891602e-01" nType="-99"/>
            <Node pos="r" depth="3" NCoef="0" IVar="-1" Cut="0.0000000000000000e+00" cType="1" res="2.2506220266222954e-02" rms="4.2153349518775940e-01" purity="7.4712294340133667e-01" nType="-99"/>
          </Node>
          <Node pos="r" depth="2" NCoef="0" IVar="16" Cut="4.1042450070381165e-01" cType="1" res="inf" rms="0.0000000000000000e+00" purity="8.2388114929199219e-01" nType="0">
            <Node pos="l" depth="3" NCoef="0" IVar="-1" Cut="0.0000000000000000e+00" cType="1" res="1.7098713666200638e-02" rms="4.2330315709114075e-01" purity="7.3832505941390991e-01" nType="-99"/>
            <Node pos="r" depth="3" NCoef="0" IVar="-1" Cut="0.0000000000000000e+00" cType="1" res="1.0537163354456425e-02" rms="3.3630529046058655e-01" purity="8.5495400428771973e-01" nType="-99"/>
          </Node>
        </Node>
      </Node>
    </BinaryTree>
    <BinaryTree type="DecisionTree" boostWeight="1.0000000000000000e+00" itree="14">
      <Node pos="s" depth="0" NCoef="0" IVar="16" Cut="4.0278345346450806e-01" cType="1" res="2.1408091485500336e-01" rms="0.0000000000000000e+00" purity="5.0000000000000000e-01" nType="0">
        <Node pos="l" depth="1" NCoef="0" IVar="2" Cut="2.9208032226562500e+02" cType="1" res="2.2973433136940002e-01" rms="0.0000000000000000e+00" purity="3.6749362945556641e-01" nType="0">
          <Node pos="l" depth="2" NCoef="0" IVar="0" Cut="7.0000000000000000e+00" cType="1" res="-1.9822978973388672e-01" rms="4.4459238648414612e-01" purity="2.9468679428100586e-01" nType="0">
            <Node pos="l" depth="3" NCoef="0" IVar="-1" Cut="0.0000000000000000e+00" cType="1" res="-6.0265734791755676e-03" rms="3.8423538208007812e-01" purity="1.7834049463272095e-01" nType="-99"/>
            <Node pos="r" depth="3" NCoef="0" IVar="-1" Cut="0.0000000000000000e+00" cType="1" res="-2.2470231633633375e-03" rms="4.7181034088134766e-01" purity="3.7440118193626404e-01" nType="-99"/>
          </Node>
          <Node pos="r" depth="2" NCoef="0" IVar="9" Cut="3.2846444702148438e+02" cType="1" res="7.7379368104008028e-13" rms="0.0000000000000000e+00" purity="4.9723145365715027e-01" nType="0">
            <Node pos="l" depth="3" NCoef="0" IVar="-1" Cut="0.0000000000000000e+00" cType="1" res="1.1617020703852177e-02" rms="4.6509140729904175e-01" purity="5.8997213840484619e-01" nType="-99"/>
            <Node pos="r" depth="3" NCoef="0" IVar="-1" Cut="0.0000000000000000e+00" cType="1" res="-3.0811831355094910e-02" rms="4.0278127789497375e-01" purity="2.2761277854442596e-01" nType="-99"/>
          </Node>
        </Node>
        <Node pos="r" depth="1" NCoef="0" IVar="8" Cut="4.8938766479492188e+01" cType="1" res="1.0731146903708577e-03" rms="4.7494223713874817e-01" purity="7.1903914213180542e-01" nType="0">
          <Node pos="l" depth="2" NCoef="0" IVar="-1" Cut="0.0000000000000000e+00" cType="1" res="-1.9433173292782158e-04" rms="4.6571829915046692e-01" purity="5.6023514270782471e-01" nType="-99"/>
          <Node pos="r" depth="2" NCoef="0" IVar="15" Cut="6.2868177890777588e-02" cType="1" res="1.5218820190057158e-03" rms="4.1464579105377197e-01" purity="7.8544962406158447e-01" nType="0">
            <Node pos="l" depth="3" NCoef="0" IVar="-1" Cut="0.0000000000000000e+00" cType="1" res="9.2166848480701447e-03" rms="4.4397541880607605e-01" purity="6.7276233434677124e-01" nType="-99"/>
            <Node pos="r" depth="3" NCoef="0" IVar="-1" Cut="0.0000000000000000e+00" cType="1" res="3.6286532878875732e-02" rms="3.5497829318046570e-01" purity="8.3522945642471313e-01" nType="-99"/>
          </Node>
        </Node>
      </Node>
    </BinaryTree>
    <BinaryTree type="DecisionTree" boostWeight="1.0000000000000000e+00" itree="15">
      <Node pos="s" depth="0" NCoef="0" IVar="0" Cut="7.0000000000000000e+00" cType="1" res="-4.1997127234935760e-02" rms="4.5865842700004578e-01" purity="5.0000000000000000e-01" nType="0">
        <Node pos="l" depth="1" NCoef="0" IVar="2" Cut="3.0760980224609375e+02" cType="1" res="3.9797585724047360e+15" rms="0.0000000000000000e+00" purity="2.3571956157684326e-01" nType="0">
          <Node pos="l" depth="2" NCoef="0" IVar="15" Cut="4.1593074798583984e-02" cType="1" res="0.0000000000000000e+00" rms="0.0000000000000000e+00" purity="1.8903961777687073e-01" nType="0">
            <Node pos="l" depth="3" NCoef="0" IVar="-1" Cut="0.0000000000000000e+00" cType="1" res="-4.8355422914028168e-03" rms="3.3087712526321411e-01" purity="1.2370964884757996e-01" nType="-99"/>
            <Node pos="r" depth="3" NCoef="0" IVar="-1" Cut="0.0000000000000000e+00" cType="1" res="-5.7302424684166908e-03" rms="4.4082689285278320e-01" purity="2.6881942152976990e-01" nType="-99"/>
          </Node>
          <Node pos="r" depth="2" NCoef="0" IVar="-1" Cut="0.0000000000000000e+00" cType="1" res="-1.4948781579732895e-02" rms="4.5317098498344421e-01" purity="3.4082883596420288e-01" nType="-99"/>
        </Node>
        <Node pos="r" depth="1" NCoef="0" IVar="15" Cut="5.9841297566890717e-02" cType="1" res="6.3137005781754851e-04" rms="5.0293463468551636e-01" purity="5.9667676687240601e-01" nType="0">
          <Node pos="l" depth="2" NCoef="0" IVar="2" Cut="2.7132061767578125e+02" cType="1" res="1.1900850804522634e-03" rms="3.9133259654045105e-01" purity="4.7566542029380798e-01" nType="0">
            <Node pos="l" depth="3" NCoef="0" IVar="-1" Cut="0.0000000000000000e+00" cType="1" res="-2.3175615351647139e-03" rms="4.6654802560806274e-01" purity="3.7958860397338867e-01" nType="-99"/>
            <Node pos="r" depth="3" NCoef="0" IVar="-1" Cut="0.0000000000000000e+00" cType="1" res="1.1025744490325451e-02" rms="4.5152518153190613e-01" purity="6.1712026596069336e-01" nType="-99"/>
          </Node>
          <Node pos="r" depth="2" NCoef="0" IVar="8" Cut="4.8946792602539062e+01" cType="1" res="1.3448431855067611e-03" rms="4.9079030752182007e-01" purity="7.3342436552047729e-01" nType="0">
            <Node pos="l" depth="3" NCoef="0" IVar="-1" Cut="0.0000000000000000e+00" cType="1" res="2.2447992523666471e-04" rms="4.6840196847915649e-01" purity="5.8615601062774658e-01" nType="-99"/>
            <Node pos="r" depth="3" NCoef="0" IVar="-1" Cut="0.0000000000000000e+00" cType="1" res="3.0415430665016174e-02" rms="3.7812325358390808e-01" purity="8.0197960138320923e-01" nType="-99"/>
          </Node>
        </Node>
      </Node>
    </BinaryTree>
    <BinaryTree type="DecisionTree" boostWeight="1.0000000000000000e+00" itree="16">
      <Node pos="s" depth="0" NCoef="0" IVar="0" Cut="8.0000000000000000e+00" cType="1" res="-4.4653672724962234e-02" rms="4.5672732591629028e-01" purity="5.0000000000000000e-01" nType="0">
        <Node pos="l" depth="1" NCoef="0" IVar="2" Cut="2.9822613525390625e+02" cType="1" res="0.0000000000000000e+00" rms="8.9561304000000000e+07" purity="3.4951448440551758e-01" nType="0">
          <Node pos="l" depth="2" NCoef="0" IVar="15" Cut="3.3341605216264725e-02" cType="1" res="0.0000000000000000e+00" rms="0.0000000000000000e+00" purity="2.9033648967742920e-01" nType="0">
            <Node pos="l" depth="3" NCoef="0" IVar="-1" Cut="0.0000000000000000e+00" cType="1" res="-3.3111071679741144e-03" rms="3.7421950697898865e-01" purity="1.6730177402496338e-01" nType="-99"/>
            <Node pos="r" depth="3" NCoef="0" IVar="-1" Cut="0.0000000000000000e+00" cType="1" res="-2.4990497622638941e-03" rms="4.7558110952377319e-01" purity="3.8350862264633179e-01" nType="-99"/>
          </Node>
          <Node pos="r" depth="2" NCoef="0" IVar="9" Cut="1.8112426757812500e+02" cType="1" res="2.5099524737335296e+16" rms="0.0000000000000000e+00" purity="4.7551259398460388e-01" nType="0">
            <Node pos="l" depth="3" NCoef="0" IVar="-1" Cut="0.0000000000000000e+00" cType="1" res="1.8680598586797714e-02" rms="4.6327328681945801e-01" purity="6.4393001794815063e-01" nType="-99"/>
            <Node pos="r" depth="3" NCoef="0" IVar="-1" Cut="0.0000000000000000e+00" cType="1" res="-1.8921747803688049e-02" rms="4.3806692957878113e-01" purity="2.8498819470405579e-01" nType="-99"/>
          </Node>
        </Node>
        <Node pos="r" depth="1" NCoef="0" IVar="2" Cut="1.6714715576171875e+02" cType="1" res="1.3209205353632569e-03" rms="5.1306116580963135e-01" purity="7.3174518346786499e-01" nType="0">
          <Node pos="l" depth="2" NCoef="0" IVar="-1" Cut="0.0000000000000000e+00" cType="1" res="-5.6673923972994089e-04" rms="4.8823285102844238e-01" purity="5.3079777956008911e-01" nType="-99"/>
          <Node pos="r" depth="2" NCoef="0" IVar="10" Cut="2.1319808959960938e+00" cType="1" res="1.7640854930505157e-03" rms="5.0044286251068115e-01" purity="7.9916238784790039e-01" nType="0">
            <Node pos="l" depth="3" NCoef="0" IVar="-1" Cut="0.0000000000000000e+00" cType="1" res="3.2171830534934998e-02" rms="3.4804785251617432e-01" purity="8.4445393085479736e-01" nType="-99"/>
            <Node pos="r" depth="3" NCoef="0" IVar="-1" Cut="0.0000000000000000e+00" cType="1" res="-5.1909527974203229e-04" rms="4.6982741355895996e-01" purity="6.1987674236297607e-01" nType="-99"/>
          </Node>
        </Node>
      </Node>
    </BinaryTree>
    <BinaryTree type="DecisionTree" boostWeight="1.0000000000000000e+00" itree="17">
      <Node pos="s" depth="0" NCoef="0" IVar="0" Cut="7.0000000000000000e+00" cType="1" res="-4.7322735190391541e-02" rms="4.5472693443298340e-01" purity="5.0000000000000000e-01" nType="0">
        <Node pos="l" depth="1" NCoef="0" IVar="2" Cut="3.0760980224609375e+02" cType="1" res="0.0000000000000000e+00" rms="0.0000000000000000e+00" purity="2.3571956157684326e-01" nType="0">
          <Node pos="l" depth="2" NCoef="0" IVar="15" Cut="4.1593074798583984e-02" cType="1" res="0.0000000000000000e+00" rms="0.0000000000000000e+00" purity="1.8903961777687073e-01" nType="0">
            <Node pos="l" depth="3" NCoef="0" IVar="-1" Cut="0.0000000000000000e+00" cType="1" res="-4.7839288599789143e-03" rms="3.3086004853248596e-01" purity="1.2370964884757996e-01" nType="-99"/>
            <Node pos="r" depth="3" NCoef="0" IVar="-1" Cut="0.0000000000000000e+00" cType="1" res="-5.6172600015997887e-03" rms="4.4076794385910034e-01" purity="2.6881942152976990e-01" nType="-99"/>
          </Node>
          <Node pos="r" depth="2" NCoef="0" IVar="-1" Cut="0.0000000000000000e+00" cType="1" res="-1.3925469480454922e-02" rms="4.5147535204887390e-01" purity="3.4082883596420288e-01" nType="-99"/>
        </Node>
        <Node pos="r" depth="1" NCoef="0" IVar="15" Cut="5.9841297566890717e-02" cType="1" res="6.3137005781754851e-04" rms="5.0293463468551636e-01" purity="5.9667676687240601e-01" nType="0">
          <Node pos="l" depth="2" NCoef="0" IVar="2" Cut="2.7132061767578125e+02" cType="1" res="1.1900850804522634e-03" rms="3.9133259654045105e-01" purity="4.7566542029380798e-01" nType="0">
            <Node pos="l" depth="3" NCoef="0" IVar="-1" Cut="0.0000000000000000e+00" cType="1" res="-2.3262535687536001e-03" rms="4.6541115641593933e-01" purity="3.7958860397338867e-01" nType="-99"/>
            <Node pos="r" depth="3" NCoef="0" IVar="-1" Cut="0.0000000000000000e+00" cType="1" res="9.2400265857577324e-03" rms="4.4946855306625366e-01" purity="6.1712026596069336e-01" nType="-99"/>
          </Node>
          <Node pos="r" depth="2" NCoef="0" IVar="2" Cut="1.9768037414550781e+02" cType="1" res="1.3448431855067611e-03" rms="4.9079030752182007e-01" purity="7.3342436552047729e-01" nType="0">
            <Node pos="l" depth="3" NCoef="0" IVar="-1" Cut="0.0000000000000000e+00" cType="1" res="2.3640376457478851e-04" rms="4.7613510489463806e-01" purity="5.8087491989135742e-01" nType="-99"/>
            <Node pos="r" depth="3" NCoef="0" IVar="-1" Cut="0.0000000000000000e+00" cType="1" res="2.9549393802881241e-02" rms="3.6504778265953064e-01" purity="8.1577342748641968e-01" nType="-99"/>
          </Node>
        </Node>
      </Node>
    </BinaryTree>
    <BinaryTree type="DecisionTree" boostWeight="1.0000000000000000e+00" itree="18">
      <Node pos="s" depth="0" NCoef="0" IVar="0" Cut="8.0000000000000000e+00" cType="1" res="-4.9519509077072144e-02" rms="4.5307299494743347e-01" purity="5.0000000000000000e-01" nType="0">
        <Node pos="l" depth="1" NCoef="0" IVar="2" Cut="2.9822613525390625e+02" cType="1" res="0.0000000000000000e+00" rms="0.0000000000000000e+00" purity="3.4951448440551758e-01" nType="0">
          <Node pos="l" depth="2" NCoef="0" IVar="15" Cut="3.3341605216264725e-02" cType="1" res="0.0000000000000000e+00" rms="0.0000000000000000e+00" purity="2.9033648967742920e-01" nType="0">
            <Node pos="l" depth="3" NCoef="0" IVar="-1" Cut="0.0000000000000000e+00" cType="1" res="-3.2790990080684423e-03" rms="3.7398749589920044e-01" purity="1.6730177402496338e-01" nType="-99"/>
            <Node pos="r" depth="3" NCoef="0" IVar="-1" Cut="0.0000000000000000e+00" cType="1" res="-2.5040458422154188e-03" rms="4.7414076328277588e-01" purity="3.8350862264633179e-01" nType="-99"/>
          </Node>
          <Node pos="r" depth="2" NCoef="0" IVar="9" Cut="1.8112426757812500e+02" cType="1" res="0.0000000000000000e+00" rms="0.0000000000000000e+00" purity="4.7551259398460388e-01" nType="0">
            <Node pos="l" depth="3" NCoef="0" IVar="-1" Cut="0.0000000000000000e+00" cType="1" res="1.6856504604220390e-02" rms="4.6154698729515076e-01" purity="6.4393001794815063e-01" nType="-99"/>
            <Node pos="r" depth="3" NCoef="0" IVar="-1" Cut="0.0000000000000000e+00" cType="1" res="-1.7795873805880547e-02" rms="4.3707242608070374e-01" purity="2.8498819470405579e-01" nType="-99"/>
          </Node>
        </Node>
        <Node pos="r" depth="1" NCoef="0" IVar="16" Cut="3.9457705616950989e-01" cType="1" res="1.3209205353632569e-03" rms="5.1306116580963135e-01" purity="7.3174518346786499e-01" nType="0">
          <Node pos="l" depth="2" NCoef="0" IVar="11" Cut="8.8913255929946899e-01" cType="1" res="5.0394316203892231e-03" rms="3.5044351220130920e-01" purity="5.5965304374694824e-01" nType="0">
            <Node pos="l" depth="3" NCoef="0" IVar="-1" Cut="0.0000000000000000e+00" cType="1" res="-2.3394450545310974e-03" rms="4.7481873631477356e-01" purity="4.6497553586959839e-01" nType="-99"/>
            <Node pos="r" depth="3" NCoef="0" IVar="-1" Cut="0.0000000000000000e+00" cType="1" res="9.0130539610981941e-03" rms="4.5968428254127502e-01" purity="6.5730643272399902e-01" nType="-99"/>
          </Node>
          <Node pos="r" depth="2" NCoef="0" IVar="19" Cut="-7.1424492634832859e-03" cType="1" res="0.0000000000000000e+00" rms="inf" purity="7.9287713766098022e-01" nType="0">
            <Node pos="l" depth="3" NCoef="0" IVar="-1" Cut="0.0000000000000000e+00" cType="1" res="2.6621945202350616e-02" rms="3.6634796857833862e-01" purity="8.1997907161712646e-01" nType="-99"/>
            <Node pos="r" depth="3" NCoef="0" IVar="-1" Cut="0.0000000000000000e+00" cType="1" res="8.7294232798740268e-04" rms="4.2553204298019409e-01" purity="7.0516288280487061e-01" nType="-99"/>
          </Node>
        </Node>
      </Node>
    </BinaryTree>
    <BinaryTree type="DecisionTree" boostWeight="1.0000000000000000e+00" itree="19">
      <Node pos="s" depth="0" NCoef="0" IVar="0" Cut="7.0000000000000000e+00" cType="1" res="-5.1663968712091446e-02" rms="4.5147860050201416e-01" purity="5.0000000000000000e-01" nType="0">
        <Node pos="l" depth="1" NCoef="0" IVar="2" Cut="3.0760980224609375e+02" cType="1" res="0.0000000000000000e+00" rms="0.0000000000000000e+00" purity="2.3571956157684326e-01" nType="0">
          <Node pos="l" depth="2" NCoef="0" IVar="15" Cut="4.1593074798583984e-02" cType="1" res="0.0000000000000000e+00" rms="0.0000000000000000e+00" purity="1.8903961777687073e-01" nType="0">
            <Node pos="l" depth="3" NCoef="0" IVar="-1" Cut="0.0000000000000000e+00" cType="1" res="-4.7333980910480022e-03" rms="3.3084973692893982e-01" purity="1.2370964884757996e-01" nType="-99"/>
            <Node pos="r" depth="3" NCoef="0" IVar="-1" Cut="0.0000000000000000e+00" cType="1" res="-5.5062924511730671e-03" rms="4.4071912765502930e-01" purity="2.6881942152976990e-01" nType="-99"/>
          </Node>
          <Node pos="r" depth="2" NCoef="0" IVar="-1" Cut="0.0000000000000000e+00" cType="1" res="-1.2963682413101196e-02" rms="4.5008659362792969e-01" purity="3.4082883596420288e-01" nType="-99"/>
        </Node>
        <Node pos="r" depth="1" NCoef="0" IVar="15" Cut="5.9841297566890717e-02" cType="1" res="6.3137005781754851e-04" rms="5.0293463468551636e-01" purity="5.9667676687240601e-01" nType="0">
          <Node pos="l" depth="2" NCoef="0" IVar="2" Cut="2.7132061767578125e+02" cType="1" res="1.1900850804522634e-03" rms="3.9133259654045105e-01" purity="4.7566542029380798e-01" nType="0">
            <Node pos="l" depth="3" NCoef="0" IVar="-1" Cut="0.0000000000000000e+00" cType="1" res="-2.3370229173451662e-03" rms="4.6434807777404785e-01" purity="3.7958860397338867e-01" nType="-99"/>
            <Node pos="r" depth="3" NCoef="0" IVar="-1" Cut="0.0000000000000000e+00" cType="1" res="8.0392882227897644e-03" rms="4.4824269413948059e-01" purity="6.1712026596069336e-01" nType="-99"/>
          </Node>
          <Node pos="r" depth="2" NCoef="0" IVar="4" Cut="1.0372816467285156e+02" cType="1" res="1.3448431855067611e-03" rms="4.9079030752182007e-01" purity="7.3342436552047729e-01" nType="0">
            <Node pos="l" depth="3" NCoef="0" IVar="-1" Cut="0.0000000000000000e+00" cType="1" res="4.1081711649894714e-02" rms="3.3499258756637573e-01" purity="8.6307454109191895e-01" nType="-99"/>
            <Node pos="r" depth="3" NCoef="0" IVar="-1" Cut="0.0000000000000000e+00" cType="1" res="2.0482034888118505e-03" rms="4.2127311229705811e-01" purity="7.0099246501922607e-01" nType="-99"/>
          </Node>
        </Node>
      </Node>
    </BinaryTree>
    <BinaryTree type="DecisionTree" boostWeight="1.0000000000000000e+00" itree="20">
      <Node pos="s" depth="0" NCoef="0" IVar="16" Cut="4.0278345346450806e-01" cType="1" res="2.0548440515995026e-01" rms="0.0000000000000000e+00" purity="5.0000000000000000e-01" nType="0">
        <Node pos="l" depth="1" NCoef="0" IVar="2" Cut="2.9208032226562500e+02" cType="1" res="2.2364816069602966e-01" rms="0.0000000000000000e+00" purity="3.6749362945556641e-01" nType="0">
          <Node pos="l" depth="2" NCoef="0" IVar="10" Cut="8.3970814943313599e-01" cType="1" res="1.0134801268577576e-03" rms="3.3026257157325745e-01" purity="2.9468679428100586e-01" nType="0">
            <Node pos="l" depth="3" NCoef="0" IVar="-1" Cut="0.0000000000000000e+00" cType="1" res="-5.9975790791213512e-03" rms="3.5388255119323730e-01" purity="1.6351142525672913e-01" nType="-99"/>
            <Node pos="r" depth="3" NCoef="0" IVar="-1" Cut="0.0000000000000000e+00" cType="1" res="-2.7797662187367678e-03" rms="4.5694172382354736e-01" purity="3.3434599637985229e-01" nType="-99"/>
          </Node>
          <Node pos="r" depth="2" NCoef="0" IVar="9" Cut="3.2846444702148438e+02" cType="1" res="2.0844244956970215e-01" rms="0.0000000000000000e+00" purity="4.9723145365715027e-01" nType="0">
            <Node pos="l" depth="3" NCoef="0" IVar="-1" Cut="0.0000000000000000e+00" cType="1" res="8.7755648419260979e-03" rms="4.5998725295066833e-01" purity="5.8997213840484619e-01" nType="-99"/>
            <Node pos="r" depth="3" NCoef="0" IVar="-1" Cut="0.0000000000000000e+00" cType="1" res="-2.7463000267744064e-02" rms="4.0051728487014771e-01" purity="2.2761277854442596e-01" nType="-99"/>
          </Node>
        </Node>
        <Node pos="r" depth="1" NCoef="0" IVar="2" Cut="1.9834434509277344e+02" cType="1" res="1.0731146903708577e-03" rms="4.7494223713874817e-01" purity="7.1903914213180542e-01" nType="0">
          <Node pos="l" depth="2" NCoef="0" IVar="7" Cut="6.4650131225585938e+01" cType="1" res="0.0000000000000000e+00" rms="0.0000000000000000e+00" purity="5.5283409357070923e-01" nType="0">
            <Node pos="l" depth="3" NCoef="0" IVar="-1" Cut="0.0000000000000000e+00" cType="1" res="-6.8700534757226706e-04" rms="4.7255182266235352e-01" purity="4.7850760817527771e-01" nType="-99"/>
            <Node pos="r" depth="3" NCoef="0" IVar="-1" Cut="0.0000000000000000e+00" cType="1" res="9.5888450741767883e-03" rms="4.5841407775878906e-01" purity="6.6420370340347290e-01" nType="-99"/>
          </Node>
          <Node pos="r" depth="2" NCoef="0" IVar="9" Cut="1.3179956054687500e+02" cType="1" res="1.7107268795371056e-03" rms="4.5164996385574341e-01" purity="8.1779319047927856e-01" nType="0">
            <Node pos="l" depth="3" NCoef="0" IVar="-1" Cut="0.0000000000000000e+00" cType="1" res="3.6820549517869949e-02" rms="3.0282720923423767e-01" purity="8.8879770040512085e-01" nType="-99"/>
            <Node pos="r" depth="3" NCoef="0" IVar="-1" Cut="0.0000000000000000e+00" cType="1" res="9.4448029994964600e-03" rms="4.2894846200942993e-01" purity="7.1399950981140137e-01" nType="-99"/>
          </Node>
        </Node>
      </Node>
    </BinaryTree>
    <BinaryTree type="DecisionTree" boostWeight="1.0000000000000000e+00" itree="21">
      <Node pos="s" depth="0" NCoef="0" IVar="0" Cut="8.0000000000000000e+00" cType="1" res="-5.4358590394258499e-02" rms="4.4856023788452148e-01" purity="5.0000000000000000e-01" nType="0">
        <Node pos="l" depth="1" NCoef="0" IVar="2" Cut="2.9822613525390625e+02" cType="1" res="0.0000000000000000e+00" rms="0.0000000000000000e+00" purity="3.4951448440551758e-01" nType="0">
          <Node pos="l" depth="2" NCoef="0" IVar="15" Cut="3.3341605216264725e-02" cType="1" res="0.0000000000000000e+00" rms="0.0000000000000000e+00" purity="2.9033648967742920e-01" nType="0">
            <Node pos="l" depth="3" NCoef="0" IVar="-1" Cut="0.0000000000000000e+00" cType="1" res="-3.2340853940695524e-03" rms="3.7347638607025146e-01" purity="1.6730177402496338e-01" nType="-99"/>
            <Node pos="r" depth="3" NCoef="0" IVar="-1" Cut="0.0000000000000000e+00" cType="1" res="-2.5102454237639904e-03" rms="4.7155481576919556e-01" purity="3.8350862264633179e-01" nType="-99"/>
          </Node>
          <Node pos="r" depth="2" NCoef="0" IVar="9" Cut="1.8112426757812500e+02" cType="1" res="0.0000000000000000e+00" rms="0.0000000000000000e+00" purity="4.7551259398460388e-01" nType="0">
            <Node pos="l" depth="3" NCoef="0" IVar="-1" Cut="0.0000000000000000e+00" cType="1" res="1.4611063525080681e-02" rms="4.6014887094497681e-01" purity="6.4393001794815063e-01" nType="-99"/>
            <Node pos="r" depth="3" NCoef="0" IVar="-1" Cut="0.0000000000000000e+00" cType="1" res="-1.5971882268786430e-02" rms="4.3542560935020447e-01" purity="2.8498819470405579e-01" nType="-99"/>
          </Node>
        </Node>
        <Node pos="r" depth="1" NCoef="0" IVar="0" Cut="9.0000000000000000e+00" cType="1" res="6.0859285295009613e-02" rms="4.1140520572662354e-01" purity="7.3174518346786499e-01" nType="0">
          <Node pos="l" depth="2" NCoef="0" IVar="15" Cut="7.9995013773441315e-02" cType="1" res="0.0000000000000000e+00" rms="0.0000000000000000e+00" purity="6.6141939163208008e-01" nType="0">
            <Node pos="l" depth="3" NCoef="0" IVar="-1" Cut="0.0000000000000000e+00" cType="1" res="-2.1026891190558672e-03" rms="4.6635612845420837e-01" purity="5.7302623987197876e-01" nType="-99"/>
            <Node pos="r" depth="3" NCoef="0" IVar="-1" Cut="0.0000000000000000e+00" cType="1" res="2.0857959985733032e-02" rms="3.7033638358116150e-01" purity="8.1599587202072144e-01" nType="-99"/>
          </Node>
          <Node pos="r" depth="2" NCoef="0" IVar="0" Cut="1.0000000000000000e+01" cType="1" res="1.2227973341941833e-01" rms="3.6666205525398254e-01" purity="8.1296616792678833e-01" nType="0">
            <Node pos="l" depth="3" NCoef="0" IVar="-1" Cut="0.0000000000000000e+00" cType="1" res="3.8761468604207039e-03" rms="3.9438259601593018e-01" purity="7.6892030239105225e-01" nType="-99"/>
            <Node pos="r" depth="3" NCoef="0" IVar="-1" Cut="0.0000000000000000e+00" cType="1" res="4.0504079312086105e-02" rms="3.0465674400329590e-01" purity="8.8921207189559937e-01" nType="-99"/>
          </Node>
        </Node>
      </Node>
    </BinaryTree>
    <BinaryTree type="DecisionTree" boostWeight="1.0000000000000000e+00" itree="22">
      <Node pos="s" depth="0" NCoef="0" IVar="0" Cut="7.0000000000000000e+00" cType="1" res="-5.5589806288480759e-02" rms="4.4728186726570129e-01" purity="5.0000000000000000e-01" nType="0">
        <Node pos="l" depth="1" NCoef="0" IVar="2" Cut="3.0760980224609375e+02" cType="1" res="0.0000000000000000e+00" rms="8.8640421888000000e+10" purity="2.3571956157684326e-01" nType="0">
          <Node pos="l" depth="2" NCoef="0" IVar="15" Cut="4.1593074798583984e-02" cType="1" res="0.0000000000000000e+00" rms="0.0000000000000000e+00" purity="1.8903961777687073e-01" nType="0">
            <Node pos="l" depth="3" NCoef="0" IVar="-1" Cut="0.0000000000000000e+00" cType="1" res="-4.6641142107546329e-03" rms="3.3065864443778992e-01" purity="1.2370964884757996e-01" nType="-99"/>
            <Node pos="r" depth="3" NCoef="0" IVar="-1" Cut="0.0000000000000000e+00" cType="1" res="-5.3735906258225441e-03" rms="4.4027405977249146e-01" purity="2.6881942152976990e-01" nType="-99"/>
          </Node>
          <Node pos="r" depth="2" NCoef="0" IVar="-1" Cut="0.0000000000000000e+00" cType="1" res="-1.2018829584121704e-02" rms="4.4761124253273010e-01" purity="3.4082883596420288e-01" nType="-99"/>
        </Node>
        <Node pos="r" depth="1" NCoef="0" IVar="15" Cut="4.0092945098876953e-02" cType="1" res="6.3137005781754851e-04" rms="5.0293463468551636e-01" purity="5.9667676687240601e-01" nType="0">
          <Node pos="l" depth="2" NCoef="0" IVar="2" Cut="1.6814624023437500e+02" cType="1" res="1.7052622279152274e-03" rms="3.4998470544815063e-01" purity="4.2655572295188904e-01" nType="0">
            <Node pos="l" depth="3" NCoef="0" IVar="-1" Cut="0.0000000000000000e+00" cType="1" res="-2.2108489647507668e-03" rms="4.2298966646194458e-01" purity="2.5046318769454956e-01" nType="-99"/>
            <Node pos="r" depth="3" NCoef="0" IVar="-1" Cut="0.0000000000000000e+00" cType="1" res="-1.9835445564240217e-03" rms="4.6859806776046753e-01" purity="5.0486856698989868e-01" nType="-99"/>
          </Node>
          <Node pos="r" depth="2" NCoef="0" IVar="7" Cut="5.3102985382080078e+01" cType="1" res="1.0025694500654936e-03" rms="5.2980077266693115e-01" purity="6.9669550657272339e-01" nType="0">
            <Node pos="l" depth="3" NCoef="0" IVar="-1" Cut="0.0000000000000000e+00" cType="1" res="-9.4180391170084476e-04" rms="4.6143841743469238e-01" purity="4.7956135869026184e-01" nType="-99"/>
            <Node pos="r" depth="3" NCoef="0" IVar="-1" Cut="0.0000000000000000e+00" cType="1" res="1.6786003485321999e-02" rms="4.0495535731315613e-01" purity="7.4731177091598511e-01" nType="-99"/>
          </Node>
        </Node>
      </Node>
    </BinaryTree>
    <BinaryTree type="DecisionTree" boostWeight="1.0000000000000000e+00" itree="23">
      <Node pos="s" depth="0" NCoef="0" IVar="0" Cut="8.0000000000000000e+00" cType="1" res="-5.7045720517635345e-02" rms="4.4620206952095032e-01" purity="5.0000000000000000e-01" nType="0">
        <Node pos="l" depth="1" NCoef="0" IVar="2" Cut="2.9822613525390625e+02" cType="1" res="3.4709222624896043e+21" rms="0.0000000000000000e+00" purity="3.4951448440551758e-01" nType="0">
          <Node pos="l" depth="2" NCoef="0" IVar="15" Cut="3.3341605216264725e-02" cType="1" res="0.0000000000000000e+00" rms="0.0000000000000000e+00" purity="2.9033648967742920e-01" nType="0">
            <Node pos="l" depth="3" NCoef="0" IVar="-1" Cut="0.0000000000000000e+00" cType="1" res="-3.2014616299420595e-03" rms="3.7339058518409729e-01" purity="1.6730177402496338e-01" nType="-99"/>
            <Node pos="r" depth="3" NCoef="0" IVar="-1" Cut="0.0000000000000000e+00" cType="1" res="-2.5283005088567734e-03" rms="4.7055488824844360e-01" purity="3.8350862264633179e-01" nType="-99"/>
          </Node>
          <Node pos="r" depth="2" NCoef="0" IVar="9" Cut="1.8112426757812500e+02" cType="1" res="1.0860993451357372e+22" rms="0.0000000000000000e+00" purity="4.7551259398460388e-01" nType="0">
            <Node pos="l" depth="3" NCoef="0" IVar="-1" Cut="0.0000000000000000e+00" cType="1" res="1.3523794710636139e-02" rms="4.5913782715797424e-01" purity="6.4393001794815063e-01" nType="-99"/>
            <Node pos="r" depth="3" NCoef="0" IVar="-1" Cut="0.0000000000000000e+00" cType="1" res="-1.4802740886807442e-02" rms="4.3489626049995422e-01" purity="2.8498819470405579e-01" nType="-99"/>
          </Node>
        </Node>
        <Node pos="r" depth="1" NCoef="0" IVar="2" Cut="1.6714715576171875e+02" cType="1" res="1.3209205353632569e-03" rms="5.1306116580963135e-01" purity="7.3174518346786499e-01" nType="0">
          <Node pos="l" depth="2" NCoef="0" IVar="-1" Cut="0.0000000000000000e+00" cType="1" res="-9.1922102728858590e-04" rms="4.8175147175788879e-01" purity="5.3079777956008911e-01" nType="-99"/>
          <Node pos="r" depth="2" NCoef="0" IVar="9" Cut="1.4848216247558594e+02" cType="1" res="1.7640854930505157e-03" rms="5.0044286251068115e-01" purity="7.9916238784790039e-01" nType="0">
            <Node pos="l" depth="3" NCoef="0" IVar="-1" Cut="0.0000000000000000e+00" cType="1" res="2.8985824435949326e-02" rms="3.2465979456901550e-01" purity="8.6544066667556763e-01" nType="-99"/>
            <Node pos="r" depth="3" NCoef="0" IVar="-1" Cut="0.0000000000000000e+00" cType="1" res="1.3560818042606115e-03" rms="4.4864889979362488e-01" purity="6.7579686641693115e-01" nType="-99"/>
          </Node>
        </Node>
      </Node>
    </BinaryTree>
    <BinaryTree type="DecisionTree" boostWeight="1.0000000000000000e+00" itree="24">
      <Node pos="s" depth="0" NCoef="0" IVar="16" Cut="3.9057376980781555e-01" cType="1" res="2.0141950249671936e-01" rms="0.0000000000000000e+00" purity="5.0000000000000000e-01" nType="0">
        <Node pos="l" depth="1" NCoef="0" IVar="2" Cut="2.9208032226562500e+02" cType="1" res="9.5171114662662148e-04" rms="3.3687254786491394e-01" purity="3.1833720207214355e-01" nType="0">
          <Node pos="l" depth="2" NCoef="0" IVar="10" Cut="8.3539003133773804e-01" cType="1" res="1.4878177316859365e-03" rms="2.8455182909965515e-01" purity="2.5519815087318420e-01" nType="0">
            <Node pos="l" depth="3" NCoef="0" IVar="-1" Cut="0.0000000000000000e+00" cType="1" res="-8.1956451758742332e-03" rms="3.2762709259986877e-01" purity="1.3511420786380768e-01" nType="-99"/>
            <Node pos="r" depth="3" NCoef="0" IVar="-1" Cut="0.0000000000000000e+00" cType="1" res="-3.2270154915750027e-03" rms="4.3994355201721191e-01" purity="2.9153606295585632e-01" nType="-99"/>
          </Node>
          <Node pos="r" depth="2" NCoef="0" IVar="10" Cut="2.2107019424438477e+00" cType="1" res="inf" rms="0.0000000000000000e+00" purity="4.3042340874671936e-01" nType="0">
            <Node pos="l" depth="3" NCoef="0" IVar="-1" Cut="0.0000000000000000e+00" cType="1" res="2.5660647079348564e-03" rms="4.6850186586380005e-01" purity="5.4359585046768188e-01" nType="-99"/>
            <Node pos="r" depth="3" NCoef="0" IVar="-1" Cut="0.0000000000000000e+00" cType="1" res="-2.5209963321685791e-02" rms="3.8585954904556274e-01" purity="2.0142833888530731e-01" nType="-99"/>
          </Node>
        </Node>
        <Node pos="r" depth="1" NCoef="0" IVar="2" Cut="2.3523330688476562e+02" cType="1" res="1.8765598535537720e-01" rms="0.0000000000000000e+00" purity="6.3427639007568359e-01" nType="0">
          <Node pos="l" depth="2" NCoef="0" IVar="10" Cut="1.0802217721939087e+00" cType="1" res="1.4369207201525569e-03" rms="4.5440763235092163e-01" purity="5.1424390077590942e-01" nType="0">
            <Node pos="l" depth="3" NCoef="0" IVar="-1" Cut="0.0000000000000000e+00" cType="1" res="-2.1695210598409176e-03" rms="4.1865268349647522e-01" purity="3.3334678411483765e-01" nType="-99"/>
            <Node pos="r" depth="3" NCoef="0" IVar="-1" Cut="0.0000000000000000e+00" cType="1" res="4.8031276674009860e-04" rms="4.5804354548454285e-01" purity="5.9466177225112915e-01" nType="-99"/>
          </Node>
          <Node pos="r" depth="2" NCoef="0" IVar="9" Cut="2.4220707702636719e+02" cType="1" res="1.6141732037067413e-01" rms="0.0000000000000000e+00" purity="7.4939894676208496e-01" nType="0">
            <Node pos="l" depth="3" NCoef="0" IVar="-1" Cut="0.0000000000000000e+00" cType="1" res="2.3169895634055138e-02" rms="3.6505109071731567e-01" purity="8.0371057987213135e-01" nType="-99"/>
            <Node pos="r" depth="3" NCoef="0" IVar="-1" Cut="0.0000000000000000e+00" cType="1" res="-6.2078088521957397e-03" rms="4.6910780668258667e-01" purity="5.2738296985626221e-01" nType="-99"/>
          </Node>
        </Node>
      </Node>
    </BinaryTree>
    <BinaryTree type="DecisionTree" boostWeight="1.0000000000000000e+00" itree="25">
      <Node pos="s" depth="0" NCoef="0" IVar="0" Cut="7.0000000000000000e+00" cType="1" res="-5.9531804174184799e-02" rms="4.4371205568313599e-01" purity="5.0000000000000000e-01" nType="0">
        <Node pos="l" depth="1" NCoef="0" IVar="2" Cut="3.0760980224609375e+02" cType="1" res="0.0000000000000000e+00" rms="0.0000000000000000e+00" purity="2.3571956157684326e-01" nType="0">
          <Node pos="l" depth="2" NCoef="0" IVar="15" Cut="4.1593074798583984e-02" cType="1" res="0.0000000000000000e+00" rms="0.0000000000000000e+00" purity="1.8903961777687073e-01" nType="0">
            <Node pos="l" depth="3" NCoef="0" IVar="-1" Cut="0.0000000000000000e+00" cType="1" res="-4.5945034362375736e-03" rms="3.3045443892478943e-01" purity="1.2370964884757996e-01" nType="-99"/>
            <Node pos="r" depth="3" NCoef="0" IVar="-1" Cut="0.0000000000000000e+00" cType="1" res="-5.2642608061432838e-03" rms="4.3958726525306702e-01" purity="2.6881942152976990e-01" nType="-99"/>
          </Node>
          <Node pos="r" depth="2" NCoef="0" IVar="-1" Cut="0.0000000000000000e+00" cType="1" res="-1.1110056191682816e-02" rms="4.4520303606987000e-01" purity="3.4082883596420288e-01" nType="-99"/>
        </Node>
        <Node pos="r" depth="1" NCoef="0" IVar="15" Cut="5.9841297566890717e-02" cType="1" res="6.3137005781754851e-04" rms="5.0293463468551636e-01" purity="5.9667676687240601e-01" nType="0">
          <Node pos="l" depth="2" NCoef="0" IVar="2" Cut="2.7132061767578125e+02" cType="1" res="1.1900850804522634e-03" rms="3.9133259654045105e-01" purity="4.7566542029380798e-01" nType="0">
            <Node pos="l" depth="3" NCoef="0" IVar="-1" Cut="0.0000000000000000e+00" cType="1" res="-2.3504320997744799e-03" rms="4.6113887429237366e-01" purity="3.7958860397338867e-01" nType="-99"/>
            <Node pos="r" depth="3" NCoef="0" IVar="-1" Cut="0.0000000000000000e+00" cType="1" res="5.7085640728473663e-03" rms="4.4274136424064636e-01" purity="6.1712026596069336e-01" nType="-99"/>
          </Node>
          <Node pos="r" depth="2" NCoef="0" IVar="4" Cut="1.0372816467285156e+02" cType="1" res="1.3448431855067611e-03" rms="4.9079030752182007e-01" purity="7.3342436552047729e-01" nType="0">
            <Node pos="l" depth="3" NCoef="0" IVar="-1" Cut="0.0000000000000000e+00" cType="1" res="3.6071620881557465e-02" rms="3.3479285240173340e-01" purity="8.6307454109191895e-01" nType="-99"/>
            <Node pos="r" depth="3" NCoef="0" IVar="-1" Cut="0.0000000000000000e+00" cType="1" res="1.3020967599004507e-03" rms="4.1637149453163147e-01" purity="7.0099246501922607e-01" nType="-99"/>
          </Node>
        </Node>
      </Node>
    </BinaryTree>
    <BinaryTree type="DecisionTree" boostWeight="1.0000000000000000e+00" itree="26">
      <Node pos="s" depth="0" NCoef="0" IVar="0" Cut="8.0000000000000000e+00" cType="1" res="-5.9963587671518326e-02" rms="4.4279888272285461e-01" purity="5.0000000000000000e-01" nType="0">
        <Node pos="l" depth="1" NCoef="0" IVar="2" Cut="2.9822613525390625e+02" cType="1" res="0.0000000000000000e+00" rms="5.8914533376000000e+10" purity="3.4951448440551758e-01" nType="0">
          <Node pos="l" depth="2" NCoef="0" IVar="15" Cut="3.3341605216264725e-02" cType="1" res="1.1788586789634048e+16" rms="0.0000000000000000e+00" purity="2.9033648967742920e-01" nType="0">
            <Node pos="l" depth="3" NCoef="0" IVar="-1" Cut="0.0000000000000000e+00" cType="1" res="-3.1570091377943754e-03" rms="3.7285453081130981e-01" purity="1.6730177402496338e-01" nType="-99"/>
            <Node pos="r" depth="3" NCoef="0" IVar="-1" Cut="0.0000000000000000e+00" cType="1" res="-2.5216066278517246e-03" rms="4.6859380602836609e-01" purity="3.8350862264633179e-01" nType="-99"/>
          </Node>
          <Node pos="r" depth="2" NCoef="0" IVar="10" Cut="2.2107019424438477e+00" cType="1" res="1.0860993451357372e+22" rms="0.0000000000000000e+00" purity="4.7551259398460388e-01" nType="0">
            <Node pos="l" depth="3" NCoef="0" IVar="-1" Cut="0.0000000000000000e+00" cType="1" res="7.9776979982852936e-03" rms="4.6418178081512451e-01" purity="5.7822895050048828e-01" nType="-99"/>
            <Node pos="r" depth="3" NCoef="0" IVar="-1" Cut="0.0000000000000000e+00" cType="1" res="-1.8361033871769905e-02" rms="4.0109950304031372e-01" purity="2.2830934822559357e-01" nType="-99"/>
          </Node>
        </Node>
        <Node pos="r" depth="1" NCoef="0" IVar="0" Cut="9.0000000000000000e+00" cType="1" res="4.3410152196884155e-02" rms="4.0768408775329590e-01" purity="7.3174518346786499e-01" nType="0">
          <Node pos="l" depth="2" NCoef="0" IVar="12" Cut="8.0875295400619507e-01" cType="1" res="0.0000000000000000e+00" rms="1.5181600000000000e+08" purity="6.6141939163208008e-01" nType="0">
            <Node pos="l" depth="3" NCoef="0" IVar="-1" Cut="0.0000000000000000e+00" cType="1" res="-2.4863341823220253e-03" rms="4.5397803187370300e-01" purity="6.0041135549545288e-01" nType="-99"/>
            <Node pos="r" depth="3" NCoef="0" IVar="-1" Cut="0.0000000000000000e+00" cType="1" res="1.7331410199403763e-02" rms="3.8188695907592773e-01" purity="7.8400576114654541e-01" nType="-99"/>
          </Node>
          <Node pos="r" depth="2" NCoef="0" IVar="5" Cut="1.0327112579345703e+02" cType="1" res="inf" rms="0.0000000000000000e+00" purity="8.1296616792678833e-01" nType="0">
            <Node pos="l" depth="3" NCoef="0" IVar="-1" Cut="0.0000000000000000e+00" cType="1" res="3.1339954584836960e-02" rms="3.2929077744483948e-01" purity="8.5845398902893066e-01" nType="-99"/>
            <Node pos="r" depth="3" NCoef="0" IVar="-1" Cut="0.0000000000000000e+00" cType="1" res="2.9465111438184977e-03" rms="3.8003852963447571e-01" purity="7.8427672386169434e-01" nType="-99"/>
          </Node>
        </Node>
      </Node>
    </BinaryTree>
    <BinaryTree type="DecisionTree" boostWeight="1.0000000000000000e+00" itree="27">
      <Node pos="s" depth="0" NCoef="0" IVar="0" Cut="7.0000000000000000e+00" cType="1" res="-6.0781378298997879e-02" rms="4.4186398386955261e-01" purity="5.0000000000000000e-01" nType="0">
        <Node pos="l" depth="1" NCoef="0" IVar="2" Cut="3.0760980224609375e+02" cType="1" res="0.0000000000000000e+00" rms="0.0000000000000000e+00" purity="2.3571956157684326e-01" nType="0">
          <Node pos="l" depth="2" NCoef="0" IVar="15" Cut="4.1593074798583984e-02" cType="1" res="0.0000000000000000e+00" rms="0.0000000000000000e+00" purity="1.8903961777687073e-01" nType="0">
            <Node pos="l" depth="3" NCoef="0" IVar="-1" Cut="0.0000000000000000e+00" cType="1" res="-4.5480360276997089e-03" rms="3.3046132326126099e-01" purity="1.2370964884757996e-01" nType="-99"/>
            <Node pos="r" depth="3" NCoef="0" IVar="-1" Cut="0.0000000000000000e+00" cType="1" res="-5.1593948155641556e-03" rms="4.3956914544105530e-01" purity="2.6881942152976990e-01" nType="-99"/>
          </Node>
          <Node pos="r" depth="2" NCoef="0" IVar="-1" Cut="0.0000000000000000e+00" cType="1" res="-1.0369577445089817e-02" rms="4.4452276825904846e-01" purity="3.4082883596420288e-01" nType="-99"/>
        </Node>
        <Node pos="r" depth="1" NCoef="0" IVar="2" Cut="1.6739610290527344e+02" cType="1" res="6.3137005781754851e-04" rms="5.0293463468551636e-01" purity="5.9667676687240601e-01" nType="0">
          <Node pos="l" depth="2" NCoef="0" IVar="15" Cut="3.5850170999765396e-02" cType="1" res="2.4116563145071268e-03" rms="4.1543087363243103e-01" purity="4.0840595960617065e-01" nType="0">
            <Node pos="l" depth="3" NCoef="0" IVar="-1" Cut="0.0000000000000000e+00" cType="1" res="-2.1630141418427229e-03" rms="4.1022703051567078e-01" purity="2.3029515147209167e-01" nType="-99"/>
            <Node pos="r" depth="3" NCoef="0" IVar="-1" Cut="0.0000000000000000e+00" cType="1" res="-1.0008013341575861e-03" rms="4.8105874657630920e-01" purity="5.2745676040649414e-01" nType="-99"/>
          </Node>
          <Node pos="r" depth="2" NCoef="0" IVar="14" Cut="2.2903661429882050e-01" cType="1" res="8.5528247291222215e-04" rms="5.0294446945190430e-01" purity="6.6344612836837769e-01" nType="0">
            <Node pos="l" depth="3" NCoef="0" IVar="-1" Cut="0.0000000000000000e+00" cType="1" res="-2.0109654869884253e-03" rms="4.5732346177101135e-01" purity="5.0007975101470947e-01" nType="-99"/>
            <Node pos="r" depth="3" NCoef="0" IVar="-1" Cut="0.0000000000000000e+00" cType="1" res="6.8380953744053841e-03" rms="3.9823251962661743e-01" purity="7.4538016319274902e-01" nType="-99"/>
          </Node>
        </Node>
      </Node>
    </BinaryTree>
    <BinaryTree type="DecisionTree" boostWeight="1.0000000000000000e+00" itree="28">
      <Node pos="s" depth="0" NCoef="0" IVar="16" Cut="3.9057376980781555e-01" cType="1" res="1.9847054779529572e-01" rms="0.0000000000000000e+00" purity="5.0000000000000000e-01" nType="0">
        <Node pos="l" depth="1" NCoef="0" IVar="2" Cut="2.9208032226562500e+02" cType="1" res="9.5171114662662148e-04" rms="3.3687254786491394e-01" purity="3.1833720207214355e-01" nType="0">
          <Node pos="l" depth="2" NCoef="0" IVar="10" Cut="8.3539003133773804e-01" cType="1" res="0.0000000000000000e+00" rms="0.0000000000000000e+00" purity="2.5519815087318420e-01" nType="0">
            <Node pos="l" depth="3" NCoef="0" IVar="-1" Cut="0.0000000000000000e+00" cType="1" res="-8.0424482002854347e-03" rms="3.2665908336639404e-01" purity="1.3511420786380768e-01" nType="-99"/>
            <Node pos="r" depth="3" NCoef="0" IVar="-1" Cut="0.0000000000000000e+00" cType="1" res="-3.1536810565739870e-03" rms="4.3883040547370911e-01" purity="2.9153606295585632e-01" nType="-99"/>
          </Node>
          <Node pos="r" depth="2" NCoef="0" IVar="10" Cut="2.2107019424438477e+00" cType="1" res="0.0000000000000000e+00" rms="0.0000000000000000e+00" purity="4.3042340874671936e-01" nType="0">
            <Node pos="l" depth="3" NCoef="0" IVar="-1" Cut="0.0000000000000000e+00" cType="1" res="2.1792976185679436e-03" rms="4.6740618348121643e-01" purity="5.4359585046768188e-01" nType="-99"/>
            <Node pos="r" depth="3" NCoef="0" IVar="-1" Cut="0.0000000000000000e+00" cType="1" res="-2.2897886112332344e-02" rms="3.8572877645492554e-01" purity="2.0142833888530731e-01" nType="-99"/>
          </Node>
        </Node>
        <Node pos="r" depth="1" NCoef="0" IVar="16" Cut="4.1092348098754883e-01" cType="1" res="1.8490330874919891e-01" rms="0.0000000000000000e+00" purity="6.3427639007568359e-01" nType="0">
          <Node pos="l" depth="2" NCoef="0" IVar="2" Cut="2.3693870544433594e+02" cType="1" res="2.1368317306041718e-01" rms="0.0000000000000000e+00" purity="5.1823133230209351e-01" nType="0">
            <Node pos="l" depth="3" NCoef="0" IVar="-1" Cut="0.0000000000000000e+00" cType="1" res="-1.7863909015432000e-03" rms="4.5862710475921631e-01" purity="3.8011738657951355e-01" nType="-99"/>
            <Node pos="r" depth="3" NCoef="0" IVar="-1" Cut="0.0000000000000000e+00" cType="1" res="8.5609778761863708e-03" rms="4.4014135003089905e-01" purity="6.5712720155715942e-01" nType="-99"/>
          </Node>
          <Node pos="r" depth="2" NCoef="0" IVar="10" Cut="1.0534898042678833e+00" cType="1" res="1.7429568106308579e-03" rms="4.6885088086128235e-01" purity="8.0575555562973022e-01" nType="0">
            <Node pos="l" depth="3" NCoef="0" IVar="-1" Cut="0.0000000000000000e+00" cType="1" res="1.2965417699888349e-03" rms="3.5949084162712097e-01" purity="7.8443735837936401e-01" nType="-99"/>
            <Node pos="r" depth="3" NCoef="0" IVar="-1" Cut="0.0000000000000000e+00" cType="1" res="2.3845801129937172e-02" rms="3.6647915840148926e-01" purity="8.1778538227081299e-01" nType="-99"/>
          </Node>
        </Node>
      </Node>
    </BinaryTree>
    <BinaryTree type="DecisionTree" boostWeight="1.0000000000000000e+00" itree="29">
      <Node pos="s" depth="0" NCoef="0" IVar="0" Cut="7.0000000000000000e+00" cType="1" res="-6.1628032475709915e-02" rms="4.4025731086730957e-01" purity="5.0000000000000000e-01" nType="0">
        <Node pos="l" depth="1" NCoef="0" IVar="2" Cut="3.0760980224609375e+02" cType="1" res="0.0000000000000000e+00" rms="0.0000000000000000e+00" purity="2.3571956157684326e-01" nType="0">
          <Node pos="l" depth="2" NCoef="0" IVar="15" Cut="4.1593074798583984e-02" cType="1" res="0.0000000000000000e+00" rms="0.0000000000000000e+00" purity="1.8903961777687073e-01" nType="0">
            <Node pos="l" depth="3" NCoef="0" IVar="-1" Cut="0.0000000000000000e+00" cType="1" res="-4.4971625320613384e-03" rms="3.3034616708755493e-01" purity="1.2370964884757996e-01" nType="-99"/>
            <Node pos="r" depth="3" NCoef="0" IVar="-1" Cut="0.0000000000000000e+00" cType="1" res="-5.0692539662122726e-03" rms="4.3922427296638489e-01" purity="2.6881942152976990e-01" nType="-99"/>
          </Node>
          <Node pos="r" depth="2" NCoef="0" IVar="-1" Cut="0.0000000000000000e+00" cType="1" res="-9.5467725768685341e-03" rms="4.4383350014686584e-01" purity="3.4082883596420288e-01" nType="-99"/>
        </Node>
        <Node pos="r" depth="1" NCoef="0" IVar="2" Cut="1.6739610290527344e+02" cType="1" res="6.3137005781754851e-04" rms="5.0293463468551636e-01" purity="5.9667676687240601e-01" nType="0">
          <Node pos="l" depth="2" NCoef="0" IVar="15" Cut="3.5850170999765396e-02" cType="1" res="2.4116563145071268e-03" rms="4.1543087363243103e-01" purity="4.0840595960617065e-01" nType="0">
            <Node pos="l" depth="3" NCoef="0" IVar="-1" Cut="0.0000000000000000e+00" cType="1" res="-2.1455215755850077e-03" rms="4.0976122021675110e-01" purity="2.3029515147209167e-01" nType="-99"/>
            <Node pos="r" depth="3" NCoef="0" IVar="-1" Cut="0.0000000000000000e+00" cType="1" res="-1.0663566645234823e-03" rms="4.7953531146049500e-01" purity="5.2745676040649414e-01" nType="-99"/>
          </Node>
          <Node pos="r" depth="2" NCoef="0" IVar="12" Cut="8.5690915584564209e-01" cType="1" res="8.5528247291222215e-04" rms="5.0294446945190430e-01" purity="6.6344612836837769e-01" nType="0">
            <Node pos="l" depth="3" NCoef="0" IVar="-1" Cut="0.0000000000000000e+00" cType="1" res="-5.8521202299743891e-04" rms="4.3225184082984924e-01" purity="6.2189340591430664e-01" nType="-99"/>
            <Node pos="r" depth="3" NCoef="0" IVar="-1" Cut="0.0000000000000000e+00" cType="1" res="2.4525251239538193e-02" rms="3.7962058186531067e-01" purity="7.6886916160583496e-01" nType="-99"/>
          </Node>
        </Node>
      </Node>
    </BinaryTree>
    <BinaryTree type="DecisionTree" boostWeight="1.0000000000000000e+00" itree="30">
      <Node pos="s" depth="0" NCoef="0" IVar="0" Cut="8.0000000000000000e+00" cType="1" res="-6.2163155525922775e-02" rms="4.3942087888717651e-01" purity="5.0000000000000000e-01" nType="0">
        <Node pos="l" depth="1" NCoef="0" IVar="2" Cut="2.9822613525390625e+02" cType="1" res="8.0212272349184000e+15" rms="0.0000000000000000e+00" purity="3.4951448440551758e-01" nType="0">
          <Node pos="l" depth="2" NCoef="0" IVar="15" Cut="3.3341605216264725e-02" cType="1" res="0.0000000000000000e+00" rms="0.0000000000000000e+00" purity="2.9033648967742920e-01" nType="0">
            <Node pos="l" depth="3" NCoef="0" IVar="-1" Cut="0.0000000000000000e+00" cType="1" res="-3.1081982888281345e-03" rms="3.7174993753433228e-01" purity="1.6730177402496338e-01" nType="-99"/>
            <Node pos="r" depth="3" NCoef="0" IVar="-1" Cut="0.0000000000000000e+00" cType="1" res="-2.5051773991435766e-03" rms="4.6654471755027771e-01" purity="3.8350862264633179e-01" nType="-99"/>
          </Node>
          <Node pos="r" depth="2" NCoef="0" IVar="12" Cut="8.0941575765609741e-01" cType="1" res="0.0000000000000000e+00" rms="0.0000000000000000e+00" purity="4.7551259398460388e-01" nType="0">
            <Node pos="l" depth="3" NCoef="0" IVar="-1" Cut="0.0000000000000000e+00" cType="1" res="-1.0904437862336636e-02" rms="4.4430902600288391e-01" purity="3.8864368200302124e-01" nType="-99"/>
            <Node pos="r" depth="3" NCoef="0" IVar="-1" Cut="0.0000000000000000e+00" cType="1" res="1.2402812950313091e-02" rms="4.4418329000473022e-01" purity="5.6923258304595947e-01" nType="-99"/>
          </Node>
        </Node>
        <Node pos="r" depth="1" NCoef="0" IVar="0" Cut="9.0000000000000000e+00" cType="1" res="3.4831658005714417e-02" rms="4.0549343824386597e-01" purity="7.3174518346786499e-01" nType="0">
          <Node pos="l" depth="2" NCoef="0" IVar="13" Cut="9.6702951192855835e-01" cType="1" res="0.0000000000000000e+00" rms="0.0000000000000000e+00" purity="6.6141939163208008e-01" nType="0">
            <Node pos="l" depth="3" NCoef="0" IVar="-1" Cut="0.0000000000000000e+00" cType="1" res="-2.8447699733078480e-03" rms="4.5249211788177490e-01" purity="5.8254951238632202e-01" nType="-99"/>
            <Node pos="r" depth="3" NCoef="0" IVar="-1" Cut="0.0000000000000000e+00" cType="1" res="9.3325693160295486e-03" rms="4.0607249736785889e-01" purity="7.3919659852981567e-01" nType="-99"/>
          </Node>
          <Node pos="r" depth="2" NCoef="0" IVar="10" Cut="1.0542912483215332e+00" cType="1" res="0.0000000000000000e+00" rms="0.0000000000000000e+00" purity="8.1296616792678833e-01" nType="0">
            <Node pos="l" depth="3" NCoef="0" IVar="-1" Cut="0.0000000000000000e+00" cType="1" res="1.2778891250491142e-03" rms="3.6114856600761414e-01" purity="7.8993207216262817e-01" nType="-99"/>
            <Node pos="r" depth="3" NCoef="0" IVar="-1" Cut="0.0000000000000000e+00" cType="1" res="2.5612253695726395e-02" rms="3.5944640636444092e-01" purity="8.2779294252395630e-01" nType="-99"/>
          </Node>
        </Node>
      </Node>
    </BinaryTree>
