<?xml version="1.0"?>
<MethodSetup Method="BDT::BDT">
  <GeneralInfo>
    <Info name="TMVA Release" value="4.2.1 [262657]"/>
    <Info name="ROOT Release" value="6.06/01 [394753]"/>
    <Info name="Creator" value="kkousour"/>
    <Info name="Date" value="Thu Jun 30 12:05:14 2016"/>
    <Info name="Host" value="Linux vocms0301.cern.ch 2.6.32-573.22.1.el6.x86_64 #1 SMP Wed Mar 23 17:13:03 CET 2016 x86_64 x86_64 x86_64 GNU/Linux"/>
    <Info name="Dir" value="/afs/cern.ch/work/k/kkousour/private/2016/CMSSW_8_0_11/src/KKousour/TopAnalysis/analysis/ttH"/>
    <Info name="Training events" value="400000"/>
    <Info name="TrainingTime" value="4.71463320e+02"/>
    <Info name="AnalysisType" value="Classification"/>
  </GeneralInfo>
  <Options>
    <Option name="V" modified="No">False</Option>
    <Option name="VerbosityLevel" modified="No">Default</Option>
    <Option name="VarTransform" modified="No">None</Option>
    <Option name="H" modified="No">False</Option>
    <Option name="CreateMVAPdfs" modified="No">False</Option>
    <Option name="IgnoreNegWeightsInTraining" modified="No">False</Option>
    <Option name="NTrees" modified="Yes">200</Option>
    <Option name="MaxDepth" modified="No">3</Option>
    <Option name="MinNodeSize" modified="No">5%</Option>
    <Option name="nCuts" modified="No">20</Option>
    <Option name="BoostType" modified="Yes">Grad</Option>
    <Option name="AdaBoostR2Loss" modified="No">quadratic</Option>
    <Option name="UseBaggedBoost" modified="No">False</Option>
    <Option name="Shrinkage" modified="Yes">1.000000e-01</Option>
    <Option name="AdaBoostBeta" modified="No">5.000000e-01</Option>
    <Option name="UseRandomisedTrees" modified="No">False</Option>
    <Option name="UseNvars" modified="No">5</Option>
    <Option name="UsePoissonNvars" modified="No">True</Option>
    <Option name="BaggedSampleFraction" modified="No">6.000000e-01</Option>
    <Option name="UseYesNoLeaf" modified="No">True</Option>
    <Option name="NegWeightTreatment" modified="No">ignorenegweightsintraining</Option>
    <Option name="Css" modified="No">1.000000e+00</Option>
    <Option name="Cts_sb" modified="No">1.000000e+00</Option>
    <Option name="Ctb_ss" modified="No">1.000000e+00</Option>
    <Option name="Cbb" modified="No">1.000000e+00</Option>
    <Option name="NodePurityLimit" modified="No">5.000000e-01</Option>
    <Option name="SeparationType" modified="No">giniindex</Option>
    <Option name="DoBoostMonitor" modified="Yes">True</Option>
    <Option name="UseFisherCuts" modified="No">False</Option>
    <Option name="MinLinCorrForFisher" modified="No">8.000000e-01</Option>
    <Option name="UseExclusiveVars" modified="No">False</Option>
    <Option name="DoPreselection" modified="No">False</Option>
    <Option name="SigToBkgFraction" modified="No">1.000000e+00</Option>
    <Option name="PruneMethod" modified="No">nopruning</Option>
    <Option name="PruneStrength" modified="No">0.000000e+00</Option>
    <Option name="PruningValFraction" modified="No">5.000000e-01</Option>
    <Option name="nEventsMin" modified="No">0</Option>
    <Option name="UseBaggedGrad" modified="No">False</Option>
    <Option name="GradBaggingFraction" modified="No">6.000000e-01</Option>
    <Option name="UseNTrainEvents" modified="No">0</Option>
    <Option name="NNodesMax" modified="No">0</Option>
  </Options>
  <Variables NVar="20">
    <Variable VarIndex="0" Expression="nJets" Label="nJets" Title="nJets" Unit="" Internal="nJets" Type="I" Min="6.00000000e+00" Max="1.60000000e+01"/>
    <Variable VarIndex="1" Expression="ht" Label="ht" Title="ht" Unit="" Internal="ht" Type="F" Min="4.50000458e+02" Max="6.69122266e+03"/>
    <Variable VarIndex="2" Expression="jetPt[5]" Label="jetPt[5]" Title="jetPt[5]" Unit="" Internal="jetPt_5_" Type="F" Min="4.00000420e+01" Max="4.18445190e+02"/>
    <Variable VarIndex="3" Expression="mbbMin" Label="mbbMin" Title="mbbMin" Unit="" Internal="mbbMin" Type="F" Min="1.64391174e+01" Max="5.15506543e+03"/>
    <Variable VarIndex="4" Expression="dRbbMin" Label="dRbbMin" Title="dRbbMin" Unit="" Internal="dRbbMin" Type="F" Min="3.55969548e-01" Max="5.49169827e+00"/>
    <Variable VarIndex="5" Expression="qglMedian" Label="qglMedian" Title="qglMedian" Unit="" Internal="qglMedian" Type="F" Min="2.66315741e-03" Max="9.99487817e-01"/>
    <Variable VarIndex="6" Expression="abs(cosThetaStar1)" Label="abs(cosThetaStar1)" Title="abs(cosThetaStar1)" Unit="" Internal="abs_cosThetaStar1_" Type="F" Min="4.81430243e-06" Max="9.91875410e-01"/>
    <Variable VarIndex="7" Expression="abs(cosThetaStar2)" Label="abs(cosThetaStar2)" Title="abs(cosThetaStar2)" Unit="" Internal="abs_cosThetaStar2_" Type="F" Min="3.00687452e-06" Max="9.93296623e-01"/>
    <Variable VarIndex="8" Expression="sphericity" Label="sphericity" Title="sphericity" Unit="" Internal="sphericity" Type="F" Min="2.07000854e-03" Max="9.68263865e-01"/>
    <Variable VarIndex="9" Expression="aplanarity" Label="aplanarity" Title="aplanarity" Unit="" Internal="aplanarity" Type="F" Min="9.52204427e-05" Max="4.76600915e-01"/>
    <Variable VarIndex="10" Expression="centrality" Label="centrality" Title="centrality" Unit="" Internal="centrality" Type="F" Min="2.30247572e-01" Max="9.90487814e-01"/>
    <Variable VarIndex="11" Expression="foxWolfram[0]" Label="foxWolfram[0]" Title="foxWolfram[0]" Unit="" Internal="foxWolfram_0_" Type="F" Min="1.59776822e-01" Max="4.54473376e-01"/>
    <Variable VarIndex="12" Expression="foxWolfram[1]" Label="foxWolfram[1]" Title="foxWolfram[1]" Unit="" Internal="foxWolfram_1_" Type="F" Min="-2.13560432e-01" Max="3.43138665e-01"/>
    <Variable VarIndex="13" Expression="foxWolfram[2]" Label="foxWolfram[2]" Title="foxWolfram[2]" Unit="" Internal="foxWolfram_2_" Type="F" Min="-5.01359738e-02" Max="4.01893675e-01"/>
    <Variable VarIndex="14" Expression="foxWolfram[3]" Label="foxWolfram[3]" Title="foxWolfram[3]" Unit="" Internal="foxWolfram_3_" Type="F" Min="-2.12649062e-01" Max="2.23070621e-01"/>
    <Variable VarIndex="15" Expression="mTop[0]" Label="mTop[0]" Title="mTop[0]" Unit="" Internal="mTop_0_" Type="F" Min="9.00940094e+01" Max="2.09443481e+03"/>
    <Variable VarIndex="16" Expression="ptTTbar" Label="ptTTbar" Title="ptTTbar" Unit="" Internal="ptTTbar" Type="F" Min="3.67793173e-01" Max="2.30185059e+03"/>
    <Variable VarIndex="17" Expression="mTTbar" Label="mTTbar" Title="mTTbar" Unit="" Internal="mTTbar" Type="F" Min="2.02142670e+02" Max="6.50898145e+03"/>
    <Variable VarIndex="18" Expression="dRbbTop" Label="dRbbTop" Title="dRbbTop" Unit="" Internal="dRbbTop" Type="F" Min="2.57916033e-01" Max="5.49087811e+00"/>
    <Variable VarIndex="19" Expression="chi2" Label="chi2" Title="chi2" Unit="" Internal="chi2" Type="F" Min="1.41745922e-03" Max="7.31904785e+02"/>
  </Variables>
  <Spectators NSpec="0"/>
  <Classes NClass="2">
    <Class Name="Signal" Index="0"/>
    <Class Name="Background" Index="1"/>
  </Classes>
  <Transformations NTransformations="0"/>
  <MVAPdfs/>
  <Weights NTrees="200" AnalysisType="1">
    <BinaryTree type="DecisionTree" boostWeight="1.0000000000000000e+00" itree="0">
      <Node pos="s" depth="0" NCoef="0" IVar="0" Cut="8.0000000000000000e+00" cType="1" res="1.7930576186146741e-13" rms="5.0000000000000000e-01" purity="5.0000000000000000e-01" nType="0">
        <Node pos="l" depth="1" NCoef="0" IVar="10" Cut="7.3753356933593750e-01" cType="1" res="3.4145823121070862e-01" rms="4.7422984242439270e-01" purity="3.4149610996246338e-01" nType="0">
          <Node pos="l" depth="2" NCoef="0" IVar="0" Cut="7.0000000000000000e+00" cType="1" res="-2.8539529442787170e-01" rms="4.1054785251617432e-01" purity="2.1460470557212830e-01" nType="0">
            <Node pos="l" depth="3" NCoef="0" IVar="-1" Cut="0.0000000000000000e+00" cType="1" res="-8.1572579219937325e-03" rms="3.0036661028862000e-01" purity="1.0027521848678589e-01" nType="-99"/>
            <Node pos="r" depth="3" NCoef="0" IVar="-1" Cut="0.0000000000000000e+00" cType="1" res="-5.5878614075481892e-03" rms="4.5770922303199768e-01" purity="2.9874828457832336e-01" nType="-99"/>
          </Node>
          <Node pos="r" depth="2" NCoef="0" IVar="0" Cut="7.0000000000000000e+00" cType="1" res="3.2475769519805908e-02" rms="4.9894422292709351e-01" purity="5.3247576951980591e-01" nType="0">
            <Node pos="l" depth="3" NCoef="0" IVar="-1" Cut="0.0000000000000000e+00" cType="1" res="-6.1529660597443581e-03" rms="4.7073361277580261e-01" purity="3.3144769072532654e-01" nType="-99"/>
            <Node pos="r" depth="3" NCoef="0" IVar="-1" Cut="0.0000000000000000e+00" cType="1" res="1.0990018025040627e-02" rms="4.7166994214057922e-01" purity="6.6591399908065796e-01" nType="-99"/>
          </Node>
        </Node>
        <Node pos="r" depth="1" NCoef="0" IVar="10" Cut="6.2450289726257324e-01" cType="1" res="5.5476266425102949e-05" rms="5.5004459619522095e-01" purity="7.3230516910552979e-01" nType="0">
          <Node pos="l" depth="2" NCoef="0" IVar="0" Cut="9.0000000000000000e+00" cType="1" res="5.8254018425941467e-02" rms="4.9659487605094910e-01" purity="5.5825400352478027e-01" nType="0">
            <Node pos="l" depth="3" NCoef="0" IVar="-1" Cut="0.0000000000000000e+00" cType="1" res="-1.9630633760243654e-03" rms="4.9708259105682373e-01" purity="4.4606578350067139e-01" nType="-99"/>
            <Node pos="r" depth="3" NCoef="0" IVar="-1" Cut="0.0000000000000000e+00" cType="1" res="1.9154179841279984e-02" rms="4.4571632146835327e-01" purity="7.2657656669616699e-01" nType="-99"/>
          </Node>
          <Node pos="r" depth="2" NCoef="0" IVar="5" Cut="3.8383707404136658e-01" cType="1" res="8.2460770499892533e-05" rms="5.7789009809494019e-01" purity="8.1696635484695435e-01" nType="0">
            <Node pos="l" depth="3" NCoef="0" IVar="-1" Cut="0.0000000000000000e+00" cType="1" res="1.5342432074248791e-02" rms="4.5794326066970825e-01" purity="7.0071864128112793e-01" nType="-99"/>
            <Node pos="r" depth="3" NCoef="0" IVar="-1" Cut="0.0000000000000000e+00" cType="1" res="4.3481107801198959e-02" rms="3.3044874668121338e-01" purity="8.7523806095123291e-01" nType="-99"/>
          </Node>
        </Node>
      </Node>
    </BinaryTree>
    <BinaryTree type="DecisionTree" boostWeight="1.0000000000000000e+00" itree="1">
      <Node pos="s" depth="0" NCoef="0" IVar="0" Cut="8.0000000000000000e+00" cType="1" res="-4.3779672123491764e-03" rms="4.9549990892410278e-01" purity="5.0000000000000000e-01" nType="0">
        <Node pos="l" depth="1" NCoef="0" IVar="10" Cut="7.3753356933593750e-01" cType="1" res="4.2057722566823941e-06" rms="0.0000000000000000e+00" purity="3.4149610996246338e-01" nType="0">
          <Node pos="l" depth="2" NCoef="0" IVar="0" Cut="7.0000000000000000e+00" cType="1" res="-2.8205674886703491e-01" rms="4.1039663553237915e-01" purity="2.1460470557212830e-01" nType="0">
            <Node pos="l" depth="3" NCoef="0" IVar="-1" Cut="0.0000000000000000e+00" cType="1" res="-8.0745629966259003e-03" rms="3.0036661028862000e-01" purity="1.0027521848678589e-01" nType="-99"/>
            <Node pos="r" depth="3" NCoef="0" IVar="-1" Cut="0.0000000000000000e+00" cType="1" res="-5.5104591883718967e-03" rms="4.5770922303199768e-01" purity="2.9874828457832336e-01" nType="-99"/>
          </Node>
          <Node pos="r" depth="2" NCoef="0" IVar="0" Cut="7.0000000000000000e+00" cType="1" res="3.0400553718209267e-02" rms="4.9758222699165344e-01" purity="5.3247576951980591e-01" nType="0">
            <Node pos="l" depth="3" NCoef="0" IVar="-1" Cut="0.0000000000000000e+00" cType="1" res="-6.0408902354538441e-03" rms="4.7073361277580261e-01" purity="3.3144769072532654e-01" nType="-99"/>
            <Node pos="r" depth="3" NCoef="0" IVar="-1" Cut="0.0000000000000000e+00" cType="1" res="1.0627332143485546e-02" rms="4.7166994214057922e-01" purity="6.6591399908065796e-01" nType="-99"/>
          </Node>
        </Node>
        <Node pos="r" depth="1" NCoef="0" IVar="10" Cut="6.6034430265426636e-01" cType="1" res="4.6573075733623603e+17" rms="0.0000000000000000e+00" purity="7.3230516910552979e-01" nType="0">
          <Node pos="l" depth="2" NCoef="0" IVar="0" Cut="9.0000000000000000e+00" cType="1" res="8.0073721706867218e-02" rms="4.9056077003479004e-01" purity="5.8600515127182007e-01" nType="0">
            <Node pos="l" depth="3" NCoef="0" IVar="-1" Cut="0.0000000000000000e+00" cType="1" res="-1.0551857994869351e-03" rms="4.9831306934356689e-01" purity="4.7533828020095825e-01" nType="-99"/>
            <Node pos="r" depth="3" NCoef="0" IVar="-1" Cut="0.0000000000000000e+00" cType="1" res="2.1279446780681610e-02" rms="4.3352296948432922e-01" purity="7.4824261665344238e-01" nType="-99"/>
          </Node>
          <Node pos="r" depth="2" NCoef="0" IVar="5" Cut="4.3118819594383240e-01" cType="1" res="1.7196962611200000e+11" rms="0.0000000000000000e+00" purity="8.3294075727462769e-01" nType="0">
            <Node pos="l" depth="3" NCoef="0" IVar="-1" Cut="0.0000000000000000e+00" cType="1" res="1.8074786290526390e-02" rms="4.4269630312919617e-01" purity="7.3185557126998901e-01" nType="-99"/>
            <Node pos="r" depth="3" NCoef="0" IVar="-1" Cut="0.0000000000000000e+00" cType="1" res="4.6885743737220764e-02" rms="3.0674663186073303e-01" purity="8.9484995603561401e-01" nType="-99"/>
          </Node>
        </Node>
      </Node>
    </BinaryTree>
    <BinaryTree type="DecisionTree" boostWeight="1.0000000000000000e+00" itree="2">
      <Node pos="s" depth="0" NCoef="0" IVar="0" Cut="8.0000000000000000e+00" cType="1" res="-8.6335493251681328e-03" rms="4.9114316701889038e-01" purity="5.0000000000000000e-01" nType="0">
        <Node pos="l" depth="1" NCoef="0" IVar="10" Cut="7.3753356933593750e-01" cType="1" res="4.2057722566823941e-06" rms="2.0507937297224998e-03" purity="3.4149610996246338e-01" nType="0">
          <Node pos="l" depth="2" NCoef="0" IVar="0" Cut="7.0000000000000000e+00" cType="1" res="-2.7875837683677673e-01" rms="4.1024670004844666e-01" purity="2.1460470557212830e-01" nType="0">
            <Node pos="l" depth="3" NCoef="0" IVar="-1" Cut="0.0000000000000000e+00" cType="1" res="-7.9937549307942390e-03" rms="3.0036658048629761e-01" purity="1.0027521848678589e-01" nType="-99"/>
            <Node pos="r" depth="3" NCoef="0" IVar="-1" Cut="0.0000000000000000e+00" cType="1" res="-5.4344618692994118e-03" rms="4.5770925283432007e-01" purity="2.9874828457832336e-01" nType="-99"/>
          </Node>
          <Node pos="r" depth="2" NCoef="0" IVar="0" Cut="7.0000000000000000e+00" cType="1" res="2.8412628918886185e-02" rms="4.9628865718841553e-01" purity="5.3247576951980591e-01" nType="0">
            <Node pos="l" depth="3" NCoef="0" IVar="-1" Cut="0.0000000000000000e+00" cType="1" res="-5.9312921948730946e-03" rms="4.7073358297348022e-01" purity="3.3144769072532654e-01" nType="-99"/>
            <Node pos="r" depth="3" NCoef="0" IVar="-1" Cut="0.0000000000000000e+00" cType="1" res="1.0278974659740925e-02" rms="4.7166994214057922e-01" purity="6.6591399908065796e-01" nType="-99"/>
          </Node>
        </Node>
        <Node pos="r" depth="1" NCoef="0" IVar="10" Cut="6.9618570804595947e-01" cType="1" res="1.0188552601600000e+11" rms="0.0000000000000000e+00" purity="7.3230516910552979e-01" nType="0">
          <Node pos="l" depth="2" NCoef="0" IVar="0" Cut="9.0000000000000000e+00" cType="1" res="9.6804305911064148e-02" rms="4.8325422406196594e-01" purity="6.1104005575180054e-01" nType="0">
            <Node pos="l" depth="3" NCoef="0" IVar="-1" Cut="0.0000000000000000e+00" cType="1" res="-1.7674369155429304e-04" rms="4.9721923470497131e-01" purity="5.0302988290786743e-01" nType="-99"/>
            <Node pos="r" depth="3" NCoef="0" IVar="-1" Cut="0.0000000000000000e+00" cType="1" res="2.2307585924863815e-02" rms="4.2192354798316956e-01" purity="7.6636660099029541e-01" nType="-99"/>
          </Node>
          <Node pos="r" depth="2" NCoef="0" IVar="5" Cut="5.2595514059066772e-01" cType="1" res="0.0000000000000000e+00" rms="0.0000000000000000e+00" purity="8.5093265771865845e-01" nType="0">
            <Node pos="l" depth="3" NCoef="0" IVar="-1" Cut="0.0000000000000000e+00" cType="1" res="2.2619735449552536e-02" rms="4.1742655634880066e-01" purity="7.7366411685943604e-01" nType="-99"/>
            <Node pos="r" depth="3" NCoef="0" IVar="-1" Cut="0.0000000000000000e+00" cType="1" res="5.5347185581922531e-02" rms="2.6961904764175415e-01" purity="9.2107671499252319e-01" nType="-99"/>
          </Node>
        </Node>
      </Node>
    </BinaryTree>
    <BinaryTree type="DecisionTree" boostWeight="1.0000000000000000e+00" itree="3">
      <Node pos="s" depth="0" NCoef="0" IVar="0" Cut="8.0000000000000000e+00" cType="1" res="-1.2856016866862774e-02" rms="4.8686239123344421e-01" purity="5.0000000000000000e-01" nType="0">
        <Node pos="l" depth="1" NCoef="0" IVar="10" Cut="7.3753356933593750e-01" cType="1" res="4.2057722566823941e-06" rms="2.0507937297224998e-03" purity="3.4149610996246338e-01" nType="0">
          <Node pos="l" depth="2" NCoef="0" IVar="0" Cut="7.0000000000000000e+00" cType="1" res="-2.7549964189529419e-01" rms="4.1009804606437683e-01" purity="2.1460470557212830e-01" nType="0">
            <Node pos="l" depth="3" NCoef="0" IVar="-1" Cut="0.0000000000000000e+00" cType="1" res="-7.9147610813379288e-03" rms="3.0036661028862000e-01" purity="1.0027521848678589e-01" nType="-99"/>
            <Node pos="r" depth="3" NCoef="0" IVar="-1" Cut="0.0000000000000000e+00" cType="1" res="-5.3598266094923019e-03" rms="4.5770922303199768e-01" purity="2.9874828457832336e-01" nType="-99"/>
          </Node>
          <Node pos="r" depth="2" NCoef="0" IVar="0" Cut="7.0000000000000000e+00" cType="1" res="2.6508711278438568e-02" rms="4.9506005644798279e-01" purity="5.3247576951980591e-01" nType="0">
            <Node pos="l" depth="3" NCoef="0" IVar="-1" Cut="0.0000000000000000e+00" cType="1" res="-5.8240881189703941e-03" rms="4.7073361277580261e-01" purity="3.3144769072532654e-01" nType="-99"/>
            <Node pos="r" depth="3" NCoef="0" IVar="-1" Cut="0.0000000000000000e+00" cType="1" res="9.9440924823284149e-03" rms="4.7166994214057922e-01" purity="6.6591399908065796e-01" nType="-99"/>
          </Node>
        </Node>
        <Node pos="r" depth="1" NCoef="0" IVar="10" Cut="5.8866149187088013e-01" cType="1" res="1.4721251737600000e+11" rms="0.0000000000000000e+00" purity="7.3230516910552979e-01" nType="0">
          <Node pos="l" depth="2" NCoef="0" IVar="7" Cut="8.0410522222518921e-01" cType="1" res="3.6568167219200000e+11" rms="0.0000000000000000e+00" purity="5.2832192182540894e-01" nType="0">
            <Node pos="l" depth="3" NCoef="0" IVar="-1" Cut="0.0000000000000000e+00" cType="1" res="2.6493365876376629e-03" rms="4.9076375365257263e-01" purity="5.7000404596328735e-01" nType="-99"/>
            <Node pos="r" depth="3" NCoef="0" IVar="-1" Cut="0.0000000000000000e+00" cType="1" res="-1.0282379807904363e-03" rms="4.9558731913566589e-01" purity="4.8623862862586975e-01" nType="-99"/>
          </Node>
          <Node pos="r" depth="2" NCoef="0" IVar="5" Cut="5.7324147224426270e-01" cType="1" res="0.0000000000000000e+00" rms="0.0000000000000000e+00" purity="8.0155086517333984e-01" nType="0">
            <Node pos="l" depth="3" NCoef="0" IVar="-1" Cut="0.0000000000000000e+00" cType="1" res="1.4711691997945309e-02" rms="4.4392982125282288e-01" purity="7.2237372398376465e-01" nType="-99"/>
            <Node pos="r" depth="3" NCoef="0" IVar="-1" Cut="0.0000000000000000e+00" cType="1" res="4.2214341461658478e-02" rms="3.0434989929199219e-01" purity="8.9417636394500732e-01" nType="-99"/>
          </Node>
        </Node>
      </Node>
    </BinaryTree>
    <BinaryTree type="DecisionTree" boostWeight="1.0000000000000000e+00" itree="4">
      <Node pos="s" depth="0" NCoef="0" IVar="0" Cut="8.0000000000000000e+00" cType="1" res="-1.6254758462309837e-02" rms="4.8337703943252563e-01" purity="5.0000000000000000e-01" nType="0">
        <Node pos="l" depth="1" NCoef="0" IVar="10" Cut="7.3753356933593750e-01" cType="1" res="4.2057722566823941e-06" rms="2.0507937297224998e-03" purity="3.4149610996246338e-01" nType="0">
          <Node pos="l" depth="2" NCoef="0" IVar="0" Cut="7.0000000000000000e+00" cType="1" res="-2.7228006720542908e-01" rms="4.0995070338249207e-01" purity="2.1460470557212830e-01" nType="0">
            <Node pos="l" depth="3" NCoef="0" IVar="-1" Cut="0.0000000000000000e+00" cType="1" res="-7.8375143930315971e-03" rms="3.0036661028862000e-01" purity="1.0027521848678589e-01" nType="-99"/>
            <Node pos="r" depth="3" NCoef="0" IVar="-1" Cut="0.0000000000000000e+00" cType="1" res="-5.2865133620798588e-03" rms="4.5770922303199768e-01" purity="2.9874828457832336e-01" nType="-99"/>
          </Node>
          <Node pos="r" depth="2" NCoef="0" IVar="0" Cut="7.0000000000000000e+00" cType="1" res="2.4685664102435112e-02" rms="4.9389314651489258e-01" purity="5.3247576951980591e-01" nType="0">
            <Node pos="l" depth="3" NCoef="0" IVar="-1" Cut="0.0000000000000000e+00" cType="1" res="-5.7191979140043259e-03" rms="4.7073358297348022e-01" purity="3.3144769072532654e-01" nType="-99"/>
            <Node pos="r" depth="3" NCoef="0" IVar="-1" Cut="0.0000000000000000e+00" cType="1" res="9.6219135448336601e-03" rms="4.7166994214057922e-01" purity="6.6591399908065796e-01" nType="-99"/>
          </Node>
        </Node>
        <Node pos="r" depth="1" NCoef="0" IVar="10" Cut="6.2450289726257324e-01" cType="1" res="5.5476266425102949e-05" rms="0.0000000000000000e+00" purity="7.3230516910552979e-01" nType="0">
          <Node pos="l" depth="2" NCoef="0" IVar="5" Cut="5.7268536090850830e-01" cType="1" res="1.6952748410403728e-04" rms="3.8455748558044434e-01" purity="5.5825400352478027e-01" nType="0">
            <Node pos="l" depth="3" NCoef="0" IVar="-1" Cut="0.0000000000000000e+00" cType="1" res="-2.5509134866297245e-03" rms="4.9238470196723938e-01" purity="4.4802990555763245e-01" nType="-99"/>
            <Node pos="r" depth="3" NCoef="0" IVar="-1" Cut="0.0000000000000000e+00" cType="1" res="1.2399251572787762e-02" rms="4.4987958669662476e-01" purity="7.0831882953643799e-01" nType="-99"/>
          </Node>
          <Node pos="r" depth="2" NCoef="0" IVar="10" Cut="7.6104205846786499e-01" cType="1" res="8.2460770499892533e-05" rms="5.7789009809494019e-01" purity="8.1696635484695435e-01" nType="0">
            <Node pos="l" depth="3" NCoef="0" IVar="-1" Cut="0.0000000000000000e+00" cType="1" res="1.4766212552785873e-02" rms="4.2855283617973328e-01" purity="7.4677395820617676e-01" nType="-99"/>
            <Node pos="r" depth="3" NCoef="0" IVar="-1" Cut="0.0000000000000000e+00" cType="1" res="4.3835211545228958e-02" rms="3.1604471802711487e-01" purity="8.8379150629043579e-01" nType="-99"/>
          </Node>
        </Node>
      </Node>
    </BinaryTree>
    <BinaryTree type="DecisionTree" boostWeight="1.0000000000000000e+00" itree="5">
      <Node pos="s" depth="0" NCoef="0" IVar="0" Cut="8.0000000000000000e+00" cType="1" res="-1.9726494327187538e-02" rms="4.7987619042396545e-01" purity="5.0000000000000000e-01" nType="0">
        <Node pos="l" depth="1" NCoef="0" IVar="10" Cut="7.7366983890533447e-01" cType="1" res="0.0000000000000000e+00" rms="2.0507979206740856e-03" purity="3.4149610996246338e-01" nType="0">
          <Node pos="l" depth="2" NCoef="0" IVar="0" Cut="7.0000000000000000e+00" cType="1" res="-2.5114664435386658e-01" rms="4.2188391089439392e-01" purity="2.3548318445682526e-01" nType="0">
            <Node pos="l" depth="3" NCoef="0" IVar="-1" Cut="0.0000000000000000e+00" cType="1" res="-7.7742310240864754e-03" rms="3.1657922267913818e-01" purity="1.1313815414905548e-01" nType="-99"/>
            <Node pos="r" depth="3" NCoef="0" IVar="-1" Cut="0.0000000000000000e+00" cType="1" res="-4.8372060991823673e-03" rms="4.6647974848747253e-01" purity="3.2460317015647888e-01" nType="-99"/>
          </Node>
          <Node pos="r" depth="2" NCoef="0" IVar="0" Cut="7.0000000000000000e+00" cType="1" res="5.5105753242969513e-02" rms="4.8944875597953796e-01" purity="5.6466931104660034e-01" nType="0">
            <Node pos="l" depth="3" NCoef="0" IVar="-1" Cut="0.0000000000000000e+00" cType="1" res="-4.8921685665845871e-03" rms="4.7961047291755676e-01" purity="3.5867127776145935e-01" nType="-99"/>
            <Node pos="r" depth="3" NCoef="0" IVar="-1" Cut="0.0000000000000000e+00" cType="1" res="1.3205054216086864e-02" rms="4.5781534910202026e-01" purity="7.0101022720336914e-01" nType="-99"/>
          </Node>
        </Node>
        <Node pos="r" depth="1" NCoef="0" IVar="10" Cut="5.8866149187088013e-01" cType="1" res="5.5476266425102949e-05" rms="5.5004459619522095e-01" purity="7.3230516910552979e-01" nType="0">
          <Node pos="l" depth="2" NCoef="0" IVar="7" Cut="8.0410522222518921e-01" cType="1" res="2.1889775234740227e-04" rms="3.7630105018615723e-01" purity="5.2832192182540894e-01" nType="0">
            <Node pos="l" depth="3" NCoef="0" IVar="-1" Cut="0.0000000000000000e+00" cType="1" res="2.4997605942189693e-03" rms="4.8984536528587341e-01" purity="5.7000404596328735e-01" nType="-99"/>
            <Node pos="r" depth="3" NCoef="0" IVar="-1" Cut="0.0000000000000000e+00" cType="1" res="-1.0807714425027370e-03" rms="4.9462738633155823e-01" purity="4.8623862862586975e-01" nType="-99"/>
          </Node>
          <Node pos="r" depth="2" NCoef="0" IVar="5" Cut="4.7853928804397583e-01" cType="1" res="1.2413699686400000e+11" rms="0.0000000000000000e+00" purity="8.0155086517333984e-01" nType="0">
            <Node pos="l" depth="3" NCoef="0" IVar="-1" Cut="0.0000000000000000e+00" cType="1" res="1.1778321117162704e-02" rms="4.5245429873466492e-01" purity="7.0276987552642822e-01" nType="-99"/>
            <Node pos="r" depth="3" NCoef="0" IVar="-1" Cut="0.0000000000000000e+00" cType="1" res="3.3916540443897247e-02" rms="3.2321107387542725e-01" purity="8.7707108259201050e-01" nType="-99"/>
          </Node>
        </Node>
      </Node>
    </BinaryTree>
    <BinaryTree type="DecisionTree" boostWeight="1.0000000000000000e+00" itree="6">
      <Node pos="s" depth="0" NCoef="0" IVar="0" Cut="8.0000000000000000e+00" cType="1" res="-2.2664126008749008e-02" rms="4.7686034440994263e-01" purity="5.0000000000000000e-01" nType="0">
        <Node pos="l" depth="1" NCoef="0" IVar="10" Cut="7.3753356933593750e-01" cType="1" res="0.0000000000000000e+00" rms="0.0000000000000000e+00" purity="3.4149610996246338e-01" nType="0">
          <Node pos="l" depth="2" NCoef="0" IVar="0" Cut="7.0000000000000000e+00" cType="1" res="-2.6606234908103943e-01" rms="4.0963777899742126e-01" purity="2.1460470557212830e-01" nType="0">
            <Node pos="l" depth="3" NCoef="0" IVar="-1" Cut="0.0000000000000000e+00" cType="1" res="-7.6878885738551617e-03" rms="3.0036658048629761e-01" purity="1.0027521848678589e-01" nType="-99"/>
            <Node pos="r" depth="3" NCoef="0" IVar="-1" Cut="0.0000000000000000e+00" cType="1" res="-5.1488126628100872e-03" rms="4.5770925283432007e-01" purity="2.9874828457832336e-01" nType="-99"/>
          </Node>
          <Node pos="r" depth="2" NCoef="0" IVar="0" Cut="7.0000000000000000e+00" cType="1" res="2.1111615002155304e-02" rms="4.9138477444648743e-01" purity="5.3247576951980591e-01" nType="0">
            <Node pos="l" depth="3" NCoef="0" IVar="-1" Cut="0.0000000000000000e+00" cType="1" res="-5.5190371349453926e-03" rms="4.7066691517829895e-01" purity="3.3144769072532654e-01" nType="-99"/>
            <Node pos="r" depth="3" NCoef="0" IVar="-1" Cut="0.0000000000000000e+00" cType="1" res="8.9981490746140480e-03" rms="4.7114250063896179e-01" purity="6.6591399908065796e-01" nType="-99"/>
          </Node>
        </Node>
        <Node pos="r" depth="1" NCoef="0" IVar="10" Cut="6.9618570804595947e-01" cType="1" res="0.0000000000000000e+00" rms="0.0000000000000000e+00" purity="7.3230516910552979e-01" nType="0">
          <Node pos="l" depth="2" NCoef="0" IVar="0" Cut="9.0000000000000000e+00" cType="1" res="7.5995735824108124e-02" rms="4.7795450687408447e-01" purity="6.1104005575180054e-01" nType="0">
            <Node pos="l" depth="3" NCoef="0" IVar="-1" Cut="0.0000000000000000e+00" cType="1" res="-8.1941462121903896e-04" rms="4.9295774102210999e-01" purity="5.0302988290786743e-01" nType="-99"/>
            <Node pos="r" depth="3" NCoef="0" IVar="-1" Cut="0.0000000000000000e+00" cType="1" res="1.9868997856974602e-02" rms="4.1872614622116089e-01" purity="7.6636660099029541e-01" nType="-99"/>
          </Node>
          <Node pos="r" depth="2" NCoef="0" IVar="0" Cut="9.0000000000000000e+00" cType="1" res="2.5414404273033142e-01" rms="3.4977716207504272e-01" purity="8.5093265771865845e-01" nType="0">
            <Node pos="l" depth="3" NCoef="0" IVar="-1" Cut="0.0000000000000000e+00" cType="1" res="2.1103549748659134e-02" rms="3.8467621803283691e-01" purity="8.1006026268005371e-01" nType="-99"/>
            <Node pos="r" depth="3" NCoef="0" IVar="-1" Cut="0.0000000000000000e+00" cType="1" res="5.3359769284725189e-02" rms="2.7002641558647156e-01" purity="9.1797697544097900e-01" nType="-99"/>
          </Node>
        </Node>
      </Node>
    </BinaryTree>
    <BinaryTree type="DecisionTree" boostWeight="1.0000000000000000e+00" itree="7">
      <Node pos="s" depth="0" NCoef="0" IVar="0" Cut="8.0000000000000000e+00" cType="1" res="-2.5936819612979889e-02" rms="4.7358435392379761e-01" purity="5.0000000000000000e-01" nType="0">
        <Node pos="l" depth="1" NCoef="0" IVar="10" Cut="7.0139724016189575e-01" cType="1" res="4.2057722566823941e-06" rms="5.8436948060989380e-01" purity="3.4149610996246338e-01" nType="0">
          <Node pos="l" depth="2" NCoef="0" IVar="0" Cut="7.0000000000000000e+00" cType="1" res="-2.8214222192764282e-01" rms="3.9551368355751038e-01" purity="1.9541269540786743e-01" nType="0">
            <Node pos="l" depth="3" NCoef="0" IVar="-1" Cut="0.0000000000000000e+00" cType="1" res="-7.6354295015335083e-03" rms="2.8624156117439270e-01" purity="9.0041756629943848e-02" nType="-99"/>
            <Node pos="r" depth="3" NCoef="0" IVar="-1" Cut="0.0000000000000000e+00" cType="1" res="-5.5074989795684814e-03" rms="4.4558170437812805e-01" purity="2.7315881848335266e-01" nType="-99"/>
          </Node>
          <Node pos="r" depth="2" NCoef="0" IVar="0" Cut="7.0000000000000000e+00" cType="1" res="-4.7478871420025826e-03" rms="4.9098581075668335e-01" purity="5.0252443552017212e-01" nType="0">
            <Node pos="l" depth="3" NCoef="0" IVar="-1" Cut="0.0000000000000000e+00" cType="1" res="-5.8853053487837315e-03" rms="4.5981955528259277e-01" purity="3.0457451939582825e-01" nType="-99"/>
            <Node pos="r" depth="3" NCoef="0" IVar="-1" Cut="0.0000000000000000e+00" cType="1" res="6.6796322353184223e-03" rms="4.7833052277565002e-01" purity="6.3575971126556396e-01" nType="-99"/>
          </Node>
        </Node>
        <Node pos="r" depth="1" NCoef="0" IVar="10" Cut="5.8866149187088013e-01" cType="1" res="0.0000000000000000e+00" rms="0.0000000000000000e+00" purity="7.3230516910552979e-01" nType="0">
          <Node pos="l" depth="2" NCoef="0" IVar="7" Cut="8.0410522222518921e-01" cType="1" res="1.8376763182258586e+18" rms="0.0000000000000000e+00" purity="5.2832192182540894e-01" nType="0">
            <Node pos="l" depth="3" NCoef="0" IVar="-1" Cut="0.0000000000000000e+00" cType="1" res="2.2727553732693195e-03" rms="4.8860174417495728e-01" purity="5.7000404596328735e-01" nType="-99"/>
            <Node pos="r" depth="3" NCoef="0" IVar="-1" Cut="0.0000000000000000e+00" cType="1" res="-1.2022249866276979e-03" rms="4.9340513348579407e-01" purity="4.8623862862586975e-01" nType="-99"/>
          </Node>
          <Node pos="r" depth="2" NCoef="0" IVar="18" Cut="1.0479838848114014e+00" cType="1" res="0.0000000000000000e+00" rms="0.0000000000000000e+00" purity="8.0155086517333984e-01" nType="0">
            <Node pos="l" depth="3" NCoef="0" IVar="-1" Cut="0.0000000000000000e+00" cType="1" res="4.7163832932710648e-03" rms="4.6024218201637268e-01" purity="6.6013944149017334e-01" nType="-99"/>
            <Node pos="r" depth="3" NCoef="0" IVar="-1" Cut="0.0000000000000000e+00" cType="1" res="2.4949450045824051e-02" rms="3.6259919404983521e-01" purity="8.3274328708648682e-01" nType="-99"/>
          </Node>
        </Node>
      </Node>
    </BinaryTree>
    <BinaryTree type="DecisionTree" boostWeight="1.0000000000000000e+00" itree="8">
      <Node pos="s" depth="0" NCoef="0" IVar="0" Cut="8.0000000000000000e+00" cType="1" res="-2.8265047818422318e-02" rms="4.7113603353500366e-01" purity="5.0000000000000000e-01" nType="0">
        <Node pos="l" depth="1" NCoef="0" IVar="10" Cut="7.7366983890533447e-01" cType="1" res="4.2057722566823941e-06" rms="2.0507937297224998e-03" purity="3.4149610996246338e-01" nType="0">
          <Node pos="l" depth="2" NCoef="0" IVar="0" Cut="7.0000000000000000e+00" cType="1" res="-2.4323906004428864e-01" rms="4.2073360085487366e-01" purity="2.3548318445682526e-01" nType="0">
            <Node pos="l" depth="3" NCoef="0" IVar="-1" Cut="0.0000000000000000e+00" cType="1" res="-7.5543550774455070e-03" rms="3.1649434566497803e-01" purity="1.1313815414905548e-01" nType="-99"/>
            <Node pos="r" depth="3" NCoef="0" IVar="-1" Cut="0.0000000000000000e+00" cType="1" res="-4.6820668503642082e-03" rms="4.6574690937995911e-01" purity="3.2460317015647888e-01" nType="-99"/>
          </Node>
          <Node pos="r" depth="2" NCoef="0" IVar="0" Cut="7.0000000000000000e+00" cType="1" res="4.9694482237100601e-02" rms="4.8623532056808472e-01" purity="5.6466931104660034e-01" nType="0">
            <Node pos="l" depth="3" NCoef="0" IVar="-1" Cut="0.0000000000000000e+00" cType="1" res="-4.5831459574401379e-03" rms="4.7961047291755676e-01" purity="3.5867127776145935e-01" nType="-99"/>
            <Node pos="r" depth="3" NCoef="0" IVar="-1" Cut="0.0000000000000000e+00" cType="1" res="1.2168169021606445e-02" rms="4.5781534910202026e-01" purity="7.0101022720336914e-01" nType="-99"/>
          </Node>
        </Node>
        <Node pos="r" depth="1" NCoef="0" IVar="10" Cut="7.3202705383300781e-01" cType="1" res="0.0000000000000000e+00" rms="0.0000000000000000e+00" purity="7.3230516910552979e-01" nType="0">
          <Node pos="l" depth="2" NCoef="0" IVar="0" Cut="9.0000000000000000e+00" cType="1" res="7.9219482839107513e-02" rms="4.6841293573379517e-01" purity="6.3375520706176758e-01" nType="0">
            <Node pos="l" depth="3" NCoef="0" IVar="-1" Cut="0.0000000000000000e+00" cType="1" res="-4.2483134893700480e-04" rms="4.8836320638656616e-01" purity="5.2939629554748535e-01" nType="-99"/>
            <Node pos="r" depth="3" NCoef="0" IVar="-1" Cut="0.0000000000000000e+00" cType="1" res="2.0003978163003922e-02" rms="4.0620964765548706e-01" purity="7.8216791152954102e-01" nType="-99"/>
          </Node>
          <Node pos="r" depth="2" NCoef="0" IVar="5" Cut="3.8392123579978943e-01" cType="1" res="1.3322244922164828e-04" rms="0.0000000000000000e+00" purity="8.7041628360748291e-01" nType="0">
            <Node pos="l" depth="3" NCoef="0" IVar="-1" Cut="0.0000000000000000e+00" cType="1" res="1.7601292580366135e-02" rms="4.1751518845558167e-01" purity="7.7112245559692383e-01" nType="-99"/>
            <Node pos="r" depth="3" NCoef="0" IVar="-1" Cut="0.0000000000000000e+00" cType="1" res="4.6018548309803009e-02" rms="2.7075809240341187e-01" purity="9.1841465234756470e-01" nType="-99"/>
          </Node>
        </Node>
      </Node>
    </BinaryTree>
    <BinaryTree type="DecisionTree" boostWeight="1.0000000000000000e+00" itree="9">
      <Node pos="s" depth="0" NCoef="0" IVar="0" Cut="7.0000000000000000e+00" cType="1" res="-3.1357247382402420e-02" rms="4.6808177232742310e-01" purity="5.0000000000000000e-01" nType="0">
        <Node pos="l" depth="1" NCoef="0" IVar="10" Cut="7.7880406379699707e-01" cType="1" res="1.0159448720514774e-05" rms="3.1873728148639202e-03" purity="1.8920958042144775e-01" nType="0">
          <Node pos="l" depth="2" NCoef="0" IVar="5" Cut="4.7783285379409790e-01" cType="1" res="1.4491133697447367e-05" rms="3.8066946435719728e-03" purity="1.1440749466419220e-01" nType="0">
            <Node pos="l" depth="3" NCoef="0" IVar="-1" Cut="0.0000000000000000e+00" cType="1" res="-8.3052376285195351e-03" rms="2.5337252020835876e-01" purity="6.9091014564037323e-02" nType="-99"/>
            <Node pos="r" depth="3" NCoef="0" IVar="-1" Cut="0.0000000000000000e+00" cType="1" res="-6.5564643591642380e-03" rms="3.6971867084503174e-01" purity="1.6377912461757660e-01" nType="-99"/>
          </Node>
          <Node pos="r" depth="2" NCoef="0" IVar="-1" Cut="0.0000000000000000e+00" cType="1" res="-4.3307477608323097e-03" rms="4.8133155703544617e-01" purity="3.6464893817901611e-01" nType="-99"/>
        </Node>
        <Node pos="r" depth="1" NCoef="0" IVar="10" Cut="7.0018136501312256e-01" cType="1" res="0.0000000000000000e+00" rms="0.0000000000000000e+00" purity="6.0144019126892090e-01" nType="0">
          <Node pos="l" depth="2" NCoef="0" IVar="0" Cut="8.0000000000000000e+00" cType="1" res="-6.0633335262537003e-02" rms="4.7983059287071228e-01" purity="4.5463129878044128e-01" nType="0">
            <Node pos="l" depth="3" NCoef="0" IVar="-1" Cut="0.0000000000000000e+00" cType="1" res="-5.3938087075948715e-03" rms="4.4524699449539185e-01" purity="2.7250251173973083e-01" nType="-99"/>
            <Node pos="r" depth="3" NCoef="0" IVar="-1" Cut="0.0000000000000000e+00" cType="1" res="3.4818558488041162e-03" rms="4.7397112846374512e-01" purity="6.1352336406707764e-01" nType="-99"/>
          </Node>
          <Node pos="r" depth="2" NCoef="0" IVar="5" Cut="2.8803402185440063e-01" cType="1" res="0.0000000000000000e+00" rms="0.0000000000000000e+00" purity="7.5280112028121948e-01" nType="0">
            <Node pos="l" depth="3" NCoef="0" IVar="-1" Cut="0.0000000000000000e+00" cType="1" res="9.2318205861374736e-04" rms="4.8224848508834839e-01" purity="5.7749825716018677e-01" nType="-99"/>
            <Node pos="r" depth="3" NCoef="0" IVar="-1" Cut="0.0000000000000000e+00" cType="1" res="2.1113319322466850e-02" rms="3.7629047036170959e-01" purity="8.1331759691238403e-01" nType="-99"/>
          </Node>
        </Node>
      </Node>
    </BinaryTree>
    <BinaryTree type="DecisionTree" boostWeight="1.0000000000000000e+00" itree="10">
      <Node pos="s" depth="0" NCoef="0" IVar="0" Cut="8.0000000000000000e+00" cType="1" res="-3.3209051936864853e-02" rms="4.6596360206604004e-01" purity="5.0000000000000000e-01" nType="0">
        <Node pos="l" depth="1" NCoef="0" IVar="10" Cut="7.7366983890533447e-01" cType="1" res="4.2057722566823941e-06" rms="2.0507937297224998e-03" purity="3.4149610996246338e-01" nType="0">
          <Node pos="l" depth="2" NCoef="0" IVar="0" Cut="7.0000000000000000e+00" cType="1" res="-2.3854833841323853e-01" rms="4.1951817274093628e-01" purity="2.3548318445682526e-01" nType="0">
            <Node pos="l" depth="3" NCoef="0" IVar="-1" Cut="0.0000000000000000e+00" cType="1" res="-7.4112475849688053e-03" rms="3.1643131375312805e-01" purity="1.1313815414905548e-01" nType="-99"/>
            <Node pos="r" depth="3" NCoef="0" IVar="-1" Cut="0.0000000000000000e+00" cType="1" res="-4.6086837537586689e-03" rms="4.6472206711769104e-01" purity="3.2460317015647888e-01" nType="-99"/>
          </Node>
          <Node pos="r" depth="2" NCoef="0" IVar="0" Cut="7.0000000000000000e+00" cType="1" res="4.3166577816009521e-02" rms="4.8313510417938232e-01" purity="5.6466931104660034e-01" nType="0">
            <Node pos="l" depth="3" NCoef="0" IVar="-1" Cut="0.0000000000000000e+00" cType="1" res="-4.4128987938165665e-03" rms="4.7958829998970032e-01" purity="3.5867127776145935e-01" nType="-99"/>
            <Node pos="r" depth="3" NCoef="0" IVar="-1" Cut="0.0000000000000000e+00" cType="1" res="1.1177573353052139e-02" rms="4.5668178796768188e-01" purity="7.0101022720336914e-01" nType="-99"/>
          </Node>
        </Node>
        <Node pos="r" depth="1" NCoef="0" IVar="5" Cut="5.7282078266143799e-01" cType="1" res="0.0000000000000000e+00" rms="0.0000000000000000e+00" purity="7.3230516910552979e-01" nType="0">
          <Node pos="l" depth="2" NCoef="0" IVar="10" Cut="6.5922665596008301e-01" cType="1" res="1.0107755224453285e-04" rms="0.0000000000000000e+00" purity="6.4108997583389282e-01" nType="0">
            <Node pos="l" depth="3" NCoef="0" IVar="-1" Cut="0.0000000000000000e+00" cType="1" res="-2.3119915276765823e-03" rms="4.8964765667915344e-01" purity="4.7818985581398010e-01" nType="-99"/>
            <Node pos="r" depth="3" NCoef="0" IVar="-1" Cut="0.0000000000000000e+00" cType="1" res="1.3759207911789417e-02" rms="4.1875809431076050e-01" purity="7.6106959581375122e-01" nType="-99"/>
          </Node>
          <Node pos="r" depth="2" NCoef="0" IVar="9" Cut="4.5498229563236237e-02" cType="1" res="1.2296593922656029e-04" rms="5.9164434671401978e-01" purity="8.4327310323715210e-01" nType="0">
            <Node pos="l" depth="3" NCoef="0" IVar="-1" Cut="0.0000000000000000e+00" cType="1" res="1.1980981566011906e-02" rms="4.2356154322624207e-01" purity="7.3626631498336792e-01" nType="-99"/>
            <Node pos="r" depth="3" NCoef="0" IVar="-1" Cut="0.0000000000000000e+00" cType="1" res="3.0752588063478470e-02" rms="2.9787585139274597e-01" purity="8.9515906572341919e-01" nType="-99"/>
          </Node>
        </Node>
      </Node>
    </BinaryTree>
    <BinaryTree type="DecisionTree" boostWeight="1.0000000000000000e+00" itree="11">
      <Node pos="s" depth="0" NCoef="0" IVar="0" Cut="7.0000000000000000e+00" cType="1" res="-3.5286836326122284e-02" rms="4.6364060044288635e-01" purity="5.0000000000000000e-01" nType="0">
        <Node pos="l" depth="1" NCoef="0" IVar="10" Cut="7.7880406379699707e-01" cType="1" res="1.0159448720514774e-05" rms="0.0000000000000000e+00" purity="1.8920958042144775e-01" nType="0">
          <Node pos="l" depth="2" NCoef="0" IVar="5" Cut="4.7783285379409790e-01" cType="1" res="0.0000000000000000e+00" rms="0.0000000000000000e+00" purity="1.1440749466419220e-01" nType="0">
            <Node pos="l" depth="3" NCoef="0" IVar="-1" Cut="0.0000000000000000e+00" cType="1" res="-8.1617934629321098e-03" rms="2.5337085127830505e-01" purity="6.9091014564037323e-02" nType="-99"/>
            <Node pos="r" depth="3" NCoef="0" IVar="-1" Cut="0.0000000000000000e+00" cType="1" res="-6.4197857864201069e-03" rms="3.6971145868301392e-01" purity="1.6377912461757660e-01" nType="-99"/>
          </Node>
          <Node pos="r" depth="2" NCoef="0" IVar="-1" Cut="0.0000000000000000e+00" cType="1" res="-4.1632922366261482e-03" rms="4.8133158683776855e-01" purity="3.6464893817901611e-01" nType="-99"/>
        </Node>
        <Node pos="r" depth="1" NCoef="0" IVar="10" Cut="6.6403257846832275e-01" cType="1" res="0.0000000000000000e+00" rms="0.0000000000000000e+00" purity="6.0144019126892090e-01" nType="0">
          <Node pos="l" depth="2" NCoef="0" IVar="0" Cut="9.0000000000000000e+00" cType="1" res="-8.0930680036544800e-02" rms="4.7653871774673462e-01" purity="4.2964345216751099e-01" nType="0">
            <Node pos="l" depth="3" NCoef="0" IVar="-1" Cut="0.0000000000000000e+00" cType="1" res="-4.4723753817379475e-03" rms="4.6567896008491516e-01" purity="3.4186688065528870e-01" nType="-99"/>
            <Node pos="r" depth="3" NCoef="0" IVar="-1" Cut="0.0000000000000000e+00" cType="1" res="1.6108429059386253e-02" rms="4.2696371674537659e-01" purity="7.5088280439376831e-01" nType="-99"/>
          </Node>
          <Node pos="r" depth="2" NCoef="0" IVar="18" Cut="8.0741643905639648e-01" cType="1" res="0.0000000000000000e+00" rms="0.0000000000000000e+00" purity="7.2799146175384521e-01" nType="0">
            <Node pos="l" depth="3" NCoef="0" IVar="-1" Cut="0.0000000000000000e+00" cType="1" res="-5.2554840222001076e-03" rms="4.7611665725708008e-01" purity="4.7860473394393921e-01" nType="-99"/>
            <Node pos="r" depth="3" NCoef="0" IVar="-1" Cut="0.0000000000000000e+00" cType="1" res="1.3456884771585464e-02" rms="4.0584036707878113e-01" purity="7.6259177923202515e-01" nType="-99"/>
          </Node>
        </Node>
      </Node>
    </BinaryTree>
    <BinaryTree type="DecisionTree" boostWeight="1.0000000000000000e+00" itree="12">
      <Node pos="s" depth="0" NCoef="0" IVar="0" Cut="7.0000000000000000e+00" cType="1" res="-3.6763768643140793e-02" rms="4.6178913116455078e-01" purity="5.0000000000000000e-01" nType="0">
        <Node pos="l" depth="1" NCoef="0" IVar="10" Cut="8.1408464908599854e-01" cType="1" res="0.0000000000000000e+00" rms="0.0000000000000000e+00" purity="1.8920958042144775e-01" nType="0">
          <Node pos="l" depth="2" NCoef="0" IVar="10" Cut="6.7968201637268066e-01" cType="1" res="0.0000000000000000e+00" rms="0.0000000000000000e+00" purity="1.2711156904697418e-01" nType="0">
            <Node pos="l" depth="3" NCoef="0" IVar="-1" Cut="0.0000000000000000e+00" cType="1" res="-7.3073399253189564e-03" rms="2.7906185388565063e-01" purity="8.5196606814861298e-02" nType="-99"/>
            <Node pos="r" depth="3" NCoef="0" IVar="-1" Cut="0.0000000000000000e+00" cType="1" res="-7.1034780703485012e-03" rms="3.9954578876495361e-01" purity="2.0026065409183502e-01" nType="-99"/>
          </Node>
          <Node pos="r" depth="2" NCoef="0" IVar="-1" Cut="0.0000000000000000e+00" cType="1" res="-3.0074492096900940e-03" rms="4.8929810523986816e-01" purity="3.9710509777069092e-01" nType="-99"/>
        </Node>
        <Node pos="r" depth="1" NCoef="0" IVar="10" Cut="7.0018136501312256e-01" cType="1" res="0.0000000000000000e+00" rms="0.0000000000000000e+00" purity="6.0144019126892090e-01" nType="0">
          <Node pos="l" depth="2" NCoef="0" IVar="0" Cut="8.0000000000000000e+00" cType="1" res="-6.2583878636360168e-02" rms="4.7625732421875000e-01" purity="4.5463129878044128e-01" nType="0">
            <Node pos="l" depth="3" NCoef="0" IVar="-1" Cut="0.0000000000000000e+00" cType="1" res="-5.2410038188099861e-03" rms="4.4484582543373108e-01" purity="2.7250251173973083e-01" nType="-99"/>
            <Node pos="r" depth="3" NCoef="0" IVar="-1" Cut="0.0000000000000000e+00" cType="1" res="3.0093772802501917e-03" rms="4.7138258814811707e-01" purity="6.1352336406707764e-01" nType="-99"/>
          </Node>
          <Node pos="r" depth="2" NCoef="0" IVar="5" Cut="2.8803402185440063e-01" cType="1" res="0.0000000000000000e+00" rms="0.0000000000000000e+00" purity="7.5280112028121948e-01" nType="0">
            <Node pos="l" depth="3" NCoef="0" IVar="-1" Cut="0.0000000000000000e+00" cType="1" res="3.2788218231871724e-04" rms="4.8089751601219177e-01" purity="5.7749825716018677e-01" nType="-99"/>
            <Node pos="r" depth="3" NCoef="0" IVar="-1" Cut="0.0000000000000000e+00" cType="1" res="1.9255470484495163e-02" rms="3.7515309453010559e-01" purity="8.1331759691238403e-01" nType="-99"/>
          </Node>
        </Node>
      </Node>
    </BinaryTree>
    <BinaryTree type="DecisionTree" boostWeight="1.0000000000000000e+00" itree="13">
      <Node pos="s" depth="0" NCoef="0" IVar="0" Cut="8.0000000000000000e+00" cType="1" res="-3.8290292024612427e-02" rms="4.5996016263961792e-01" purity="5.0000000000000000e-01" nType="0">
        <Node pos="l" depth="1" NCoef="0" IVar="10" Cut="7.7366983890533447e-01" cType="1" res="3.4145823121070862e-01" rms="4.7422984242439270e-01" purity="3.4149610996246338e-01" nType="0">
          <Node pos="l" depth="2" NCoef="0" IVar="0" Cut="7.0000000000000000e+00" cType="1" res="-2.3262758553028107e-01" rms="4.1740721464157104e-01" purity="2.3548318445682526e-01" nType="0">
            <Node pos="l" depth="3" NCoef="0" IVar="-1" Cut="0.0000000000000000e+00" cType="1" res="-7.2071864269673824e-03" rms="3.1636390089988708e-01" purity="1.1313815414905548e-01" nType="-99"/>
            <Node pos="r" depth="3" NCoef="0" IVar="-1" Cut="0.0000000000000000e+00" cType="1" res="-4.5488714240491390e-03" rms="4.6292233467102051e-01" purity="3.2460317015647888e-01" nType="-99"/>
          </Node>
          <Node pos="r" depth="2" NCoef="0" IVar="5" Cut="4.7728243470191956e-01" cType="1" res="5.6461709737777710e-01" rms="4.9583339691162109e-01" purity="5.6466931104660034e-01" nType="0">
            <Node pos="l" depth="3" NCoef="0" IVar="-1" Cut="0.0000000000000000e+00" cType="1" res="-4.4734859839081764e-03" rms="4.7875532507896423e-01" purity="4.2378693819046021e-01" nType="-99"/>
            <Node pos="r" depth="3" NCoef="0" IVar="-1" Cut="0.0000000000000000e+00" cType="1" res="9.7326748073101044e-03" rms="4.5028549432754517e-01" purity="6.8246376514434814e-01" nType="-99"/>
          </Node>
        </Node>
        <Node pos="r" depth="1" NCoef="0" IVar="5" Cut="5.7282078266143799e-01" cType="1" res="0.0000000000000000e+00" rms="0.0000000000000000e+00" purity="7.3230516910552979e-01" nType="0">
          <Node pos="l" depth="2" NCoef="0" IVar="10" Cut="6.2347841262817383e-01" cType="1" res="0.0000000000000000e+00" rms="0.0000000000000000e+00" purity="6.4108997583389282e-01" nType="0">
            <Node pos="l" depth="3" NCoef="0" IVar="-1" Cut="0.0000000000000000e+00" cType="1" res="-3.1488216482102871e-03" rms="4.8751822113990784e-01" purity="4.4752615690231323e-01" nType="-99"/>
            <Node pos="r" depth="3" NCoef="0" IVar="-1" Cut="0.0000000000000000e+00" cType="1" res="1.0670186951756477e-02" rms="4.2766565084457397e-01" purity="7.4116969108581543e-01" nType="-99"/>
          </Node>
          <Node pos="r" depth="2" NCoef="0" IVar="9" Cut="4.5498229563236237e-02" cType="1" res="0.0000000000000000e+00" rms="0.0000000000000000e+00" purity="8.4327310323715210e-01" nType="0">
            <Node pos="l" depth="3" NCoef="0" IVar="-1" Cut="0.0000000000000000e+00" cType="1" res="1.1077119968831539e-02" rms="4.2236775159835815e-01" purity="7.3626631498336792e-01" nType="-99"/>
            <Node pos="r" depth="3" NCoef="0" IVar="-1" Cut="0.0000000000000000e+00" cType="1" res="2.8645759448409081e-02" rms="2.9747065901756287e-01" purity="8.9515906572341919e-01" nType="-99"/>
          </Node>
        </Node>
      </Node>
    </BinaryTree>
    <BinaryTree type="DecisionTree" boostWeight="1.0000000000000000e+00" itree="14">
      <Node pos="s" depth="0" NCoef="0" IVar="0" Cut="7.0000000000000000e+00" cType="1" res="-3.9920900017023087e-02" rms="4.5796132087707520e-01" purity="5.0000000000000000e-01" nType="0">
        <Node pos="l" depth="1" NCoef="0" IVar="10" Cut="8.1408464908599854e-01" cType="1" res="1.8911814689636230e-01" rms="3.9171916246414185e-01" purity="1.8920958042144775e-01" nType="0">
          <Node pos="l" depth="2" NCoef="0" IVar="10" Cut="6.7968201637268066e-01" cType="1" res="1.2701919674873352e-01" rms="3.3309352397918701e-01" purity="1.2711156904697418e-01" nType="0">
            <Node pos="l" depth="3" NCoef="0" IVar="-1" Cut="0.0000000000000000e+00" cType="1" res="-7.1856472641229630e-03" rms="2.7906215190887451e-01" purity="8.5196606814861298e-02" nType="-99"/>
            <Node pos="r" depth="3" NCoef="0" IVar="-1" Cut="0.0000000000000000e+00" cType="1" res="-6.9610574282705784e-03" rms="3.9917778968811035e-01" purity="2.0026065409183502e-01" nType="-99"/>
          </Node>
          <Node pos="r" depth="2" NCoef="0" IVar="-1" Cut="0.0000000000000000e+00" cType="1" res="-3.0035178642719984e-03" rms="4.8840558528900146e-01" purity="3.9710509777069092e-01" nType="-99"/>
        </Node>
        <Node pos="r" depth="1" NCoef="0" IVar="10" Cut="6.2788385152816772e-01" cType="1" res="0.0000000000000000e+00" rms="0.0000000000000000e+00" purity="6.0144019126892090e-01" nType="0">
          <Node pos="l" depth="2" NCoef="0" IVar="0" Cut="9.0000000000000000e+00" cType="1" res="-1.0290545970201492e-01" rms="4.7095394134521484e-01" purity="4.0196755528450012e-01" nType="0">
            <Node pos="l" depth="3" NCoef="0" IVar="-1" Cut="0.0000000000000000e+00" cType="1" res="-4.7374847345054150e-03" rms="4.5681369304656982e-01" purity="3.1605875492095947e-01" nType="-99"/>
            <Node pos="r" depth="3" NCoef="0" IVar="-1" Cut="0.0000000000000000e+00" cType="1" res="1.2873598374426365e-02" rms="4.3950062990188599e-01" purity="7.2868847846984863e-01" nType="-99"/>
          </Node>
          <Node pos="r" depth="2" NCoef="0" IVar="5" Cut="3.3536407351493835e-01" cType="1" res="0.0000000000000000e+00" rms="0.0000000000000000e+00" purity="7.0698118209838867e-01" nType="0">
            <Node pos="l" depth="3" NCoef="0" IVar="-1" Cut="0.0000000000000000e+00" cType="1" res="-1.1835957411676645e-03" rms="4.7875526547431946e-01" purity="5.3862106800079346e-01" nType="-99"/>
            <Node pos="r" depth="3" NCoef="0" IVar="-1" Cut="0.0000000000000000e+00" cType="1" res="1.4301231130957603e-02" rms="3.9172554016113281e-01" purity="7.8248685598373413e-01" nType="-99"/>
          </Node>
        </Node>
      </Node>
    </BinaryTree>
    <BinaryTree type="DecisionTree" boostWeight="1.0000000000000000e+00" itree="15">
      <Node pos="s" depth="0" NCoef="0" IVar="0" Cut="7.0000000000000000e+00" cType="1" res="-4.1158653795719147e-02" rms="4.5632633566856384e-01" purity="5.0000000000000000e-01" nType="0">
        <Node pos="l" depth="1" NCoef="0" IVar="10" Cut="8.1408464908599854e-01" cType="1" res="0.0000000000000000e+00" rms="0.0000000000000000e+00" purity="1.8920958042144775e-01" nType="0">
          <Node pos="l" depth="2" NCoef="0" IVar="10" Cut="6.7968201637268066e-01" cType="1" res="1.3194058738008607e-05" rms="3.6323387175798416e-03" purity="1.2711156904697418e-01" nType="0">
            <Node pos="l" depth="3" NCoef="0" IVar="-1" Cut="0.0000000000000000e+00" cType="1" res="-7.1263774298131466e-03" rms="2.7906233072280884e-01" purity="8.5196606814861298e-02" nType="-99"/>
            <Node pos="r" depth="3" NCoef="0" IVar="-1" Cut="0.0000000000000000e+00" cType="1" res="-6.8758060224354267e-03" rms="3.9917895197868347e-01" purity="2.0026065409183502e-01" nType="-99"/>
          </Node>
          <Node pos="r" depth="2" NCoef="0" IVar="-1" Cut="0.0000000000000000e+00" cType="1" res="-2.9415190219879150e-03" rms="4.8840591311454773e-01" purity="3.9710509777069092e-01" nType="-99"/>
        </Node>
        <Node pos="r" depth="1" NCoef="0" IVar="10" Cut="6.2788385152816772e-01" cType="1" res="0.0000000000000000e+00" rms="0.0000000000000000e+00" purity="6.0144019126892090e-01" nType="0">
          <Node pos="l" depth="2" NCoef="0" IVar="0" Cut="8.0000000000000000e+00" cType="1" res="-1.0233605653047562e-01" rms="4.7002235054969788e-01" purity="4.0196755528450012e-01" nType="0">
            <Node pos="l" depth="3" NCoef="0" IVar="-1" Cut="0.0000000000000000e+00" cType="1" res="-5.6671770289540291e-03" rms="4.2065200209617615e-01" purity="2.2971886396408081e-01" nType="-99"/>
            <Node pos="r" depth="3" NCoef="0" IVar="-1" Cut="0.0000000000000000e+00" cType="1" res="8.4645632887259126e-04" rms="4.8122885823249817e-01" purity="5.6112396717071533e-01" nType="-99"/>
          </Node>
          <Node pos="r" depth="2" NCoef="0" IVar="18" Cut="8.1341612339019775e-01" cType="1" res="7.4622238720000000e+10" rms="0.0000000000000000e+00" purity="7.0698118209838867e-01" nType="0">
            <Node pos="l" depth="3" NCoef="0" IVar="-1" Cut="0.0000000000000000e+00" cType="1" res="-6.2759751453995705e-03" rms="4.7011315822601318e-01" purity="4.5639774203300476e-01" nType="-99"/>
            <Node pos="r" depth="3" NCoef="0" IVar="-1" Cut="0.0000000000000000e+00" cType="1" res="1.0278520174324512e-02" rms="4.1243779659271240e-01" purity="7.4263566732406616e-01" nType="-99"/>
          </Node>
        </Node>
      </Node>
    </BinaryTree>
    <BinaryTree type="DecisionTree" boostWeight="1.0000000000000000e+00" itree="16">
      <Node pos="s" depth="0" NCoef="0" IVar="0" Cut="8.0000000000000000e+00" cType="1" res="-4.1990812867879868e-02" rms="4.5498150587081909e-01" purity="5.0000000000000000e-01" nType="0">
        <Node pos="l" depth="1" NCoef="0" IVar="10" Cut="7.7366983890533447e-01" cType="1" res="4.2057722566823941e-06" rms="0.0000000000000000e+00" purity="3.4149610996246338e-01" nType="0">
          <Node pos="l" depth="2" NCoef="0" IVar="0" Cut="7.0000000000000000e+00" cType="1" res="-2.2743347287178040e-01" rms="4.1518694162368774e-01" purity="2.3548318445682526e-01" nType="0">
            <Node pos="l" depth="3" NCoef="0" IVar="-1" Cut="0.0000000000000000e+00" cType="1" res="-7.0145321078598499e-03" rms="3.1635141372680664e-01" purity="1.1313815414905548e-01" nType="-99"/>
            <Node pos="r" depth="3" NCoef="0" IVar="-1" Cut="0.0000000000000000e+00" cType="1" res="-4.5181922614574432e-03" rms="4.6097081899642944e-01" purity="3.2460317015647888e-01" nType="-99"/>
          </Node>
          <Node pos="r" depth="2" NCoef="0" IVar="5" Cut="4.7728243470191956e-01" cType="1" res="0.0000000000000000e+00" rms="3.6138014402240515e-03" purity="5.6466931104660034e-01" nType="0">
            <Node pos="l" depth="3" NCoef="0" IVar="-1" Cut="0.0000000000000000e+00" cType="1" res="-4.4360011816024780e-03" rms="4.7691589593887329e-01" purity="4.2378693819046021e-01" nType="-99"/>
            <Node pos="r" depth="3" NCoef="0" IVar="-1" Cut="0.0000000000000000e+00" cType="1" res="9.0882815420627594e-03" rms="4.4834277033805847e-01" purity="6.8246376514434814e-01" nType="-99"/>
          </Node>
        </Node>
        <Node pos="r" depth="1" NCoef="0" IVar="0" Cut="9.0000000000000000e+00" cType="1" res="1.0839377343654633e-01" rms="4.1596972942352295e-01" purity="7.3230516910552979e-01" nType="0">
          <Node pos="l" depth="2" NCoef="0" IVar="10" Cut="7.3202705383300781e-01" cType="1" res="1.0176323485211469e-05" rms="0.0000000000000000e+00" purity="6.6221404075622559e-01" nType="0">
            <Node pos="l" depth="3" NCoef="0" IVar="-1" Cut="0.0000000000000000e+00" cType="1" res="-1.1511982884258032e-03" rms="4.8345497250556946e-01" purity="5.2939629554748535e-01" nType="-99"/>
            <Node pos="r" depth="3" NCoef="0" IVar="-1" Cut="0.0000000000000000e+00" cType="1" res="1.9101673737168312e-02" rms="3.5962492227554321e-01" purity="8.3520239591598511e-01" nType="-99"/>
          </Node>
          <Node pos="r" depth="2" NCoef="0" IVar="0" Cut="1.0000000000000000e+01" cType="1" res="1.9379274547100067e-01" rms="3.5344415903091431e-01" purity="8.3998525142669678e-01" nType="0">
            <Node pos="l" depth="3" NCoef="0" IVar="-1" Cut="0.0000000000000000e+00" cType="1" res="1.8268043175339699e-02" rms="3.7548887729644775e-01" purity="8.1132662296295166e-01" nType="-99"/>
            <Node pos="r" depth="3" NCoef="0" IVar="-1" Cut="0.0000000000000000e+00" cType="1" res="4.1411735117435455e-02" rms="2.9752686619758606e-01" purity="8.9532953500747681e-01" nType="-99"/>
          </Node>
        </Node>
      </Node>
    </BinaryTree>
    <BinaryTree type="DecisionTree" boostWeight="1.0000000000000000e+00" itree="17">
      <Node pos="s" depth="0" NCoef="0" IVar="0" Cut="7.0000000000000000e+00" cType="1" res="-4.3817065656185150e-02" rms="4.5291733741760254e-01" purity="5.0000000000000000e-01" nType="0">
        <Node pos="l" depth="1" NCoef="0" IVar="10" Cut="8.1408464908599854e-01" cType="1" res="1.0159448720514774e-05" rms="3.1873728148639202e-03" purity="1.8920958042144775e-01" nType="0">
          <Node pos="l" depth="2" NCoef="0" IVar="5" Cut="5.2525603771209717e-01" cType="1" res="1.3194058738008607e-05" rms="0.0000000000000000e+00" purity="1.2711156904697418e-01" nType="0">
            <Node pos="l" depth="3" NCoef="0" IVar="-1" Cut="0.0000000000000000e+00" cType="1" res="-7.6495362445712090e-03" rms="2.7551758289337158e-01" purity="8.3298429846763611e-02" nType="-99"/>
            <Node pos="r" depth="3" NCoef="0" IVar="-1" Cut="0.0000000000000000e+00" cType="1" res="-5.8158203028142452e-03" rms="3.9101731777191162e-01" purity="1.9033074378967285e-01" nType="-99"/>
          </Node>
          <Node pos="r" depth="2" NCoef="0" IVar="-1" Cut="0.0000000000000000e+00" cType="1" res="-2.9329184908419847e-03" rms="4.8757910728454590e-01" purity="3.9710509777069092e-01" nType="-99"/>
        </Node>
        <Node pos="r" depth="1" NCoef="0" IVar="10" Cut="7.0018136501312256e-01" cType="1" res="0.0000000000000000e+00" rms="0.0000000000000000e+00" purity="6.0144019126892090e-01" nType="0">
          <Node pos="l" depth="2" NCoef="0" IVar="0" Cut="8.0000000000000000e+00" cType="1" res="-6.6572763025760651e-02" rms="4.7056424617767334e-01" purity="4.5463129878044128e-01" nType="0">
            <Node pos="l" depth="3" NCoef="0" IVar="-1" Cut="0.0000000000000000e+00" cType="1" res="-5.0332257524132729e-03" rms="4.4352331757545471e-01" purity="2.7250251173973083e-01" nType="-99"/>
            <Node pos="r" depth="3" NCoef="0" IVar="-1" Cut="0.0000000000000000e+00" cType="1" res="2.2225838620215654e-03" rms="4.6727743744850159e-01" purity="6.1352336406707764e-01" nType="-99"/>
          </Node>
          <Node pos="r" depth="2" NCoef="0" IVar="18" Cut="1.0280299186706543e+00" cType="1" res="0.0000000000000000e+00" rms="0.0000000000000000e+00" purity="7.5280112028121948e-01" nType="0">
            <Node pos="l" depth="3" NCoef="0" IVar="-1" Cut="0.0000000000000000e+00" cType="1" res="-2.3041709791868925e-03" rms="4.6793895959854126e-01" purity="5.7571530342102051e-01" nType="-99"/>
            <Node pos="r" depth="3" NCoef="0" IVar="-1" Cut="0.0000000000000000e+00" cType="1" res="1.4691227115690708e-02" rms="3.8529253005981445e-01" purity="7.9411602020263672e-01" nType="-99"/>
          </Node>
        </Node>
      </Node>
    </BinaryTree>
    <BinaryTree type="DecisionTree" boostWeight="1.0000000000000000e+00" itree="18">
      <Node pos="s" depth="0" NCoef="0" IVar="0" Cut="7.0000000000000000e+00" cType="1" res="-4.4776428490877151e-02" rms="4.5149707794189453e-01" purity="5.0000000000000000e-01" nType="0">
        <Node pos="l" depth="1" NCoef="0" IVar="10" Cut="8.1408464908599854e-01" cType="1" res="1.0159448720514774e-05" rms="3.1873728148639202e-03" purity="1.8920958042144775e-01" nType="0">
          <Node pos="l" depth="2" NCoef="0" IVar="10" Cut="6.7968201637268066e-01" cType="1" res="1.3194058738008607e-05" rms="0.0000000000000000e+00" purity="1.2711156904697418e-01" nType="0">
            <Node pos="l" depth="3" NCoef="0" IVar="-1" Cut="0.0000000000000000e+00" cType="1" res="-6.9565996527671814e-03" rms="2.7900537848472595e-01" purity="8.5196606814861298e-02" nType="-99"/>
            <Node pos="r" depth="3" NCoef="0" IVar="-1" Cut="0.0000000000000000e+00" cType="1" res="-6.6565414890646935e-03" rms="3.9875927567481995e-01" purity="2.0026065409183502e-01" nType="-99"/>
          </Node>
          <Node pos="r" depth="2" NCoef="0" IVar="-1" Cut="0.0000000000000000e+00" cType="1" res="-2.8724148869514465e-03" rms="4.8757979273796082e-01" purity="3.9710509777069092e-01" nType="-99"/>
        </Node>
        <Node pos="r" depth="1" NCoef="0" IVar="5" Cut="3.8280320167541504e-01" cType="1" res="0.0000000000000000e+00" rms="2.2091042187500000e+05" purity="6.0144019126892090e-01" nType="0">
          <Node pos="l" depth="2" NCoef="0" IVar="10" Cut="7.0172250270843506e-01" cType="1" res="0.0000000000000000e+00" rms="0.0000000000000000e+00" purity="4.4669994711875916e-01" nType="0">
            <Node pos="l" depth="3" NCoef="0" IVar="-1" Cut="0.0000000000000000e+00" cType="1" res="-5.9789512306451797e-03" rms="4.4052278995513916e-01" purity="3.0766519904136658e-01" nType="-99"/>
            <Node pos="r" depth="3" NCoef="0" IVar="-1" Cut="0.0000000000000000e+00" cType="1" res="1.1578683042898774e-03" rms="4.7043848037719727e-01" purity="6.1161816120147705e-01" nType="-99"/>
          </Node>
          <Node pos="r" depth="2" NCoef="0" IVar="10" Cut="5.5558633804321289e-01" cType="1" res="0.0000000000000000e+00" rms="0.0000000000000000e+00" purity="6.9098353385925293e-01" nType="0">
            <Node pos="l" depth="3" NCoef="0" IVar="-1" Cut="0.0000000000000000e+00" cType="1" res="-2.3533117491751909e-03" rms="4.7420129179954529e-01" purity="4.2892733216285706e-01" nType="-99"/>
            <Node pos="r" depth="3" NCoef="0" IVar="-1" Cut="0.0000000000000000e+00" cType="1" res="1.0596589185297489e-02" rms="4.0111631155014038e-01" purity="7.5639063119888306e-01" nType="-99"/>
          </Node>
        </Node>
      </Node>
    </BinaryTree>
    <BinaryTree type="DecisionTree" boostWeight="1.0000000000000000e+00" itree="19">
      <Node pos="s" depth="0" NCoef="0" IVar="0" Cut="8.0000000000000000e+00" cType="1" res="-4.5403584837913513e-02" rms="4.5026233792304993e-01" purity="5.0000000000000000e-01" nType="0">
        <Node pos="l" depth="1" NCoef="0" IVar="10" Cut="7.7366983890533447e-01" cType="1" res="4.2057722566823941e-06" rms="0.0000000000000000e+00" purity="3.4149610996246338e-01" nType="0">
          <Node pos="l" depth="2" NCoef="0" IVar="5" Cut="7.1487569808959961e-01" cType="1" res="6.2036197050474584e-06" rms="2.4906990583986044e-03" purity="2.3548318445682526e-01" nType="0">
            <Node pos="l" depth="3" NCoef="0" IVar="-1" Cut="0.0000000000000000e+00" cType="1" res="-6.5135802142322063e-03" rms="3.7933236360549927e-01" purity="1.8570688366889954e-01" nType="-99"/>
            <Node pos="r" depth="3" NCoef="0" IVar="-1" Cut="0.0000000000000000e+00" cType="1" res="-2.4140202440321445e-03" rms="4.7410556674003601e-01" purity="3.8466778397560120e-01" nType="-99"/>
          </Node>
          <Node pos="r" depth="2" NCoef="0" IVar="5" Cut="5.2474439144134521e-01" cType="1" res="1.3059560842521023e-05" rms="3.6137779243290424e-03" purity="5.6466931104660034e-01" nType="0">
            <Node pos="l" depth="3" NCoef="0" IVar="-1" Cut="0.0000000000000000e+00" cType="1" res="-3.9173001423478127e-03" rms="4.7624215483665466e-01" purity="4.3836051225662231e-01" nType="-99"/>
            <Node pos="r" depth="3" NCoef="0" IVar="-1" Cut="0.0000000000000000e+00" cType="1" res="9.5920022577047348e-03" rms="4.4187927246093750e-01" purity="6.9601154327392578e-01" nType="-99"/>
          </Node>
        </Node>
        <Node pos="r" depth="1" NCoef="0" IVar="5" Cut="6.2021863460540771e-01" cType="1" res="0.0000000000000000e+00" rms="0.0000000000000000e+00" purity="7.3230516910552979e-01" nType="0">
          <Node pos="l" depth="2" NCoef="0" IVar="10" Cut="7.3072314262390137e-01" cType="1" res="0.0000000000000000e+00" rms="0.0000000000000000e+00" purity="6.5235418081283569e-01" nType="0">
            <Node pos="l" depth="3" NCoef="0" IVar="-1" Cut="0.0000000000000000e+00" cType="1" res="-1.2697243364527822e-03" rms="4.7921848297119141e-01" purity="5.4276651144027710e-01" nType="-99"/>
            <Node pos="r" depth="3" NCoef="0" IVar="-1" Cut="0.0000000000000000e+00" cType="1" res="1.7371913418173790e-02" rms="3.7993270158767700e-01" purity="8.1571030616760254e-01" nType="-99"/>
          </Node>
          <Node pos="r" depth="2" NCoef="0" IVar="5" Cut="8.5495173931121826e-01" cType="1" res="0.0000000000000000e+00" rms="0.0000000000000000e+00" purity="8.5168331861495972e-01" nType="0">
            <Node pos="l" depth="3" NCoef="0" IVar="-1" Cut="0.0000000000000000e+00" cType="1" res="1.4101198874413967e-02" rms="3.6487972736358643e-01" purity="8.1663739681243896e-01" nType="-99"/>
            <Node pos="r" depth="3" NCoef="0" IVar="-1" Cut="0.0000000000000000e+00" cType="1" res="3.4527346491813660e-02" rms="2.7677461504936218e-01" purity="9.0801966190338135e-01" nType="-99"/>
          </Node>
        </Node>
      </Node>
    </BinaryTree>
    <BinaryTree type="DecisionTree" boostWeight="1.0000000000000000e+00" itree="20">
      <Node pos="s" depth="0" NCoef="0" IVar="0" Cut="7.0000000000000000e+00" cType="1" res="-4.6714339405298233e-02" rms="4.4850143790245056e-01" purity="5.0000000000000000e-01" nType="0">
        <Node pos="l" depth="1" NCoef="0" IVar="10" Cut="8.1408464908599854e-01" cType="1" res="1.0159448720514774e-05" rms="3.1873728148639202e-03" purity="1.8920958042144775e-01" nType="0">
          <Node pos="l" depth="2" NCoef="0" IVar="10" Cut="6.7968201637268066e-01" cType="1" res="1.3194058738008607e-05" rms="3.6323387175798416e-03" purity="1.2711156904697418e-01" nType="0">
            <Node pos="l" depth="3" NCoef="0" IVar="-1" Cut="0.0000000000000000e+00" cType="1" res="-6.8577011115849018e-03" rms="2.7889621257781982e-01" purity="8.5196606814861298e-02" nType="-99"/>
            <Node pos="r" depth="3" NCoef="0" IVar="-1" Cut="0.0000000000000000e+00" cType="1" res="-6.5360809676349163e-03" rms="3.9835080504417419e-01" purity="2.0026065409183502e-01" nType="-99"/>
          </Node>
          <Node pos="r" depth="2" NCoef="0" IVar="-1" Cut="0.0000000000000000e+00" cType="1" res="-2.8580338694155216e-03" rms="4.8677301406860352e-01" purity="3.9710509777069092e-01" nType="-99"/>
        </Node>
        <Node pos="r" depth="1" NCoef="0" IVar="10" Cut="6.2788385152816772e-01" cType="1" res="0.0000000000000000e+00" rms="0.0000000000000000e+00" purity="6.0144019126892090e-01" nType="0">
          <Node pos="l" depth="2" NCoef="0" IVar="0" Cut="9.0000000000000000e+00" cType="1" res="-1.0217978060245514e-01" rms="4.6509253978729248e-01" purity="4.0196755528450012e-01" nType="0">
            <Node pos="l" depth="3" NCoef="0" IVar="-1" Cut="0.0000000000000000e+00" cType="1" res="-4.5490586198866367e-03" rms="4.5411962270736694e-01" purity="3.1605875492095947e-01" nType="-99"/>
            <Node pos="r" depth="3" NCoef="0" IVar="-1" Cut="0.0000000000000000e+00" cType="1" res="1.0925431735813618e-02" rms="4.3708905577659607e-01" purity="7.2868847846984863e-01" nType="-99"/>
          </Node>
          <Node pos="r" depth="2" NCoef="0" IVar="18" Cut="8.1341612339019775e-01" cType="1" res="0.0000000000000000e+00" rms="0.0000000000000000e+00" purity="7.0698118209838867e-01" nType="0">
            <Node pos="l" depth="3" NCoef="0" IVar="-1" Cut="0.0000000000000000e+00" cType="1" res="-6.5339468419551849e-03" rms="4.6608412265777588e-01" purity="4.5639774203300476e-01" nType="-99"/>
            <Node pos="r" depth="3" NCoef="0" IVar="-1" Cut="0.0000000000000000e+00" cType="1" res="8.9176129549741745e-03" rms="4.0929338335990906e-01" purity="7.4263566732406616e-01" nType="-99"/>
          </Node>
        </Node>
      </Node>
    </BinaryTree>
    <BinaryTree type="DecisionTree" boostWeight="1.0000000000000000e+00" itree="21">
      <Node pos="s" depth="0" NCoef="0" IVar="0" Cut="7.0000000000000000e+00" cType="1" res="-4.7367814928293228e-02" rms="4.4729572534561157e-01" purity="5.0000000000000000e-01" nType="0">
        <Node pos="l" depth="1" NCoef="0" IVar="10" Cut="7.4352341890335083e-01" cType="1" res="2.5280773639678955e-01" rms="0.0000000000000000e+00" purity="1.8920958042144775e-01" nType="0">
          <Node pos="l" depth="2" NCoef="0" IVar="8" Cut="2.0586642622947693e-01" cType="1" res="0.0000000000000000e+00" rms="0.0000000000000000e+00" purity="1.0189579427242279e-01" nType="0">
            <Node pos="l" depth="3" NCoef="0" IVar="-1" Cut="0.0000000000000000e+00" cType="1" res="-7.1044857613742352e-03" rms="2.8146237134933472e-01" purity="8.6975947022438049e-02" nType="-99"/>
            <Node pos="r" depth="3" NCoef="0" IVar="-1" Cut="0.0000000000000000e+00" cType="1" res="-6.4110863022506237e-03" rms="3.2002937793731689e-01" purity="1.1618439108133316e-01" nType="-99"/>
          </Node>
          <Node pos="r" depth="2" NCoef="0" IVar="-1" Cut="0.0000000000000000e+00" cType="1" res="-4.4212960638105869e-03" rms="4.6898615360260010e-01" purity="3.3720153570175171e-01" nType="-99"/>
        </Node>
        <Node pos="r" depth="1" NCoef="0" IVar="5" Cut="3.8280320167541504e-01" cType="1" res="0.0000000000000000e+00" rms="0.0000000000000000e+00" purity="6.0144019126892090e-01" nType="0">
          <Node pos="l" depth="2" NCoef="0" IVar="0" Cut="9.0000000000000000e+00" cType="1" res="-9.7808063030242920e-02" rms="4.6426618099212646e-01" purity="4.4669994711875916e-01" nType="0">
            <Node pos="l" depth="3" NCoef="0" IVar="-1" Cut="0.0000000000000000e+00" cType="1" res="-5.2144718356430531e-03" rms="4.5826879143714905e-01" purity="3.7745365500450134e-01" nType="-99"/>
            <Node pos="r" depth="3" NCoef="0" IVar="-1" Cut="0.0000000000000000e+00" cType="1" res="1.1025145649909973e-02" rms="4.2909920215606689e-01" purity="7.3832255601882935e-01" nType="-99"/>
          </Node>
          <Node pos="r" depth="2" NCoef="0" IVar="10" Cut="5.1943761110305786e-01" cType="1" res="0.0000000000000000e+00" rms="0.0000000000000000e+00" purity="6.9098353385925293e-01" nType="0">
            <Node pos="l" depth="3" NCoef="0" IVar="-1" Cut="0.0000000000000000e+00" cType="1" res="-3.1546908430755138e-03" rms="4.6538576483726501e-01" purity="3.9301303029060364e-01" nType="-99"/>
            <Node pos="r" depth="3" NCoef="0" IVar="-1" Cut="0.0000000000000000e+00" cType="1" res="8.7821688503026962e-03" rms="4.0581747889518738e-01" purity="7.4180418252944946e-01" nType="-99"/>
          </Node>
        </Node>
      </Node>
    </BinaryTree>
    <BinaryTree type="DecisionTree" boostWeight="1.0000000000000000e+00" itree="22">
      <Node pos="s" depth="0" NCoef="0" IVar="0" Cut="8.0000000000000000e+00" cType="1" res="-4.7855228185653687e-02" rms="4.4615864753723145e-01" purity="5.0000000000000000e-01" nType="0">
        <Node pos="l" depth="1" NCoef="0" IVar="10" Cut="7.7366983890533447e-01" cType="1" res="0.0000000000000000e+00" rms="0.0000000000000000e+00" purity="3.4149610996246338e-01" nType="0">
          <Node pos="l" depth="2" NCoef="0" IVar="5" Cut="7.1487569808959961e-01" cType="1" res="0.0000000000000000e+00" rms="0.0000000000000000e+00" purity="2.3548318445682526e-01" nType="0">
            <Node pos="l" depth="3" NCoef="0" IVar="-1" Cut="0.0000000000000000e+00" cType="1" res="-6.3908910378813744e-03" rms="3.7796077132225037e-01" purity="1.8570688366889954e-01" nType="-99"/>
            <Node pos="r" depth="3" NCoef="0" IVar="-1" Cut="0.0000000000000000e+00" cType="1" res="-2.3783321958035231e-03" rms="4.7216647863388062e-01" purity="3.8466778397560120e-01" nType="-99"/>
          </Node>
          <Node pos="r" depth="2" NCoef="0" IVar="18" Cut="1.1940950155258179e+00" cType="1" res="0.0000000000000000e+00" rms="0.0000000000000000e+00" purity="5.6466931104660034e-01" nType="0">
            <Node pos="l" depth="3" NCoef="0" IVar="-1" Cut="0.0000000000000000e+00" cType="1" res="-6.2747192569077015e-03" rms="4.6195659041404724e-01" purity="3.8225391507148743e-01" nType="-99"/>
            <Node pos="r" depth="3" NCoef="0" IVar="-1" Cut="0.0000000000000000e+00" cType="1" res="5.6537212803959846e-03" rms="4.5687139034271240e-01" purity="6.4141780138015747e-01" nType="-99"/>
          </Node>
        </Node>
        <Node pos="r" depth="1" NCoef="0" IVar="4" Cut="2.3002908229827881e+00" cType="1" res="0.0000000000000000e+00" rms="0.0000000000000000e+00" purity="7.3230516910552979e-01" nType="0">
          <Node pos="l" depth="2" NCoef="0" IVar="18" Cut="1.0771540403366089e+00" cType="1" res="0.0000000000000000e+00" rms="0.0000000000000000e+00" purity="7.7128309011459351e-01" nType="0">
            <Node pos="l" depth="3" NCoef="0" IVar="-1" Cut="0.0000000000000000e+00" cType="1" res="-2.0285071805119514e-03" rms="4.5884561538696289e-01" purity="5.8910113573074341e-01" nType="-99"/>
            <Node pos="r" depth="3" NCoef="0" IVar="-1" Cut="0.0000000000000000e+00" cType="1" res="1.7743708565831184e-02" rms="3.5304668545722961e-01" purity="8.2925921678543091e-01" nType="-99"/>
          </Node>
          <Node pos="r" depth="2" NCoef="0" IVar="-1" Cut="0.0000000000000000e+00" cType="1" res="-2.1965736523270607e-03" rms="4.5938119292259216e-01" purity="5.8162409067153931e-01" nType="-99"/>
        </Node>
      </Node>
    </BinaryTree>
    <BinaryTree type="DecisionTree" boostWeight="1.0000000000000000e+00" itree="23">
      <Node pos="s" depth="0" NCoef="0" IVar="0" Cut="7.0000000000000000e+00" cType="1" res="-4.8701174557209015e-02" rms="4.4466933608055115e-01" purity="5.0000000000000000e-01" nType="0">
        <Node pos="l" depth="1" NCoef="0" IVar="10" Cut="8.1408464908599854e-01" cType="1" res="1.0159448720514774e-05" rms="4.3498227000236511e-01" purity="1.8920958042144775e-01" nType="0">
          <Node pos="l" depth="2" NCoef="0" IVar="10" Cut="6.7968201637268066e-01" cType="1" res="1.3194058738008607e-05" rms="3.5649007558822632e-01" purity="1.2711156904697418e-01" nType="0">
            <Node pos="l" depth="3" NCoef="0" IVar="-1" Cut="0.0000000000000000e+00" cType="1" res="-6.7102229222655296e-03" rms="2.7878761291503906e-01" purity="8.5196606814861298e-02" nType="-99"/>
            <Node pos="r" depth="3" NCoef="0" IVar="-1" Cut="0.0000000000000000e+00" cType="1" res="-6.3557373359799385e-03" rms="3.9797583222389221e-01" purity="2.0026065409183502e-01" nType="-99"/>
          </Node>
          <Node pos="r" depth="2" NCoef="0" IVar="-1" Cut="0.0000000000000000e+00" cType="1" res="-2.7369901072233915e-03" rms="4.8605817556381226e-01" purity="3.9710509777069092e-01" nType="-99"/>
        </Node>
        <Node pos="r" depth="1" NCoef="0" IVar="5" Cut="4.3023541569709778e-01" cType="1" res="0.0000000000000000e+00" rms="0.0000000000000000e+00" purity="6.0144019126892090e-01" nType="0">
          <Node pos="l" depth="2" NCoef="0" IVar="10" Cut="7.7332812547683716e-01" cType="1" res="0.0000000000000000e+00" rms="0.0000000000000000e+00" purity="4.6121141314506531e-01" nType="0">
            <Node pos="l" depth="3" NCoef="0" IVar="-1" Cut="0.0000000000000000e+00" cType="1" res="-5.1716798916459084e-03" rms="4.5266103744506836e-01" purity="3.6925560235977173e-01" nType="-99"/>
            <Node pos="r" depth="3" NCoef="0" IVar="-1" Cut="0.0000000000000000e+00" cType="1" res="5.5268993601202965e-03" rms="4.4858098030090332e-01" purity="6.8471485376358032e-01" nType="-99"/>
          </Node>
          <Node pos="r" depth="2" NCoef="0" IVar="10" Cut="5.1943761110305786e-01" cType="1" res="0.0000000000000000e+00" rms="0.0000000000000000e+00" purity="7.0014286041259766e-01" nType="0">
            <Node pos="l" depth="3" NCoef="0" IVar="-1" Cut="0.0000000000000000e+00" cType="1" res="-2.9288101941347122e-03" rms="4.6540036797523499e-01" purity="4.0196382999420166e-01" nType="-99"/>
            <Node pos="r" depth="3" NCoef="0" IVar="-1" Cut="0.0000000000000000e+00" cType="1" res="9.0180197730660439e-03" rms="4.0053948760032654e-01" purity="7.5062590837478638e-01" nType="-99"/>
          </Node>
        </Node>
      </Node>
    </BinaryTree>
    <BinaryTree type="DecisionTree" boostWeight="1.0000000000000000e+00" itree="24">
      <Node pos="s" depth="0" NCoef="0" IVar="0" Cut="7.0000000000000000e+00" cType="1" res="-4.9110017716884613e-02" rms="4.4360163807868958e-01" purity="5.0000000000000000e-01" nType="0">
        <Node pos="l" depth="1" NCoef="0" IVar="10" Cut="7.4352341890335083e-01" cType="1" res="1.0159448720514774e-05" rms="4.3498227000236511e-01" purity="1.8920958042144775e-01" nType="0">
          <Node pos="l" depth="2" NCoef="0" IVar="8" Cut="2.0586642622947693e-01" cType="1" res="0.0000000000000000e+00" rms="3.1918591260910034e-01" purity="1.0189579427242279e-01" nType="0">
            <Node pos="l" depth="3" NCoef="0" IVar="-1" Cut="0.0000000000000000e+00" cType="1" res="-6.9499928504228592e-03" rms="2.8135070204734802e-01" purity="8.6975947022438049e-02" nType="-99"/>
            <Node pos="r" depth="3" NCoef="0" IVar="-1" Cut="0.0000000000000000e+00" cType="1" res="-6.2606525607407093e-03" rms="3.1990170478820801e-01" purity="1.1618439108133316e-01" nType="-99"/>
          </Node>
          <Node pos="r" depth="2" NCoef="0" IVar="-1" Cut="0.0000000000000000e+00" cType="1" res="-4.2786439880728722e-03" rms="4.6819913387298584e-01" purity="3.3720153570175171e-01" nType="-99"/>
        </Node>
        <Node pos="r" depth="1" NCoef="0" IVar="10" Cut="6.2788385152816772e-01" cType="1" res="0.0000000000000000e+00" rms="0.0000000000000000e+00" purity="6.0144019126892090e-01" nType="0">
          <Node pos="l" depth="2" NCoef="0" IVar="0" Cut="8.0000000000000000e+00" cType="1" res="-1.0284858196973801e-01" rms="4.6131798624992371e-01" purity="4.0196755528450012e-01" nType="0">
            <Node pos="l" depth="3" NCoef="0" IVar="-1" Cut="0.0000000000000000e+00" cType="1" res="-5.3080972284078598e-03" rms="4.1837430000305176e-01" purity="2.2971886396408081e-01" nType="-99"/>
            <Node pos="r" depth="3" NCoef="0" IVar="-1" Cut="0.0000000000000000e+00" cType="1" res="8.0479505413677543e-05" rms="4.7431531548500061e-01" purity="5.6112396717071533e-01" nType="-99"/>
          </Node>
          <Node pos="r" depth="2" NCoef="0" IVar="18" Cut="8.1341612339019775e-01" cType="1" res="0.0000000000000000e+00" rms="0.0000000000000000e+00" purity="7.0698118209838867e-01" nType="0">
            <Node pos="l" depth="3" NCoef="0" IVar="-1" Cut="0.0000000000000000e+00" cType="1" res="-6.4822938293218613e-03" rms="4.6458530426025391e-01" purity="4.5639774203300476e-01" nType="-99"/>
            <Node pos="r" depth="3" NCoef="0" IVar="-1" Cut="0.0000000000000000e+00" cType="1" res="8.1267701461911201e-03" rms="4.0741008520126343e-01" purity="7.4263566732406616e-01" nType="-99"/>
          </Node>
        </Node>
      </Node>
    </BinaryTree>
    <BinaryTree type="DecisionTree" boostWeight="1.0000000000000000e+00" itree="25">
      <Node pos="s" depth="0" NCoef="0" IVar="0" Cut="8.0000000000000000e+00" cType="1" res="-4.9464933574199677e-02" rms="4.4262400269508362e-01" purity="5.0000000000000000e-01" nType="0">
        <Node pos="l" depth="1" NCoef="0" IVar="10" Cut="7.7366983890533447e-01" cType="1" res="4.2057722566823941e-06" rms="0.0000000000000000e+00" purity="3.4149610996246338e-01" nType="0">
          <Node pos="l" depth="2" NCoef="0" IVar="5" Cut="7.1487569808959961e-01" cType="1" res="6.2036197050474584e-06" rms="0.0000000000000000e+00" purity="2.3548318445682526e-01" nType="0">
            <Node pos="l" depth="3" NCoef="0" IVar="-1" Cut="0.0000000000000000e+00" cType="1" res="-6.2657087109982967e-03" rms="3.7673884630203247e-01" purity="1.8570688366889954e-01" nType="-99"/>
            <Node pos="r" depth="3" NCoef="0" IVar="-1" Cut="0.0000000000000000e+00" cType="1" res="-2.3410366848111153e-03" rms="4.7035408020019531e-01" purity="3.8466778397560120e-01" nType="-99"/>
          </Node>
          <Node pos="r" depth="2" NCoef="0" IVar="5" Cut="4.7728243470191956e-01" cType="1" res="1.3059560842521023e-05" rms="7.5142741203308105e-01" purity="5.6466931104660034e-01" nType="0">
            <Node pos="l" depth="3" NCoef="0" IVar="-1" Cut="0.0000000000000000e+00" cType="1" res="-4.4386927038431168e-03" rms="4.7194495797157288e-01" purity="4.2378693819046021e-01" nType="-99"/>
            <Node pos="r" depth="3" NCoef="0" IVar="-1" Cut="0.0000000000000000e+00" cType="1" res="7.7708936296403408e-03" rms="4.4325867295265198e-01" purity="6.8246376514434814e-01" nType="-99"/>
          </Node>
        </Node>
        <Node pos="r" depth="1" NCoef="0" IVar="0" Cut="9.0000000000000000e+00" cType="1" res="7.9917699098587036e-02" rms="4.0944084525108337e-01" purity="7.3230516910552979e-01" nType="0">
          <Node pos="l" depth="2" NCoef="0" IVar="5" Cut="6.6745847463607788e-01" cType="1" res="1.0176323485211469e-05" rms="3.1900187022984028e-03" purity="6.6221404075622559e-01" nType="0">
            <Node pos="l" depth="3" NCoef="0" IVar="-1" Cut="0.0000000000000000e+00" cType="1" res="-1.5168498503044248e-03" rms="4.6234050393104553e-01" purity="5.7576835155487061e-01" nType="-99"/>
            <Node pos="r" depth="3" NCoef="0" IVar="-1" Cut="0.0000000000000000e+00" cType="1" res="1.3560829684138298e-02" rms="3.5985955595970154e-01" purity="8.2178097963333130e-01" nType="-99"/>
          </Node>
          <Node pos="r" depth="2" NCoef="0" IVar="5" Cut="3.8392123579978943e-01" cType="1" res="1.5633739531040192e-04" rms="4.7919553518295288e-01" purity="8.3998525142669678e-01" nType="0">
            <Node pos="l" depth="3" NCoef="0" IVar="-1" Cut="0.0000000000000000e+00" cType="1" res="1.0120910592377186e-02" rms="4.2722398042678833e-01" purity="7.3845982551574707e-01" nType="-99"/>
            <Node pos="r" depth="3" NCoef="0" IVar="-1" Cut="0.0000000000000000e+00" cType="1" res="2.8964925557374954e-02" rms="3.0069607496261597e-01" purity="8.9063674211502075e-01" nType="-99"/>
          </Node>
        </Node>
      </Node>
    </BinaryTree>
    <BinaryTree type="DecisionTree" boostWeight="1.0000000000000000e+00" itree="26">
      <Node pos="s" depth="0" NCoef="0" IVar="0" Cut="7.0000000000000000e+00" cType="1" res="-5.0481244921684265e-02" rms="4.4111788272857666e-01" purity="5.0000000000000000e-01" nType="0">
        <Node pos="l" depth="1" NCoef="0" IVar="10" Cut="8.1408464908599854e-01" cType="1" res="1.0159448720514774e-05" rms="0.0000000000000000e+00" purity="1.8920958042144775e-01" nType="0">
          <Node pos="l" depth="2" NCoef="0" IVar="5" Cut="5.2525603771209717e-01" cType="1" res="0.0000000000000000e+00" rms="0.0000000000000000e+00" purity="1.2711156904697418e-01" nType="0">
            <Node pos="l" depth="3" NCoef="0" IVar="-1" Cut="0.0000000000000000e+00" cType="1" res="-7.1681449189782143e-03" rms="2.7515095472335815e-01" purity="8.3298429846763611e-02" nType="-99"/>
            <Node pos="r" depth="3" NCoef="0" IVar="-1" Cut="0.0000000000000000e+00" cType="1" res="-5.3504551760852337e-03" rms="3.8989979028701782e-01" purity="1.9033074378967285e-01" nType="-99"/>
          </Node>
          <Node pos="r" depth="2" NCoef="0" IVar="-1" Cut="0.0000000000000000e+00" cType="1" res="-2.6311678811907768e-03" rms="4.8535197973251343e-01" purity="3.9710509777069092e-01" nType="-99"/>
        </Node>
        <Node pos="r" depth="1" NCoef="0" IVar="10" Cut="7.0018136501312256e-01" cType="1" res="0.0000000000000000e+00" rms="0.0000000000000000e+00" purity="6.0144019126892090e-01" nType="0">
          <Node pos="l" depth="2" NCoef="0" IVar="0" Cut="9.0000000000000000e+00" cType="1" res="-7.1573488414287567e-02" rms="4.6167132258415222e-01" purity="4.5463129878044128e-01" nType="0">
            <Node pos="l" depth="3" NCoef="0" IVar="-1" Cut="0.0000000000000000e+00" cType="1" res="-3.9268326945602894e-03" rms="4.6126329898834229e-01" purity="3.6659669876098633e-01" nType="-99"/>
            <Node pos="r" depth="3" NCoef="0" IVar="-1" Cut="0.0000000000000000e+00" cType="1" res="1.1965370737016201e-02" rms="4.0975564718246460e-01" purity="7.6830142736434937e-01" nType="-99"/>
          </Node>
          <Node pos="r" depth="2" NCoef="0" IVar="18" Cut="1.0280299186706543e+00" cType="1" res="0.0000000000000000e+00" rms="0.0000000000000000e+00" purity="7.5280112028121948e-01" nType="0">
            <Node pos="l" depth="3" NCoef="0" IVar="-1" Cut="0.0000000000000000e+00" cType="1" res="-2.9011114966124296e-03" rms="4.6264582872390747e-01" purity="5.7571530342102051e-01" nType="-99"/>
            <Node pos="r" depth="3" NCoef="0" IVar="-1" Cut="0.0000000000000000e+00" cType="1" res="1.2121876701712608e-02" rms="3.8213762640953064e-01" purity="7.9411602020263672e-01" nType="-99"/>
          </Node>
        </Node>
      </Node>
    </BinaryTree>
    <BinaryTree type="DecisionTree" boostWeight="1.0000000000000000e+00" itree="27">
      <Node pos="s" depth="0" NCoef="0" IVar="0" Cut="7.0000000000000000e+00" cType="1" res="-5.1158163696527481e-02" rms="4.3994110822677612e-01" purity="5.0000000000000000e-01" nType="0">
        <Node pos="l" depth="1" NCoef="0" IVar="10" Cut="7.4352341890335083e-01" cType="1" res="0.0000000000000000e+00" rms="0.0000000000000000e+00" purity="1.8920958042144775e-01" nType="0">
          <Node pos="l" depth="2" NCoef="0" IVar="8" Cut="2.0586642622947693e-01" cType="1" res="1.0183118283748627e-01" rms="3.0250629782676697e-01" purity="1.0189579427242279e-01" nType="0">
            <Node pos="l" depth="3" NCoef="0" IVar="-1" Cut="0.0000000000000000e+00" cType="1" res="-6.8036611191928387e-03" rms="2.8119647502899170e-01" purity="8.6975947022438049e-02" nType="-99"/>
            <Node pos="r" depth="3" NCoef="0" IVar="-1" Cut="0.0000000000000000e+00" cType="1" res="-6.1168749816715717e-03" rms="3.1972515583038330e-01" purity="1.1618439108133316e-01" nType="-99"/>
          </Node>
          <Node pos="r" depth="2" NCoef="0" IVar="-1" Cut="0.0000000000000000e+00" cType="1" res="-4.1439980268478394e-03" rms="4.6734336018562317e-01" purity="3.3720153570175171e-01" nType="-99"/>
        </Node>
        <Node pos="r" depth="1" NCoef="0" IVar="5" Cut="4.7766762971878052e-01" cType="1" res="0.0000000000000000e+00" rms="0.0000000000000000e+00" purity="6.0144019126892090e-01" nType="0">
          <Node pos="l" depth="2" NCoef="0" IVar="10" Cut="7.7160280942916870e-01" cType="1" res="0.0000000000000000e+00" rms="0.0000000000000000e+00" purity="4.7450852394104004e-01" nType="0">
            <Node pos="l" depth="3" NCoef="0" IVar="-1" Cut="0.0000000000000000e+00" cType="1" res="-4.9321837723255157e-03" rms="4.5231819152832031e-01" purity="3.8109233975410461e-01" nType="-99"/>
            <Node pos="r" depth="3" NCoef="0" IVar="-1" Cut="0.0000000000000000e+00" cType="1" res="5.3248382173478603e-03" rms="4.4242718815803528e-01" purity="6.9478160142898560e-01" nType="-99"/>
          </Node>
          <Node pos="r" depth="2" NCoef="0" IVar="10" Cut="5.5637341737747192e-01" cType="1" res="0.0000000000000000e+00" rms="0.0000000000000000e+00" purity="7.0953750610351562e-01" nType="0">
            <Node pos="l" depth="3" NCoef="0" IVar="-1" Cut="0.0000000000000000e+00" cType="1" res="-1.9463500939309597e-03" rms="4.6839183568954468e-01" purity="4.4692918658256531e-01" nType="-99"/>
            <Node pos="r" depth="3" NCoef="0" IVar="-1" Cut="0.0000000000000000e+00" cType="1" res="1.0056536644697189e-02" rms="3.8704055547714233e-01" purity="7.7478367090225220e-01" nType="-99"/>
          </Node>
        </Node>
      </Node>
    </BinaryTree>
    <BinaryTree type="DecisionTree" boostWeight="1.0000000000000000e+00" itree="28">
      <Node pos="s" depth="0" NCoef="0" IVar="0" Cut="8.0000000000000000e+00" cType="1" res="-5.1484204828739166e-02" rms="4.3894571065902710e-01" purity="5.0000000000000000e-01" nType="0">
        <Node pos="l" depth="1" NCoef="0" IVar="10" Cut="7.7366983890533447e-01" cType="1" res="0.0000000000000000e+00" rms="2.0507979206740856e-03" purity="3.4149610996246338e-01" nType="0">
          <Node pos="l" depth="2" NCoef="0" IVar="5" Cut="7.1487569808959961e-01" cType="1" res="6.2036197050474584e-06" rms="2.4906990583986044e-03" purity="2.3548318445682526e-01" nType="0">
            <Node pos="l" depth="3" NCoef="0" IVar="-1" Cut="0.0000000000000000e+00" cType="1" res="-6.1361449770629406e-03" rms="3.7572970986366272e-01" purity="1.8570688366889954e-01" nType="-99"/>
            <Node pos="r" depth="3" NCoef="0" IVar="-1" Cut="0.0000000000000000e+00" cType="1" res="-2.3047316353768110e-03" rms="4.6885725855827332e-01" purity="3.8466778397560120e-01" nType="-99"/>
          </Node>
          <Node pos="r" depth="2" NCoef="0" IVar="5" Cut="5.7220631837844849e-01" cType="1" res="1.3059560842521023e-05" rms="3.6137779243290424e-03" purity="5.6466931104660034e-01" nType="0">
            <Node pos="l" depth="3" NCoef="0" IVar="-1" Cut="0.0000000000000000e+00" cType="1" res="-3.6485281307250261e-03" rms="4.7228199243545532e-01" purity="4.5164647698402405e-01" nType="-99"/>
            <Node pos="r" depth="3" NCoef="0" IVar="-1" Cut="0.0000000000000000e+00" cType="1" res="9.1624166816473007e-03" rms="4.3226456642150879e-01" purity="7.0789670944213867e-01" nType="-99"/>
          </Node>
        </Node>
        <Node pos="r" depth="1" NCoef="0" IVar="4" Cut="2.5433309078216553e+00" cType="1" res="5.5476266425102949e-05" rms="0.0000000000000000e+00" purity="7.3230516910552979e-01" nType="0">
          <Node pos="l" depth="2" NCoef="0" IVar="18" Cut="1.0771540403366089e+00" cType="1" res="0.0000000000000000e+00" rms="0.0000000000000000e+00" purity="7.6568794250488281e-01" nType="0">
            <Node pos="l" depth="3" NCoef="0" IVar="-1" Cut="0.0000000000000000e+00" cType="1" res="-2.3746243678033352e-03" rms="4.5559799671173096e-01" purity="5.8910113573074341e-01" nType="-99"/>
            <Node pos="r" depth="3" NCoef="0" IVar="-1" Cut="0.0000000000000000e+00" cType="1" res="1.4476914890110493e-02" rms="3.5944691300392151e-01" purity="8.1799381971359253e-01" nType="-99"/>
          </Node>
          <Node pos="r" depth="2" NCoef="0" IVar="-1" Cut="0.0000000000000000e+00" cType="1" res="-3.5957247018814087e-03" rms="4.5869112014770508e-01" purity="5.5795246362686157e-01" nType="-99"/>
        </Node>
      </Node>
    </BinaryTree>
    <BinaryTree type="DecisionTree" boostWeight="1.0000000000000000e+00" itree="29">
      <Node pos="s" depth="0" NCoef="0" IVar="0" Cut="7.0000000000000000e+00" cType="1" res="-5.2040122449398041e-02" rms="4.3771368265151978e-01" purity="5.0000000000000000e-01" nType="0">
        <Node pos="l" depth="1" NCoef="0" IVar="10" Cut="8.1408464908599854e-01" cType="1" res="1.0159448720514774e-05" rms="3.1873728148639202e-03" purity="1.8920958042144775e-01" nType="0">
          <Node pos="l" depth="2" NCoef="0" IVar="10" Cut="6.7968201637268066e-01" cType="1" res="1.3194058738008607e-05" rms="3.6323387175798416e-03" purity="1.2711156904697418e-01" nType="0">
            <Node pos="l" depth="3" NCoef="0" IVar="-1" Cut="0.0000000000000000e+00" cType="1" res="-6.4367973245680332e-03" rms="2.7853620052337646e-01" purity="8.5196606814861298e-02" nType="-99"/>
            <Node pos="r" depth="3" NCoef="0" IVar="-1" Cut="0.0000000000000000e+00" cType="1" res="-6.0094809159636497e-03" rms="3.9714175462722778e-01" purity="2.0026065409183502e-01" nType="-99"/>
          </Node>
          <Node pos="r" depth="2" NCoef="0" IVar="-1" Cut="0.0000000000000000e+00" cType="1" res="-2.5227018631994724e-03" rms="4.8464107513427734e-01" purity="3.9710509777069092e-01" nType="-99"/>
        </Node>
        <Node pos="r" depth="1" NCoef="0" IVar="9" Cut="4.5494772493839264e-02" cType="1" res="0.0000000000000000e+00" rms="0.0000000000000000e+00" purity="6.0144019126892090e-01" nType="0">
          <Node pos="l" depth="2" NCoef="0" IVar="5" Cut="4.7766762971878052e-01" cType="1" res="0.0000000000000000e+00" rms="0.0000000000000000e+00" purity="4.5192289352416992e-01" nType="0">
            <Node pos="l" depth="3" NCoef="0" IVar="-1" Cut="0.0000000000000000e+00" cType="1" res="-7.3778685182332993e-03" rms="4.3709751963615417e-01" purity="3.2949468493461609e-01" nType="-99"/>
            <Node pos="r" depth="3" NCoef="0" IVar="-1" Cut="0.0000000000000000e+00" cType="1" res="-4.1215014061890543e-04" rms="4.5357865095138550e-01" purity="5.6667655706405640e-01" nType="-99"/>
          </Node>
          <Node pos="r" depth="2" NCoef="0" IVar="5" Cut="2.8803402185440063e-01" cType="1" res="0.0000000000000000e+00" rms="0.0000000000000000e+00" purity="6.9864588975906372e-01" nType="0">
            <Node pos="l" depth="3" NCoef="0" IVar="-1" Cut="0.0000000000000000e+00" cType="1" res="-1.9812660757452250e-03" rms="4.6598219871520996e-01" purity="5.1578348875045776e-01" nType="-99"/>
            <Node pos="r" depth="3" NCoef="0" IVar="-1" Cut="0.0000000000000000e+00" cType="1" res="7.7575994655489922e-03" rms="3.8938918709754944e-01" purity="7.6305037736892700e-01" nType="-99"/>
          </Node>
        </Node>
      </Node>
    </BinaryTree>
    <BinaryTree type="DecisionTree" boostWeight="1.0000000000000000e+00" itree="30">
      <Node pos="s" depth="0" NCoef="0" IVar="0" Cut="7.0000000000000000e+00" cType="1" res="-5.1866408437490463e-02" rms="4.3686473369598389e-01" purity="5.0000000000000000e-01" nType="0">
        <Node pos="l" depth="1" NCoef="0" IVar="10" Cut="7.4352341890335083e-01" cType="1" res="1.0159448720514774e-05" rms="3.1873728148639202e-03" purity="1.8920958042144775e-01" nType="0">
          <Node pos="l" depth="2" NCoef="0" IVar="8" Cut="2.0586642622947693e-01" cType="1" res="1.6153424439835362e-05" rms="4.0190997533500195e-03" purity="1.0189579427242279e-01" nType="0">
            <Node pos="l" depth="3" NCoef="0" IVar="-1" Cut="0.0000000000000000e+00" cType="1" res="-6.6629890352487564e-03" rms="2.8109678626060486e-01" purity="8.6975947022438049e-02" nType="-99"/>
            <Node pos="r" depth="3" NCoef="0" IVar="-1" Cut="0.0000000000000000e+00" cType="1" res="-5.9790005907416344e-03" rms="3.1960940361022949e-01" purity="1.1618439108133316e-01" nType="-99"/>
          </Node>
          <Node pos="r" depth="2" NCoef="0" IVar="-1" Cut="0.0000000000000000e+00" cType="1" res="-4.0110172703862190e-03" rms="4.6655076742172241e-01" purity="3.3720153570175171e-01" nType="-99"/>
        </Node>
        <Node pos="r" depth="1" NCoef="0" IVar="10" Cut="5.9173506498336792e-01" cType="1" res="0.0000000000000000e+00" rms="0.0000000000000000e+00" purity="6.0144019126892090e-01" nType="0">
          <Node pos="l" depth="2" NCoef="0" IVar="0" Cut="8.0000000000000000e+00" cType="1" res="-1.2237309664487839e-01" rms="4.5231157541275024e-01" purity="3.7368062138557434e-01" nType="0">
            <Node pos="l" depth="3" NCoef="0" IVar="-1" Cut="0.0000000000000000e+00" cType="1" res="-5.2469563670456409e-03" rms="4.0424099564552307e-01" purity="2.1001510322093964e-01" nType="-99"/>
            <Node pos="r" depth="3" NCoef="0" IVar="-1" Cut="0.0000000000000000e+00" cType="1" res="-1.1505684815347195e-03" rms="4.7456738352775574e-01" purity="5.3130459785461426e-01" nType="-99"/>
          </Node>
          <Node pos="r" depth="2" NCoef="0" IVar="18" Cut="8.1341612339019775e-01" cType="1" res="0.0000000000000000e+00" rms="0.0000000000000000e+00" purity="6.8750172853469849e-01" nType="0">
            <Node pos="l" depth="3" NCoef="0" IVar="-1" Cut="0.0000000000000000e+00" cType="1" res="-6.6786333918571472e-03" rms="4.5798999071121216e-01" purity="4.3640637397766113e-01" nType="-99"/>
            <Node pos="r" depth="3" NCoef="0" IVar="-1" Cut="0.0000000000000000e+00" cType="1" res="6.0502951964735985e-03" rms="4.1104266047477722e-01" purity="7.2367352247238159e-01" nType="-99"/>
          </Node>
        </Node>
      </Node>
    </BinaryTree>
    <BinaryTree type="DecisionTree" boostWeight="1.0000000000000000e+00" itree="31">
      <Node pos="s" depth="0" NCoef="0" IVar="0" Cut="8.0000000000000000e+00" cType="1" res="-5.1943652331829071e-02" rms="4.3608948588371277e-01" purity="5.0000000000000000e-01" nType="0">
        <Node pos="l" depth="1" NCoef="0" IVar="10" Cut="7.7366983890533447e-01" cType="1" res="0.0000000000000000e+00" rms="0.0000000000000000e+00" purity="3.4149610996246338e-01" nType="0">
          <Node pos="l" depth="2" NCoef="0" IVar="5" Cut="7.1487569808959961e-01" cType="1" res="6.2036197050474584e-06" rms="0.0000000000000000e+00" purity="2.3548318445682526e-01" nType="0">
            <Node pos="l" depth="3" NCoef="0" IVar="-1" Cut="0.0000000000000000e+00" cType="1" res="-6.0194567777216434e-03" rms="3.7463045120239258e-01" purity="1.8570688366889954e-01" nType="-99"/>
            <Node pos="r" depth="3" NCoef="0" IVar="-1" Cut="0.0000000000000000e+00" cType="1" res="-2.2481861524283886e-03" rms="4.6748304367065430e-01" purity="3.8466778397560120e-01" nType="-99"/>
          </Node>
          <Node pos="r" depth="2" NCoef="0" IVar="18" Cut="1.1940950155258179e+00" cType="1" res="1.3059560842521023e-05" rms="8.0582058429718018e-01" purity="5.6466931104660034e-01" nType="0">
            <Node pos="l" depth="3" NCoef="0" IVar="-1" Cut="0.0000000000000000e+00" cType="1" res="-6.1988160014152527e-03" rms="4.5711946487426758e-01" purity="3.8225391507148743e-01" nType="-99"/>
            <Node pos="r" depth="3" NCoef="0" IVar="-1" Cut="0.0000000000000000e+00" cType="1" res="4.8397094942629337e-03" rms="4.5241007208824158e-01" purity="6.4141780138015747e-01" nType="-99"/>
          </Node>
        </Node>
